437 100
plane -0.26397 -0.21354 0.52515 0.38765 0.28487 -0.46796 0.15446 -0.41537 -0.061016 0.61687 -0.23355 0.24482 -0.17649 0.46835 0.40237 -0.41894 -0.14813 0.071419 -0.59435 -0.40407 0.03511 -0.33255 -0.32774 0.35693 0.21653 -0.11647 0.63751 1.0169 0.72838 -0.16267 0.31248 -0.27163 -0.13846 -0.0341 -0.218 -0.032838 0.25485 0.42235 -0.61549 0.60128 -0.45306 0.17089 0.16929 0.013198 0.62649 -0.59252 0.24968 0.33109 -0.15781 -0.41374 -0.068763 0.013605 -0.21307 -0.06915 -0.58927 -0.52242 -0.055786 -0.13619 -0.13761 0.31584 0.82328 0.36804 -0.092455 -0.10706 0.27753 -0.76002 -0.054229 0.069276 0.036052 -0.41228 -0.52301 0.14084 0.41854 -0.05921 -0.096323 -0.43014 -0.32192 0.071469 0.04848 0.15521 0.43882 -0.26559 -0.024498 -0.4622 0.07631 -0.036997 -0.022505 0.67466 0.060569 0.022775 -0.39073 -0.17072 0.36459 0.14415 0.64652 -0.38292 0.36409 -0.40428 0.45586 0.34762
stupid -0.32128 -0.33156 0.26947 0.20086 -0.2587 -0.0084025 -0.11583 -0.061352 0.41424 0.57445 -0.80511 -0.065715 -0.045151 0.61916 0.19733 -0.24008 0.14752 -0.39093 -0.21173 -0.11177 -0.37139 -0.059056 -0.050388 -0.095284 0.037704 0.66054 0.14074 -0.11191 -0.1981 0.15578 1.0193 -0.024224 -0.30695 -0.1331 0.017373 -0.26424 -0.43078 0.078109 0.1302 -0.30464 0.10883 0.24399 0.042287 -0.020894 0.25205 -0.35899 0.2686 0.34466 -0.17621 0.25652 0.11828 -0.54382 -0.44769 0.38439 0.020632 0.38698 0.053539 0.56468 0.53441 0.24787 0.32695 0.19328 0.76342 0.38812 0.7218 -0.19031 -0.48629 -0.38919 -0.4443 0.10866 0.2737 -0.28327 1.0485 0.027806 -0.44208 0.019568 -0.23566 -0.50878 -0.14847 0.17026 0.46053 0.30131 0.39056 0.34409 0.19291 -0.14901 -0.46565 -0.58036 0.60428 0.16032 0.3256 -0.57255 0.0036094 -0.19279 -0.26615 -0.38616 -0.41082 -0.15672 -0.010994 0.46103
egg -0.38033 0.0047122 -0.41745 0.22047 0.48956 -0.40216 -0.19713 -0.67095 -0.032688 0.10771 -0.41429 0.68564 -0.22666 -0.086577 0.20052 -0.031121 0.32082 -0.39457 -0.60761 0.10308 -1.1063 -0.055011 -0.093753 -0.036499 0.14193 -0.27169 0.053176 -0.37051 -0.036484 -0.15221 0.018388 0.23492 -0.29905 0.24786 -0.11288 0.67219 0.21914 -0.31849 -0.11625 0.26722 0.54228 0.58553 0.89982 0.12043 0.25691 0.43217 -0.38717 0.62608 0.31886 -0.020129 -0.13827 0.24224 -0.34884 0.47651 -0.36801 0.22374 -0.50777 -0.50635 -0.10936 0.85293 0.41443 0.22572 -0.084139 0.72856 1.1301 0.64837 -1.314 0.0035686 -0.19188 -0.11275 -0.10714 0.47112 0.10004 -0.091536 -0.29836 0.2591 -0.057096 -0.65058 -0.16553 0.39898 0.54904 -0.5247 0.59696 0.48218 0.58588 0.037548 0.093045 -0.11763 0.33881 0.41813 -0.011035 -0.14834 0.19628 -0.051911 0.42524 -0.34669 -0.47124 -0.18877 -0.020237 0.04972
year -0.3142 -0.50356 0.023479 0.16552 0.0098081 -0.0027728 -0.63429 -0.18432 0.092947 -0.21293 -0.62381 -0.066388 -0.18371 0.24449 -0.046531 -0.4107 0.21887 -0.36013 0.2166 -0.0859 -0.32169 0.15447 -0.56499 -0.28407 -0.038541 0.060749 0.43064 0.13574 0.13401 0.37723 0.07814 0.46553 0.19034 -0.14535 -0.028853 -0.11982 0.24322 -0.27524 -0.069995 0.22302 -0.2672 -0.22805 -0.12118 0.11557 -0.011712 -0.25757 -0.25945 0.34684 0.75114 0.10706 0.23825 -0.60935 0.16754 0.13586 -0.16428 -0.17197 0.098231 -0.075129 0.1201 -0.112 0.22152 0.12739 -0.015185 0.12657 0.070947 0.15643 -0.18658 0.28414 0.15392 -0.18695 0.40413 0.011258 -0.12782 -0.31872 0.15244 -0.0738 0.0070182 0.2754 -0.53911 0.56332 0.0066509 0.20049 0.14379 -0.081775 -0.15332 0.098198 0.033994 0.59943 0.31736 0.22865 -0.08684 -0.32477 0.078594 -0.13804 -0.03476 0.11152 -2.5444E-4 -0.22935 -0.080534 -0.2072
psychiatry -1.4329 -0.086166 0.3789 -0.57188 -0.057476 0.18156 0.36622 -0.33796 -0.43052 -0.58768 -0.85775 0.25033 -0.17653 -0.12925 -0.14395 -0.11545 0.038092 -0.40558 -0.44906 -0.1465 0.28463 -0.4864 -0.01801 0.23675 -0.56427 0.075851 0.75744 -0.33208 -0.51845 -0.39657 0.47477 0.43293 0.27571 0.74738 -0.73005 -0.41562 -0.58915 0.62157 -0.21869 0.06634 0.26055 0.83007 -0.030207 -0.36133 0.43736 -0.54347 0.66721 0.015708 0.20161 0.62822 -0.033035 -0.049145 -0.25554 0.5102 0.0032627 -0.089994 0.077655 0.076948 0.7944 0.45966 -0.25159 0.24404 -0.29455 0.68279 0.79038 -0.28483 -0.1605 -0.30603 -0.34587 -0.34423 0.36043 0.57065 0.083022 -0.78264 0.09781 0.098991 -0.76016 0.82979 0.26835 -0.34509 0.15872 -0.13374 0.54326 0.046951 0.29284 0.21541 -0.34786 0.036509 0.17692 -0.36784 -0.055729 0.20051 -0.18514 0.1794 -0.34648 -0.33468 -0.16546 -0.28078 0.073953 -0.53614
asylum -0.4677 0.34223 0.18678 0.014379 0.090116 -0.045487 -0.68167 -0.33935 0.39041 -0.59909 -0.3303 0.24607 -0.75314 1.0732 0.0059683 0.1423 0.15109 0.068627 -0.16795 0.4547 -0.45275 -0.052306 0.071286 0.13778 0.91214 0.56597 1.0613 -0.34441 0.62128 -0.2819 0.37422 0.65811 -0.023626 -0.23366 -0.072401 -0.73433 0.39542 -0.18004 0.086455 0.030962 -0.57682 -0.21456 0.43144 -0.5315 0.056014 -0.079164 0.40724 -0.24337 0.0029701 0.53893 0.23302 -0.18786 -0.58398 -0.19227 0.19921 0.075145 0.12738 0.62014 0.090332 0.16322 0.86135 0.059139 0.2405 -0.14737 0.60951 -0.2276 -0.42893 -0.46682 -0.1851 0.053081 -0.01984 0.70782 0.28169 -0.18532 -0.1869 -0.067095 -0.36845 0.676 0.53686 -0.20768 0.31925 -0.16492 0.5938 0.30551 0.10305 -0.2789 0.07847 0.53139 0.031684 -0.19448 -0.058649 -0.18405 0.44937 0.27419 0.22391 -0.1474 0.12868 -0.51871 0.2681 -0.49281
manslaughter -1.0804 0.22177 0.5698 -0.04117 -0.35438 -0.34272 -0.38417 -0.69862 -0.071851 -0.12758 -0.73477 0.53786 -0.017935 0.60007 0.46169 -0.52106 -0.11824 -0.0017527 -0.15218 0.02177 0.38546 -0.13312 -0.02323 0.32552 -0.010118 0.11598 0.43744 0.05866 -0.18121 -0.11987 0.16155 -0.30932 0.34014 -0.63018 -0.82092 0.39633 0.47346 0.25901 -0.031034 -0.57832 -0.17384 0.77861 -0.41429 -0.19092 0.10899 -0.49099 -0.58263 0.83813 -0.27834 0.31422 -0.46023 -0.16932 0.45996 -0.47272 -0.44845 0.018674 -0.32948 0.19064 -0.20503 0.41011 -0.17395 0.62299 -0.11833 -0.1982 0.8425 -0.13957 -0.20876 -0.66405 -0.3927 0.23132 0.32671 0.30517 0.17857 -0.64091 0.11125 0.10253 -0.32053 0.79219 -0.006432 0.24283 -0.2507 -0.28871 0.92371 0.25545 0.74192 0.27167 -0.068908 0.44282 -0.11045 -0.11395 -0.089203 -0.28866 -0.45768 -0.050855 -0.067339 0.18484 0.12482 -0.70724 -0.0099028 -0.66867
music -0.42298 0.10789 0.034374 0.13751 0.43968 0.55315 -0.26458 -0.3722 0.36929 -0.80622 -0.68486 0.55904 0.46865 -0.33241 -0.51251 -0.57393 0.17742 -0.78277 -0.011346 -0.50673 -0.078741 0.18559 -0.28788 0.059543 -0.29458 -0.46247 -0.012202 0.045964 0.37434 0.072244 0.16582 0.28882 -0.21305 -0.49172 -0.3381 -0.05571 -0.2403 0.093365 -0.24545 -0.29458 -0.25677 0.72221 0.26083 -0.28722 -0.19796 -0.35735 0.02788 -0.24333 -0.25316 0.53835 0.83531 0.01051 -0.0037663 0.32751 -0.47383 0.60451 0.29158 -0.23791 -0.10949 -0.34237 0.33175 0.056978 0.15667 0.5657 0.43141 -0.30879 -0.070818 -0.11803 0.032931 -0.25626 -0.11418 -0.027985 0.68661 0.13515 -0.54868 -0.12217 0.55719 0.31414 -0.16086 -0.11953 -0.069372 -0.34164 0.38402 -0.17454 0.17458 -0.25802 -0.16937 -0.2408 0.039588 -0.1856 0.19195 -0.14024 -0.24726 -0.18584 0.69372 -0.14298 -0.2483 -0.48269 -0.033121 -0.23141
record -0.60239 -0.089769 0.16656 0.24857 -0.15518 -0.69381 -0.29202 -0.53976 -0.18849 -0.33414 -0.54314 -0.35339 0.2813 0.076647 -0.44736 -0.68348 0.065238 -0.37821 0.10639 -0.3608 -0.21391 -0.03913 0.026349 0.022766 -0.12642 -0.12351 0.47544 -0.066756 0.24765 -0.042193 0.12487 0.24163 -0.065192 -0.13527 0.094503 0.073134 -0.12634 0.090748 0.21889 -0.34405 -0.59843 -0.43247 0.44326 -0.15165 0.31504 -0.054336 0.18713 0.18558 0.14806 0.4153 0.90472 0.18452 -0.30728 -0.21889 0.042098 -0.29972 -0.16704 -0.20667 -0.19091 -0.17685 -0.1049 -0.029539 0.42554 0.24511 -0.46655 -0.0041928 -0.39242 0.36319 0.075098 -0.10131 0.22854 -0.13222 0.45319 -0.0514 -0.16636 -0.061409 -0.24574 -0.19926 -0.65634 0.90469 -0.23284 0.13989 0.72365 -0.034779 0.42237 0.2674 0.2998 0.045896 -0.28577 0.41914 -0.37145 -0.38052 -0.15733 -0.24836 0.18417 -0.14884 0.13383 -0.35292 -0.39018 -0.32226
energy -0.2399 -0.035778 -0.10092 -0.28851 -0.0010855 -0.068317 0.031639 -0.26692 0.19688 -0.18191 -0.6829 0.10445 0.18822 -0.37835 -0.11653 -0.49375 -0.13926 0.32917 0.039977 -0.16372 -0.067583 -0.48165 -0.17587 0.46294 -0.042135 -0.1871 0.89534 0.21866 -0.74789 0.31483 0.078687 0.37798 -0.19737 0.67744 -0.22924 0.026525 -0.30136 -0.055852 -0.26589 0.010242 -0.23448 -0.2234 0.30393 0.0073728 -0.19911 -0.091604 -0.084633 0.029644 -0.1846 -0.16497 0.45515 -0.16515 -0.22613 0.11002 -0.78933 -0.334 -0.18106 0.28984 0.3251 0.021337 0.97068 0.2145 0.23819 0.60902 -0.018029 0.22412 -0.67038 -0.66261 -0.18692 -0.61217 0.46417 -0.63278 0.22253 0.69703 -0.70536 0.23701 0.26545 0.22497 0.03439 0.49984 -0.0078724 0.24144 -0.065983 -0.011587 -0.10835 0.070613 -0.35744 0.58375 -0.087776 0.10304 0.21214 -0.51405 -0.2246 -0.13705 0.1245 0.2105 -0.32023 -0.32882 0.39137 -0.11458
announcement 0.053324 -0.67758 -0.051824 0.45956 0.10684 0.11731 -0.32254 -0.31535 0.40807 0.057462 -0.31873 -0.053929 0.13371 -0.39881 0.34921 -0.40545 0.10128 -0.59737 -0.59846 0.016601 0.040041 0.23617 -0.31662 -0.19427 -0.31892 0.19823 0.34597 0.64891 0.43153 -0.1577 -0.036496 0.23474 -0.17047 -0.013272 -0.034077 -0.221 -0.044499 -0.023664 -0.24555 -0.16853 0.13815 0.42904 -0.044518 0.070036 -0.0046964 -0.033036 -0.47988 0.81134 -0.23044 -0.11192 0.54491 0.066801 -0.37846 -0.33569 -0.3143 -0.65653 0.25002 0.26151 -0.59094 -0.17222 0.10327 0.10676 0.078931 0.43741 0.064335 0.050838 -0.375 -0.027099 0.18999 -0.14544 0.13067 -0.14836 0.014738 -0.36523 -0.061648 -0.49023 -0.06482 0.43905 0.3154 0.67542 -0.018862 -0.45023 -0.0862 0.40899 0.022363 -0.047277 -0.28607 0.39632 0.18032 0.14961 0.068027 -0.081496 0.22592 -0.082699 -0.37295 -0.50745 0.15976 -0.18345 0.17845 -0.54764
mile -0.063902 0.12999 0.027115 0.22886 0.58429 0.0024653 -0.19175 -0.19437 -0.49207 -0.026896 -0.48215 -0.15388 -0.53152 0.020158 0.38089 0.078405 0.21345 -0.74031 -0.7232 -0.27287 -0.11954 0.063088 -0.25755 -0.34308 0.10461 -0.48156 0.88259 0.38278 -0.022336 0.40763 0.18238 0.30268 0.13899 0.35883 -0.54398 -0.053689 -0.11173 -0.0062028 0.23896 0.069851 -0.25234 -0.021058 -0.011959 0.097694 1.1197 -0.25867 -0.59993 0.39377 -0.033351 -0.52897 0.54435 0.14087 0.12557 0.28291 -0.28499 -0.11998 0.25974 0.48159 -0.5138 0.33987 0.52399 0.53991 -0.06235 -0.15449 0.34939 -0.23188 0.16302 0.81664 -0.43708 0.61654 0.13028 -0.055392 -0.1202 -0.18232 -0.80716 0.34561 -0.55368 -0.31065 -0.22518 -0.0562 -0.060541 0.49724 -0.011612 -0.3266 0.494 0.21957 0.15333 1.1013 -0.31127 0.31288 -0.07361 0.070986 -0.051998 -0.8925 0.40655 0.31911 -0.44503 -0.33728 0.06331 0.14952
airport -0.36232 -0.26755 0.30116 0.032869 0.38024 0.24317 -0.034423 -0.93588 -0.25823 0.099621 -0.15226 -0.34178 -0.17397 0.44848 0.61357 -0.66686 -0.27062 0.37002 -0.85657 -0.22021 -0.32574 -0.33233 -0.29519 0.21693 -0.02446 -0.32223 0.56936 0.74056 0.68432 -0.048516 0.022043 -0.047589 0.43811 0.28017 -0.49128 -0.38567 0.81919 0.34679 -0.51914 0.60794 0.033395 0.12295 0.47638 -0.035496 0.44301 -0.77409 -0.17199 0.12442 -0.095364 -0.085885 -0.33554 -0.12333 0.03116 -0.66404 -0.5118 -0.030147 0.39803 0.35768 0.21102 -0.17416 0.83509 0.16167 0.26994 -0.37535 -0.012801 -0.83044 -0.46265 0.0032221 -0.11142 -0.03117 -0.23817 0.34071 0.44693 -0.18249 0.056705 0.11123 0.29282 -0.039884 0.18031 -0.08551 0.42777 -0.0035827 0.34842 -0.24938 0.26939 -0.20434 0.028811 0.51361 -0.46098 0.091108 -0.080735 -0.098278 0.053398 0.2196 0.48428 -0.2452 0.12496 -0.53737 0.44027 -0.0093833
population -0.84947 0.31907 -0.043538 -0.067678 0.052161 -0.12997 -1.1961 -0.069836 -0.49642 -0.34902 -0.20921 0.40406 0.091044 0.17642 -0.12755 0.4534 0.13321 -0.056312 0.058907 -0.32762 -0.47994 -0.64374 -0.28112 0.073225 0.2603 0.26592 0.75118 -0.25844 0.03499 -0.043693 -0.048152 0.37845 -0.151 0.50417 -0.65947 -0.21885 0.079694 -0.41115 -0.19484 -0.080456 -0.0060709 -0.57609 0.76524 -0.45745 0.26392 -0.072029 -0.34984 0.22565 -0.50615 -0.41388 0.39721 -0.2932 -0.44036 0.054069 -0.33197 -0.17278 0.22458 0.19085 0.40216 0.021413 0.53168 0.070519 -0.42421 -0.24355 0.31782 -0.12786 -0.27181 0.25904 -0.18428 0.31318 0.22535 0.26952 0.35376 -0.36533 0.23231 0.30134 0.10531 0.14184 -0.032539 -0.016106 0.43817 -0.099133 0.39432 -0.1357 -0.089187 0.80624 -0.13423 0.28555 0.29511 0.48708 0.1433 -0.88109 0.31754 -0.16657 0.024455 0.1531 -0.27545 -0.53792 0.17376 0.31727
planning -0.097917 -0.45496 -0.066387 0.19925 -0.41042 0.14686 -0.17304 -0.067349 0.15402 -0.29688 -0.023946 0.049807 0.049401 0.27304 0.52638 -0.41856 -0.0068429 -0.095481 -0.20129 -0.22805 -0.13941 0.28676 -0.5532 0.080841 0.21352 -0.12081 0.1864 0.10038 -0.097529 0.14118 -0.12486 -0.005019 0.061395 0.014325 -0.16791 -0.37791 -0.042258 0.075379 0.061987 0.13051 -0.43449 -0.052027 0.027782 0.24885 0.46536 -0.17416 -0.015758 0.32881 -0.33976 0.033829 0.08172 -0.54473 -0.41347 -0.2388 -0.38081 -0.2025 0.23309 0.22841 -0.10163 0.15255 0.32078 -0.10555 0.10931 0.071782 0.31886 -0.1428 -0.49768 -0.48707 -0.2731 -0.47782 0.32558 0.45295 0.13005 -0.2555 0.12122 -0.41968 0.25602 0.13548 0.02214 -0.042532 0.18219 0.3753 0.29489 0.28297 -0.49089 -0.1559 -0.34761 0.27045 0.32307 0.045275 0.0088339 -0.23642 -0.29735 -0.11243 0.039107 -0.27711 -0.36121 -0.25009 0.025226 -0.85817
canyon 0.032383 -0.13144 -0.011984 0.3357 0.64265 -0.28097 0.10803 -0.86448 -0.81241 0.27135 -0.50965 0.17531 0.40136 0.20069 -0.20806 -0.24835 0.041977 -0.3342 -0.9388 -0.41002 -0.27039 -0.25705 -0.20874 -0.13005 -0.2075 -0.36864 0.43948 0.2289 -0.051596 0.39014 -0.23901 -0.096056 -0.052055 0.28667 -0.61883 0.51951 0.2983 0.044848 -0.11412 -0.3102 -0.60159 -0.1206 0.3322 0.473 0.58723 0.28061 0.074072 0.57573 -0.50063 0.51218 0.44832 0.31363 0.12417 0.69415 -0.26076 0.16152 0.025707 0.69475 0.080148 -0.16713 0.23521 -0.044709 -0.15969 -0.14291 0.5141 -0.65209 0.10504 0.2625 0.075416 0.47782 -0.060063 0.41267 0.066812 0.42891 -0.57712 0.25758 -0.036708 0.49551 -0.24998 -0.076617 0.23969 0.1194 0.14254 -0.014364 0.39228 -0.51379 0.33404 0.90756 -0.18455 -0.15397 -0.35616 -0.30067 0.30254 -0.33109 0.25495 0.49425 -0.50193 0.050214 -0.046952 0.43291
delay -0.074196 -0.19571 -0.17782 0.43675 -0.13956 -0.42086 -0.042182 -0.19144 0.40669 -0.15874 -0.050967 -0.24012 0.089595 0.22004 0.69896 -0.19788 0.046242 -0.40344 -0.92979 -0.35881 0.46443 0.2485 -0.41639 0.14977 0.085648 0.78968 0.37203 0.14449 0.083724 0.10456 0.10487 0.2462 0.15406 0.26616 0.18513 -0.070555 0.16112 0.2683 0.38095 -0.13289 -0.068722 0.068591 0.29818 -0.097026 0.35858 -0.032423 0.057592 0.67634 -0.068289 0.35282 0.13087 -0.50732 0.094667 -0.3391 -0.49411 -0.073605 -0.06096 -0.21151 -0.44804 -0.12854 0.24329 -0.17815 0.086539 0.11701 0.0954 0.16327 -0.53721 -0.63555 -0.25399 -0.12167 -0.25882 0.06692 0.38739 -0.62513 -0.039822 -0.5698 -0.4849 0.24921 0.26808 0.61155 -0.35409 0.27918 0.21781 0.14974 0.017562 -0.07809 0.094878 0.50088 0.099266 0.19131 -0.054878 -0.1608 -0.037755 -0.62788 -0.088284 -0.1913 -0.27434 -0.64416 0.12918 -0.063547
size 0.047464 -0.38522 0.021695 0.56047 0.05763 -0.021814 -0.48161 -0.16077 -0.21851 -0.024067 0.018874 0.19672 0.13104 0.04855 -0.23803 0.015413 -0.26404 -0.33176 -0.05783 -0.44799 -0.17583 -0.85736 -0.32977 -0.4733 -0.15422 -0.42221 0.35226 0.19319 -0.24996 -0.12264 -0.060535 -0.075405 -0.25851 0.23195 -0.023837 0.048978 0.18944 -0.2052 -0.13725 0.24326 -0.18583 0.24921 0.46025 0.034951 0.20435 0.57017 -0.3472 0.44198 -0.13209 -0.25578 0.13441 -0.5874 -0.18928 0.19356 -0.40768 -0.14109 0.016294 -0.13446 0.67148 0.10036 0.21715 0.17477 -0.099704 -0.032599 0.34079 -0.22386 -0.35446 -0.23388 -0.11228 0.032514 -0.011535 -0.21814 0.40952 -0.27402 -0.30154 0.19666 0.20073 0.17428 -0.4623 0.041924 0.51105 0.24734 0.61076 0.027625 -0.10296 0.78913 0.45783 0.454 0.18926 0.086611 -0.15904 -0.3187 0.47159 -0.52403 0.11577 -0.17297 0.13312 -0.44849 0.098675 0.34017
peace -0.032274 0.5931 0.12565 -0.65867 -0.026848 -0.098669 -0.39442 -0.5245 0.31491 -0.029236 -0.48118 0.56933 0.57547 0.1174 0.2235 0.26903 -0.25383 -0.30615 -0.87921 -0.17756 -0.42031 0.11511 -0.011683 0.42182 -0.11844 0.39136 0.21644 -0.21293 -0.1025 0.80181 0.21254 0.031631 -0.22758 -0.15207 -0.74946 -0.34174 -0.25756 -0.074372 -0.01907 0.29217 -0.45255 -0.7002 0.24818 0.053225 -0.14877 -0.66031 -0.18534 0.97622 -0.48287 0.67227 0.3596 -0.53557 0.10406 0.29281 0.064032 -0.0034583 -0.46088 0.6809 -0.54614 -0.1535 -0.14616 -0.525 0.0050996 0.64508 -0.041585 -0.62423 0.10658 0.1098 -0.44098 -0.14836 -0.39852 0.34702 0.17265 0.47846 -0.25379 -0.10417 -0.19076 0.89957 -0.17359 0.47184 -0.10709 -0.50089 0.33129 -0.16943 0.46046 0.10127 -0.75999 0.55423 0.4112 -0.30077 0.076077 -0.52233 0.72648 0.28819 0.075576 -0.62364 0.17384 -0.030089 0.5686 -0.68716
science -0.66276 0.097946 0.45219 -0.23193 0.44319 0.41487 0.24112 -0.049832 -0.25257 -0.030871 -0.59017 0.50857 0.18193 -0.50487 -0.11978 -0.58245 -0.13437 -0.35829 -0.40906 0.21838 0.0032877 -0.67866 -0.30006 0.19683 -0.37976 0.020945 0.014941 -0.19367 -0.45223 0.15855 0.23192 0.14759 0.18181 0.34908 -0.46056 -0.39765 -0.71701 -0.29634 0.18768 0.62013 -0.24904 0.24643 -0.16323 -0.5663 0.079904 -0.45025 0.44681 -0.066682 -0.06992 0.13309 0.80801 0.022931 -0.17072 0.52107 -0.34203 -0.43988 -0.096487 0.030382 0.30025 0.63446 0.68816 -0.25572 -0.39338 0.24196 0.45025 -0.010619 -0.38734 -0.079914 -0.10994 -0.045691 -0.023936 0.04644 0.46551 -0.31724 0.17216 -0.14889 -0.50556 0.54834 -0.032203 -0.10926 0.030434 0.28327 0.29358 0.303 0.11716 -0.29293 -0.27291 0.23919 0.65666 -0.45525 0.13815 -0.26431 -0.32816 -0.035261 -0.20961 -0.56056 0.12969 -0.26132 0.22305 0.14456
dawn 0.1197 0.40897 0.25671 0.45802 0.39236 0.28397 -0.26197 -0.3636 -0.016693 0.083161 -0.49016 -0.19936 -0.14686 0.22981 0.016827 -0.24912 0.18919 -0.13021 -0.44175 -0.4318 -1.165 0.42736 -0.66952 -0.26517 -0.18075 0.40844 0.45466 0.70252 0.24349 0.36547 -0.11386 0.35111 -0.13124 0.077606 -0.51984 0.31868 0.4065 0.062141 -0.2553 0.0070799 0.047869 0.19389 0.011809 0.20464 0.42264 -0.11065 -0.02732 0.68532 -0.65182 -0.098655 0.29609 0.089447 0.024978 -0.18998 -0.209 0.30384 0.21766 0.21115 -0.49672 0.35374 0.14532 0.55008 0.092333 -0.02168 0.62209 -0.35368 0.13236 0.29265 0.15607 -0.27021 -0.65559 0.022994 0.32699 0.075844 0.10994 0.2463 0.12226 0.17136 -0.063731 0.48906 -0.22782 0.39188 0.20658 0.22693 0.1497 -0.38221 -0.35386 0.58023 0.019574 0.30463 -0.32149 -0.16881 0.22402 0.14958 0.097879 -0.53282 -0.20567 -0.18817 -0.19954 -0.099589
brother -0.34161 0.42327 0.3356 0.713 -0.10688 -0.016571 0.24279 -0.29844 0.17518 -0.22096 -0.24051 0.23702 -0.18132 0.39081 0.41718 -0.39885 -0.027153 0.034271 0.31715 -0.55749 -0.0090427 0.074402 -0.35843 -0.16289 -0.041157 0.32969 0.94576 0.50555 0.27634 0.36606 0.18253 -0.31498 -0.39318 -0.035422 -0.42158 -0.085253 -0.54325 0.74701 -0.28838 -0.028133 -0.40469 0.44312 -0.5542 -0.35524 -0.23947 0.017875 0.19938 0.67926 -0.17641 0.57181 -0.19347 -0.064943 -0.25434 -0.14486 0.096435 -0.15739 -0.23733 -0.018646 -0.39309 0.25327 0.70303 -0.1687 0.11756 -0.11949 0.47178 0.045486 -0.051732 0.1059 -0.20416 0.11331 0.45734 0.65992 0.2962 -0.23585 -0.1835 0.44247 0.36977 0.21613 -0.029754 0.055843 0.28361 -0.29689 0.14046 -0.79161 0.28372 0.0018662 -0.083882 0.057578 -0.21082 0.32911 -0.15539 -0.40644 0.1987 0.031809 -0.29596 -0.10684 -0.057478 -0.08157 -0.17227 -0.35846
wine -0.37561 -0.73098 0.022349 -0.27101 0.54814 -0.054114 -0.41291 -0.90795 -0.10336 -0.3608 -0.30637 1.1272 0.23514 0.010594 -0.4447 -0.81286 0.54202 -0.085042 -0.21534 -0.60348 -0.92926 -0.037843 -0.57788 0.1385 -0.056205 -0.32107 0.15638 0.31113 0.40601 0.26027 0.41041 0.018935 0.29317 0.12841 -0.10242 0.29342 0.32558 -0.021529 -0.42803 0.087065 0.27851 0.03056 0.060568 0.31024 0.065123 -0.005575 -0.047956 0.13361 0.25115 0.15027 -0.20593 -0.13049 0.20578 0.37471 -0.19511 0.24172 0.14902 -0.20902 0.33912 0.17591 0.36114 3.4258E-4 -0.38027 0.023233 0.46751 0.38357 -0.60363 -0.57884 -0.35662 -0.15814 -0.013658 0.0080673 0.51511 0.91561 -0.93668 0.088198 -0.10624 0.29622 -0.24761 -0.20996 0.10864 -0.54923 0.37356 0.036288 0.52145 0.14664 -0.4149 0.34425 -0.40321 -0.016506 0.10389 -0.17967 -0.20326 0.0019785 0.32758 -0.052556 -0.2459 -0.089653 0.10473 0.12178
object 0.35766 0.18519 0.35053 0.49264 -0.28409 0.069903 -0.42663 -0.38294 -0.041948 0.26385 -0.35697 -0.13345 0.3208 -0.14551 0.15572 -0.29333 -0.036429 -0.25873 -0.71251 -0.085539 -0.044953 0.20925 0.023549 0.052503 -0.21969 -0.23122 0.347 0.065015 -0.29612 0.29425 0.43644 0.0045474 -0.27462 0.41621 -0.20083 0.33033 -0.1891 -0.063503 0.020659 0.0023443 -0.34177 0.10997 -0.19072 -0.45239 0.55644 0.0053245 -0.16018 0.16654 -0.20497 0.12762 0.20142 -0.0074634 -0.15543 0.38948 -0.17966 -0.10216 0.069696 0.15615 -0.015972 0.55849 0.18916 0.1065 0.20178 -0.081539 0.92563 -0.40577 -0.55765 -0.29575 -0.17703 -0.21921 0.23719 -0.25563 0.5527 -0.29596 -0.40046 -0.1888 -0.51443 0.3062 -0.33042 0.01351 0.18816 -0.4121 -0.057224 0.1035 -0.12187 -0.020471 0.12482 0.0032287 -0.013813 0.017675 0.045883 -0.093505 0.29159 -0.079248 0.28659 -0.15155 0.4609 -0.26691 0.10123 0.05922
attitude 0.11729 -0.28242 0.16354 -0.35367 -0.015682 -0.60545 -0.38449 -0.06499 -0.075879 -0.30286 -0.59341 -0.44731 -0.22364 0.021342 0.2107 -0.13828 -0.039794 -0.3968 -0.12791 -0.067406 -0.27297 -0.3695 -0.29793 0.13521 -0.17026 0.56405 0.53798 -0.32357 0.15305 0.41232 0.70351 -0.22418 -0.3266 -0.2036 -0.010234 -0.33665 0.23107 0.55484 -0.050843 -0.0062146 -0.10857 0.39764 0.10597 -0.47363 0.54395 -0.070249 -0.067397 0.1409 -0.3236 -0.15654 0.59116 -0.2156 -0.33776 0.33496 -0.20983 -0.2612 0.189 0.0027202 0.20683 0.11777 0.45289 0.12344 0.11464 0.26091 0.18895 -0.39869 -0.31799 -0.16954 -0.65434 0.21802 0.29503 -0.39398 1.0971 -0.13141 0.16882 -0.14438 0.0082828 0.37876 0.0020456 -0.09143 0.66268 0.085767 0.020358 0.078024 0.12185 0.30568 -0.5172 -0.032453 0.15188 -0.5305 0.098912 0.020029 0.36098 -0.081953 -0.092697 -0.27602 0.017033 0.32802 0.026567 -0.12028
treatment -0.636 -0.34148 -0.40136 -0.31957 -0.1453 -0.26002 -0.25241 -0.18815 0.41733 -0.45112 -0.60314 0.44031 -0.48307 0.20355 0.22378 0.19435 0.1077 -0.23938 -0.36433 0.33834 0.24611 -0.22154 0.044885 0.33507 0.29497 0.17072 0.57028 -0.41954 0.201 0.57439 -0.23253 0.52072 0.16078 0.5433 -0.68388 -0.10336 0.48645 0.070942 -0.062479 0.1746 0.2154 0.5013 0.19184 -0.16745 0.10565 0.31754 -0.2228 0.068893 0.13564 0.34595 0.024952 0.21276 0.13222 0.089601 0.36389 -0.28821 0.50367 -0.25019 -0.23372 0.24669 0.55021 0.36503 -0.4139 0.28375 0.3129 -0.57798 -0.60353 -0.25654 -0.84955 -0.71745 0.23334 0.18652 0.37946 -0.13548 0.31033 0.1133 -0.32839 0.55872 0.54375 0.20618 -0.014247 0.078997 0.34236 0.14611 -0.062449 0.2781 -0.090463 0.18374 0.18763 -0.12791 -0.31954 -0.087432 0.055452 -0.066748 -0.37426 0.42418 -0.43265 -0.31305 0.058212 -0.19362
flight -0.38617 -0.18096 0.10788 0.21059 0.20274 -0.044773 0.028027 -0.46263 -0.082082 0.13809 -0.054625 0.32838 -0.088153 0.52027 0.5813 -0.41047 -0.41736 -0.095032 -0.77476 -0.42179 -0.19239 -0.54743 -0.33012 0.41084 0.045432 0.0517 0.17739 0.74001 0.77913 -0.13273 0.34529 -0.3092 0.34015 0.037686 -0.49119 -0.1304 0.43055 0.44052 -0.46132 0.89505 -0.33941 0.55418 0.6351 -0.065629 0.60205 -0.48652 -0.020195 0.26085 -0.025399 -0.31917 0.11189 0.15357 0.097109 -0.28709 -0.51731 -0.32904 0.070723 -0.40102 -0.076327 0.0062167 1.1011 0.1759 0.13453 -0.15648 0.14714 -0.58318 -0.37765 0.0060084 0.40463 -0.075117 -0.54571 -0.11206 0.4773 -0.35139 0.44347 -0.47214 -0.24615 0.030099 0.25503 -0.071811 0.54412 0.14406 0.34508 -0.19346 0.33302 0.22998 0.27873 0.77613 -0.11667 0.09427 -0.41291 0.10233 -0.21055 -0.055008 0.40445 -0.37223 0.36259 -0.71496 0.35601 0.17047
forest -0.31624 0.2725 0.21569 0.13188 0.37066 -0.038961 -0.72732 -0.53559 -0.30256 -0.033726 -0.76882 0.11503 0.19536 0.092989 -0.073848 0.20876 -0.28758 -0.22704 -0.29291 -0.13249 -0.1498 0.03272 0.048862 -0.039489 -0.088251 -0.34226 0.35912 0.086054 -0.18672 0.3812 -0.50971 0.11699 -0.035138 0.88361 -0.26098 0.47636 0.048666 -0.18491 -0.33451 -0.27812 -0.36784 -0.081446 0.6885 -0.38284 0.68983 -0.3697 -0.021301 0.42995 -0.62128 0.14166 0.34966 -0.088059 -0.044821 0.4006 -0.53479 -0.1585 -0.30854 0.74514 0.13681 0.45934 0.45435 0.2283 -0.02193 -0.48676 0.28844 -0.27836 -0.20219 -0.25442 0.33746 0.61269 -0.094796 0.51121 0.313 0.69752 -0.34595 0.51163 0.14691 0.53222 -0.2162 0.20966 0.11364 0.013325 0.71284 1.1585E-4 0.061465 -0.61084 -0.25945 0.53925 0.22151 0.13773 0.27078 -0.82189 -0.064767 -0.30765 0.55815 0.2036 -0.36253 0.03309 -0.17707 0.16561
abuse -0.72815 0.27943 -0.085346 0.1902 -0.10855 -0.48624 -0.51777 -0.14527 0.4012 0.15677 -0.5136 0.25566 0.16807 0.36595 -0.19177 -0.55512 0.35617 -0.49272 0.24708 -0.12872 0.33714 -0.2627 0.30861 0.58155 0.31643 0.73468 0.58797 -0.13709 -0.23326 -0.25738 0.13336 -0.53981 0.47055 -0.17984 -0.76006 -0.3822 0.47773 -0.1392 -0.020944 -0.30904 -0.32412 0.29376 -0.28498 -0.48713 -0.035226 0.10993 -0.1504 0.25892 0.0426 0.087958 0.46512 -0.080906 0.062388 0.43426 0.16893 -0.042561 0.69261 -0.066396 0.12947 -0.20113 0.39675 0.64839 -0.60672 0.19144 0.53316 -0.58965 -0.21964 -0.15937 -0.3864 -0.22733 0.59407 0.69096 0.093261 -0.45549 -0.29932 0.14586 -0.17648 0.38435 0.46134 -0.2656 0.31451 -0.048439 0.55349 0.30572 0.30401 0.23677 0.25289 -0.012094 0.049699 -0.094277 -0.14592 -0.33632 0.072591 0.30258 -0.2707 0.035782 -0.026838 -0.16342 0.021474 -0.75578
criterion -0.16437 -0.44303 0.0047487 -0.31856 0.012224 0.23862 -0.29 -0.65886 0.16407 -0.30822 -0.21006 -0.021971 0.11377 -0.059077 0.23866 -0.50438 0.25125 -0.64986 -0.36468 0.14823 0.13444 -0.49552 0.25663 -0.35667 -0.3747 -0.29562 0.51999 -0.078606 -0.070168 0.0041703 0.46219 -0.22951 -0.27116 -0.030792 -0.25396 -0.20626 -0.12643 0.042688 0.20839 -0.040642 -0.25527 0.30221 0.089111 -0.22607 0.57813 0.028053 -0.20867 -0.1589 0.2337 0.5937 -0.014575 -0.41714 -0.28322 0.12901 0.29903 -0.4413 0.023326 -0.14488 0.15403 0.24114 0.32039 -0.2888 -0.099211 0.22866 0.54151 0.11892 -0.6343 -0.24234 -0.10798 -0.10225 0.3121 0.070465 0.18754 -0.29213 -0.12827 -0.16991 -0.023137 0.29788 -0.38005 0.038421 -0.12346 0.20142 0.46455 0.25492 -0.28685 0.27654 -0.071443 -0.023065 0.10392 -0.058256 0.019465 0.077138 0.18504 0.045591 -0.11698 -0.089079 0.018225 -0.33957 0.36477 0.090888
sea -0.085604 0.070413 0.21748 0.048526 0.40721 -0.048674 -0.11545 -0.77234 0.15118 0.25941 -1.0422 0.29834 0.32098 0.32046 -0.50392 -0.062918 -0.31696 -0.22447 -0.49368 -0.18302 -0.57292 -0.38358 0.075989 0.1364 0.12774 0.27426 0.37722 0.42212 0.48817 0.77522 0.25701 -0.18657 -0.021196 0.28391 -0.77988 0.34133 0.40063 -0.52352 -0.31689 0.50147 -0.58207 -0.2404 0.74777 0.21313 0.12347 0.5185 -0.010155 0.075532 -0.35352 -0.060704 0.54871 0.30297 0.1237 0.089762 -0.93983 -0.29485 -0.37004 -0.031049 0.4445 0.58593 0.11792 0.25138 -0.3729 0.020425 0.32449 -0.18793 -0.33072 -0.34917 0.10184 0.044641 -0.61803 0.16823 -0.010378 0.5722 -0.26444 -0.14942 -0.12517 0.12223 -0.34659 -0.10838 0.21334 -0.032091 0.44569 -0.17222 0.10651 -0.12579 0.055479 0.72237 -0.2522 0.0091769 -0.046473 -0.80113 0.26134 -0.25298 0.31583 0.32757 -0.39667 0.19958 0.064968 0.26987
dollar -0.19318 -0.25102 -0.39006 -0.44802 -0.093381 -0.82384 -0.050066 -0.65263 0.19737 0.32487 -0.94763 0.36476 -0.13056 -0.45301 -0.034701 -0.51202 -0.40739 -0.016542 -0.23143 -0.93333 0.025031 -0.06834 -0.10669 -0.42515 0.40163 0.40613 0.52001 0.45157 -0.027116 0.16022 0.028673 0.56249 -0.2303 -0.27319 -0.46597 0.18303 -0.77608 -0.17973 -0.52101 0.23139 0.10252 -0.14582 0.31116 0.15334 0.28237 0.60847 0.19127 0.29888 0.65251 -0.010439 0.8404 -0.29404 4.958E-4 -0.6738 -0.027803 -0.43949 0.60639 -0.11824 0.35234 0.13318 0.0091302 0.6478 0.89645 0.32387 0.37699 -0.039726 0.041862 0.35964 -0.027842 0.19712 -0.31191 -0.27709 -0.1181 0.17097 0.12639 -0.075234 0.096613 0.36425 -0.22048 0.70812 0.6865 -0.4134 0.37865 0.5051 0.16318 0.32572 -0.19416 0.69836 -0.391 0.068327 -0.4612 -0.6663 -0.14414 -0.047555 0.37315 0.037891 0.31416 -0.4798 0.093887 0.043187
example -0.0018943 -0.4269 -0.18741 0.22894 -0.0044629 0.13219 -0.39617 -0.212 -0.098026 -0.2569 -0.48437 0.29771 0.051432 0.0019031 0.15678 -0.40382 0.0051267 -0.2505 -0.054514 0.20535 0.072897 -0.16987 -0.31844 -0.10439 0.070321 0.14362 0.52267 0.29999 0.32719 0.16031 0.20849 0.21581 -0.090836 0.10891 0.34925 -0.19201 -0.0013868 0.20894 -0.087788 -0.20768 -0.059678 0.082398 0.13556 -0.028258 0.40846 0.013568 0.33775 0.16838 -0.10555 0.12581 0.30201 0.0627 -0.089558 0.26247 -0.041189 -0.20558 0.039699 0.039347 0.37639 -0.055244 0.18606 -0.34625 0.018698 -0.18481 0.30991 0.23234 -0.35247 -0.21047 -0.37797 -0.10019 0.53297 0.13564 0.21813 -0.087322 -0.19194 0.41616 -0.20193 -0.058537 -0.26036 0.11639 0.037591 0.061712 0.038556 0.1386 -0.11964 0.1814 -0.25515 0.31952 0.44209 -0.21517 -0.38883 -0.55554 0.3101 0.3012 -0.024314 -0.063963 -0.11513 -0.28925 0.056111 -0.015027
journal -1.1446 -0.30312 0.31707 -0.22855 0.39255 0.57081 -0.55734 -0.51114 -0.73767 -0.26152 -1.1423 0.45458 -0.40311 0.64485 0.047277 0.075731 -0.3306 -0.39059 -1.0078 -0.052083 0.20883 -0.68429 -0.2245 -0.59847 -0.47753 0.12263 0.0024291 -0.09735 -0.40838 -0.19645 0.34563 0.50057 -0.4058 0.21299 -0.20486 0.036468 -0.54063 0.097675 -0.48906 -0.038099 -0.19445 0.42875 0.93965 -0.74452 -0.19595 0.44989 0.77422 0.075102 0.28424 0.20337 0.28598 0.25718 -0.18711 0.16246 -0.65153 -0.69172 0.095952 -0.59101 0.31274 -0.14902 -0.34604 0.27625 0.14968 0.38531 0.6072 0.092887 0.042359 -0.061464 0.099285 -0.06571 0.27876 0.35695 -0.056028 -0.67042 -0.06956 -0.21407 -1.1949 0.24986 0.39706 -0.014694 -0.36498 0.20071 0.66884 -0.23047 0.15919 0.010627 -0.46205 0.32768 0.49597 -0.48076 0.55829 0.28912 0.52668 0.17101 -0.60989 -0.37869 -0.5568 -0.1632 0.32528 -0.52979
laundering -0.58323 -0.12274 0.32234 0.083712 -0.26664 -0.43869 -0.052808 -0.67693 0.55724 0.28738 -0.51064 0.174 0.41998 0.97115 0.019922 -0.51789 -0.67979 0.085388 -0.4814 -0.39646 -0.24845 0.17757 0.1242 0.42027 0.25968 0.072212 0.16554 0.11797 -0.74192 -0.067997 0.068609 -0.12626 0.12098 -0.01477 -0.24015 0.31667 -0.10781 -0.096393 0.33696 -0.39604 -0.4307 0.036279 -0.26854 0.22244 -0.42248 0.15932 0.1249 1.043 0.39165 0.0054862 0.083073 -0.48893 0.055109 -0.15448 0.008866 0.079688 0.46532 0.10656 -0.19634 -0.34799 0.52649 0.28257 0.05778 0.12685 0.43395 -0.18151 -0.096443 -0.30075 -0.68639 -0.19615 0.48804 -0.074375 -0.089914 -0.33959 5.2071E-4 0.33692 -0.062574 -0.11668 0.35589 0.19011 0.5196 0.13169 1.1216 0.36505 0.49815 -0.17351 0.032961 0.60579 0.031823 -0.42561 -0.35328 -0.8469 -0.58554 0.47415 -0.17201 0.14317 -0.41798 -0.40665 0.1121 -0.54739
hotel -0.10071 -0.58072 -0.096751 0.010174 0.23751 0.22959 -0.045435 -0.27795 -0.27706 -0.13245 -0.27182 0.024136 0.29039 0.37691 0.060961 -0.50302 -0.26895 0.039174 -0.54899 -0.49332 -0.43918 0.35636 0.30563 -0.36512 -0.011823 -0.47831 0.75016 0.30932 0.63783 0.066557 -0.030711 -0.22129 0.35992 -0.06925 -0.65113 0.14732 0.51819 0.30634 -0.29598 0.71528 -0.042859 0.25695 -0.12799 0.47945 0.35265 -0.42985 0.09125 0.35497 -0.1631 -0.16002 -0.1875 -0.0082421 0.36694 0.024848 0.035736 -0.25021 0.098366 0.17106 0.42797 -0.11234 0.27603 -0.096744 0.5541 -0.19957 0.32663 -0.17864 -0.50472 0.060837 0.072382 -0.63704 0.30643 0.20714 0.3118 0.44352 -0.11405 0.5811 0.39176 0.26265 -0.105 -0.43582 0.33605 -0.41425 0.44399 -0.21992 0.41503 -0.32136 0.032174 0.51383 -0.087395 -0.14641 -0.043876 -0.077435 0.043596 -0.083243 0.057098 0.18815 -0.22519 -0.59247 0.65438 -0.1797
term -0.11811 -0.080213 0.18249 -0.070034 -0.6493 0.070937 -0.30351 -0.26736 -0.22551 -0.2094 -0.59003 0.26983 0.36862 0.27417 0.5988 -0.36105 -0.077147 -0.40156 -0.37749 -0.679 -0.21705 0.01647 -0.0051919 -0.40431 0.086526 0.071231 0.75016 -0.17317 -0.041048 0.72218 0.0052618 0.083464 0.095864 -0.32827 -0.27845 -0.57128 -0.46663 0.17149 0.04386 -0.089582 0.013638 -0.30084 0.44856 0.18068 -0.40898 0.13438 -0.48666 0.26809 -6.3675E-4 0.29344 0.16927 -0.35918 -0.13261 -0.10685 0.094119 -0.21265 -0.58336 0.11023 -0.24218 -0.17716 0.038688 -0.60478 -0.43036 0.25831 0.31456 0.13556 -0.42055 -0.48606 0.19633 -0.1291 0.20963 -0.071967 0.089544 -0.64869 0.062658 0.38282 -0.63391 0.29709 0.45799 0.85632 0.72946 0.095185 0.26511 0.33374 -0.41948 0.48437 -0.15084 0.55846 0.017845 0.11033 -0.18894 -0.023632 0.13741 0.15481 2.8952E-4 0.64088 -0.30943 -0.60745 -0.26965 0.15237
listing 0.0076771 -0.82379 0.097788 0.08121 -0.39387 -0.038766 -0.54712 -0.74641 0.043405 -0.54981 -0.083558 0.25711 -0.11093 -0.045536 0.20304 -0.43512 -0.28569 0.068677 -0.3017 -0.38596 0.17677 0.13684 0.22162 -0.14123 0.0018758 -0.40969 -0.034127 0.24946 0.46155 0.34985 0.17433 0.15304 0.030281 0.040268 -0.35418 0.23048 -0.037888 -0.10008 0.095208 -0.45203 -0.40965 0.26528 0.6541 -0.081389 0.23747 0.048726 0.17105 0.24747 -0.083479 0.037996 0.42198 -0.42235 -0.35965 -0.33863 0.36744 -0.23228 0.13075 -0.05515 0.12721 -0.23351 0.49839 -0.51581 0.20151 0.34211 0.18133 -0.20861 -0.16917 0.11638 0.12291 -0.2163 -0.26666 -0.31556 -0.093769 0.057369 -0.51265 -0.09837 -0.45088 0.56083 -0.036205 -0.10898 0.1489 -0.54103 0.45455 0.46371 -0.039031 -0.1557 0.12956 0.69044 0.25125 0.065596 0.12686 -0.35786 -0.092801 0.17736 -0.28705 0.08095 0.1901 -0.35513 -0.048198 -0.40037
chemistry -0.60446 -0.18189 -0.1111 -0.20537 0.76742 0.12569 0.22467 0.11901 -0.1911 -0.20435 -0.7382 0.47763 0.027452 0.22371 -0.20944 -0.34449 -0.17609 -0.55646 0.10332 -0.19083 -0.55833 -0.90213 -0.60092 0.37493 -0.54881 -0.14007 0.1616 -0.18454 -0.45587 0.20985 0.22371 -0.10858 0.064949 0.35446 -0.46599 0.22357 -0.6057 -0.12415 -0.1331 -0.038307 -0.64458 -0.010209 0.11019 -0.32909 0.12116 0.016187 0.38971 -0.35435 0.13609 0.73829 0.20444 -0.016618 -0.20744 0.41203 -0.09866 0.03666 -0.11387 -0.20743 0.18032 0.70834 0.00421 -0.11125 -0.46684 0.54327 0.37911 -0.34354 -0.71752 -0.44716 -0.22992 -0.29065 0.24153 -0.31312 0.023486 -0.30726 -0.091712 0.046026 -0.2725 0.59126 0.14322 0.062422 0.28992 -0.038483 0.095329 -0.25859 0.56138 -0.21116 -0.36858 0.38838 0.47104 -0.29101 0.067697 0.23362 -0.064743 0.0073052 -0.066251 -0.33602 -0.079359 -0.40004 0.10825 -0.12186
seafood -0.37432 -0.49334 -0.37326 -0.52215 0.8193 0.11183 -0.27822 -0.83791 -0.053919 -0.70503 -0.60627 1.0117 0.028431 -0.043625 9.098E-4 -0.71865 0.11646 -0.27676 -0.55134 -0.46617 -0.62376 -0.25252 -0.22543 -0.081263 -0.023281 0.055357 -0.090487 0.24642 0.28648 0.24093 0.61999 -0.15981 0.03802 0.39016 -0.29879 0.41046 0.54122 -0.23608 0.030686 0.02283 0.18567 0.19658 0.60993 0.58958 0.54748 0.70283 -0.0063772 0.48339 -0.17826 -0.33528 0.27829 0.099416 0.051818 0.041647 -0.30919 -0.28246 0.11786 -0.26643 0.48285 0.62808 0.32847 -0.28287 -0.131 -0.11278 0.24334 0.088674 -0.48762 -0.38687 -0.14385 -0.15749 0.161 0.066254 0.060102 0.96328 -0.53821 0.099932 0.14109 0.15519 -0.064025 -0.028508 0.075873 -0.24282 0.0088121 -0.05139 0.43586 -0.27182 -0.20185 0.37618 -0.19275 0.3113 -0.069946 -0.60989 -0.35547 0.27003 0.33644 0.14799 -0.45829 0.17881 0.16965 -0.046963
CD -0.10345 -0.19856 -0.34976 0.077523 0.39923 0.21694 -0.42047 -0.57323 0.059851 0.17738 -0.043771 0.057409 -0.055709 0.31503 -0.50668 -0.49598 0.33154 -0.87196 -0.12743 -0.92796 0.072017 0.20939 0.23521 0.070942 -0.034139 -0.30828 -0.013573 0.26509 0.59044 0.34186 0.24319 0.29396 -0.54108 -0.35733 -0.017485 0.17895 -0.49004 -0.0036693 -0.20091 -0.44679 -0.14431 0.89136 0.47184 -0.12365 -0.39277 -0.49463 -0.15427 -0.19046 -0.019881 0.97055 0.73536 -0.15201 0.14979 -0.10604 -0.41589 0.4835 0.096141 -0.45159 -0.11509 -0.036529 0.55639 0.30294 0.68697 0.44236 0.24668 -0.14282 0.21054 0.34408 -0.002601 -0.76245 0.56686 0.28229 0.10049 0.39843 -0.57168 -0.22751 -0.13136 0.018427 -0.47136 0.32639 0.31362 -0.50825 0.71566 -0.17837 0.14482 0.24596 0.051671 0.12352 0.21573 -0.26648 -0.19673 0.071762 -0.086864 -0.61081 -0.25479 -0.31479 -0.047883 -0.2633 0.20564 -0.36639
mind 0.17134 0.10271 0.27126 0.159 -0.32691 0.17879 -0.12575 -0.39138 -0.0037629 -0.023507 -0.74524 -0.12827 0.23062 -0.036792 0.035551 -0.097826 0.274 -0.62833 -0.17862 -0.12392 -0.092982 -0.0058409 0.0073534 0.10208 -0.16586 -0.14593 0.11108 -0.0015513 0.19605 0.44358 0.3475 -0.14113 0.10795 0.22157 -0.47816 -0.04042 -0.010477 0.37722 -0.23539 0.073333 -0.10247 0.062636 0.22384 -0.43633 0.50476 -0.19282 0.035511 0.56646 -0.46531 0.49501 0.36663 -0.44205 -0.27581 0.28761 0.15389 0.17251 0.34291 -0.23123 0.1462 0.50488 0.43769 -0.21694 0.40497 0.40683 0.2967 -0.12218 -0.34443 -0.26245 -0.34153 -0.015515 0.09149 -0.19656 0.43 -0.2283 -0.23083 -0.20187 -0.12286 0.091608 -0.33064 0.23076 0.342 -0.089833 0.48031 -0.062374 0.26811 0.18801 -0.25253 -0.023129 0.1161 -0.024512 0.3051 0.0066237 0.29383 -0.18277 -0.14169 -0.27133 -0.038963 0.10015 0.020874 0.012767
sex -0.3158 0.46284 -0.47209 -0.5953 -0.25831 -0.12089 -0.32188 -0.11005 -0.16696 -0.20698 -0.60833 0.63949 0.37148 0.61644 0.046031 -0.28607 0.18868 -0.38899 0.041996 -0.35542 -0.16082 0.39297 0.30895 0.60142 0.12693 0.31274 0.43697 -0.30725 0.23573 0.423 0.18537 0.24454 0.49747 -0.59657 -0.69385 0.47946 0.074686 0.13889 -0.38047 0.037179 -0.38755 0.51046 -0.39375 -0.80952 0.24002 -0.16936 -0.063223 0.40588 -0.040443 0.31241 0.06373 -0.048584 -0.20861 -0.12072 -0.44999 -0.22774 0.38072 0.002044 0.56805 -0.085966 0.12518 0.058559 -0.60004 -0.11505 0.61469 -0.80708 -0.48642 0.11689 -0.92932 -0.0087795 0.19084 0.18343 0.0041667 -0.13654 -0.4218 -0.093087 -0.44173 0.14091 0.15654 -0.37051 1.0071 -0.45662 0.34065 0.32068 0.35369 -0.016751 -0.031869 0.085834 0.28257 0.10914 0.15428 -0.21902 0.15494 0.41727 -0.31059 -0.099109 -0.38118 -0.39403 0.34459 -0.41541
food -0.38178 -0.01269 -0.3726 -0.3376 0.73021 -0.11322 -0.37259 -0.2953 0.3194 -0.43655 -0.50633 0.68151 -0.30605 0.20971 -0.059448 -0.84447 -0.24831 -0.26005 -0.44875 -0.19176 -0.25596 -0.49696 0.28794 0.12571 0.18177 0.19511 0.29462 0.085078 -0.28815 0.17239 0.36208 0.22854 0.50667 0.1207 -0.29059 -0.081403 0.38126 -0.076369 -0.042705 0.13817 0.59339 -0.096402 0.56901 0.18104 -0.11481 0.087143 0.13465 0.10109 0.043311 0.041667 0.45878 -0.35624 0.11178 0.52199 -0.32581 -0.10166 0.40552 -0.20272 0.35289 0.42656 0.79347 0.040793 0.045976 -0.0010362 0.38314 0.12997 -0.77666 -0.44481 -0.0057405 -0.16354 0.21111 0.38266 -0.25242 0.46532 -0.51589 0.30196 0.46841 0.094821 -0.2395 0.2285 -0.25627 -0.27193 0.27956 -0.17568 0.37627 0.041937 -0.32047 0.194 -0.50167 0.073069 0.075814 -0.57875 -0.32019 -0.16973 0.28543 0.030956 -0.39292 0.088629 0.38659 -0.072433
precedent 0.040661 -0.35401 0.30179 0.12287 -0.24792 -0.049117 -0.29694 -0.60329 0.51776 -0.16595 -0.5537 -0.054189 0.18747 3.0676E-4 0.062512 -0.17933 0.32184 -1.015 -0.23946 0.035969 0.20517 -0.014008 -0.24366 -0.19497 -0.16017 0.62362 0.47872 -0.22032 -0.32409 0.091241 0.092757 -0.33967 -0.114 -0.25571 -0.15607 -0.38136 0.028232 0.12849 -0.0059865 -0.39927 -0.23527 -0.27927 0.070219 0.019497 0.39505 -0.020236 0.20365 0.24339 -0.1891 0.47037 0.46071 -0.23953 -0.4201 0.14109 0.011357 -0.11528 -0.06977 0.21941 0.082357 0.17989 0.07441 -0.22904 0.11606 0.19407 0.33627 0.24918 -0.20143 -0.63686 -0.67213 0.037249 0.31921 0.17915 0.72363 -0.025894 -0.028998 0.20631 -0.32426 0.3907 -0.067271 0.37991 -0.32734 0.13553 0.11915 0.36004 -0.28103 0.063293 0.099042 0.25925 0.2212 0.14368 -0.086482 -0.35105 0.31435 0.45005 0.25821 -0.3404 0.096048 -0.43002 0.043482 -0.2306
series -0.22342 -0.086803 -0.34236 -0.0072082 -0.15151 -0.16648 -0.40783 -0.23562 -0.42227 0.085236 0.2745 -0.20379 0.14888 0.42205 0.23248 -0.64023 0.29216 -0.26195 -0.080772 0.50162 0.48493 0.11074 -0.4061 0.13195 -0.45842 0.4942 -0.25327 -0.23005 -0.25623 0.097856 -0.48387 -0.14909 -0.094639 -0.12719 -0.615 -0.13917 -0.026161 -0.1323 -0.51325 -0.092909 -0.1616 0.5472 -0.06754 0.077157 0.083045 0.0018802 0.10248 0.4872 0.12207 0.32024 0.70303 -0.091666 -0.044495 0.50869 -0.11575 -0.26226 0.094761 0.084771 0.08867 -0.17519 -0.022817 -0.21957 0.013216 0.094711 0.079602 0.11547 -0.12256 0.68101 0.23645 -0.87689 0.25834 0.34629 0.63654 -0.18422 0.055272 -0.2373 0.029131 0.014473 -0.46483 0.52643 0.45333 0.18338 0.51753 0.16425 -0.040441 0.13125 -0.063555 0.54084 -0.058835 -0.10323 -0.27436 -0.16112 0.42118 0.24307 0.18733 -0.28469 -0.38231 -0.17702 0.39662 -0.39928
kilometer -0.74803 0.48464 0.012635 0.1924 0.62616 0.28645 -0.15112 0.093798 -0.42951 0.27533 -0.41953 0.09955 -1.0465 -0.011851 0.14835 -0.079645 -0.10292 -0.5526 -0.89851 -1.1088 -0.043717 -0.0060033 -0.6623 -0.76263 -0.13016 -0.3093 1.1459 0.042769 0.14944 0.079424 -0.42584 -0.1305 -0.36356 0.91897 -0.66065 -0.0077568 0.22013 -0.41639 0.1245 0.023957 -0.76384 -0.38482 0.1638 0.12698 0.68906 -0.10664 -0.26604 -0.17978 -0.017191 -0.71429 0.74617 -0.1506 0.38242 -0.622 -0.011601 -0.56364 0.40144 0.52826 -0.32386 0.17008 0.32456 0.9105 -0.19281 -0.45176 0.82523 -0.48054 0.21729 0.7967 -0.73686 0.97005 0.037448 -0.20448 0.2924 -0.16245 -0.79001 -0.15154 0.0052904 0.087108 -0.062746 0.45201 0.23655 0.54675 0.20196 -0.35791 0.32123 -0.20005 0.3529 1.5677 -0.20291 0.4448 -0.46417 0.20634 0.57412 -0.069305 0.45072 -0.23046 -0.67298 -0.12182 0.21876 0.3336
grocery -0.26745 -0.39503 -0.4051 -0.21991 0.32488 0.10138 -0.16733 -0.56355 -0.036159 -0.81025 -0.26865 0.50003 -0.11949 -0.12222 0.27495 -1.1171 -0.10805 -0.099294 -0.82811 -0.75143 -0.48802 0.065089 0.0016546 -0.34836 -0.30478 -0.1361 0.61305 0.02166 0.16846 -0.030683 0.55251 0.37197 0.5865 0.28046 -0.12261 0.085513 0.032013 0.14514 -0.23845 -0.25772 0.79445 0.20201 0.66835 0.18658 0.25431 0.071734 0.12101 0.77055 0.15737 -0.4182 -0.020016 -0.19353 0.019434 0.18842 -0.14231 0.60938 0.22752 -0.3168 0.022362 0.3604 0.42753 0.012835 0.099274 -0.17601 0.86895 -0.09819 -0.13189 0.50987 -0.058543 -0.52177 0.42734 0.24791 -0.45106 0.21325 -0.75479 0.44021 0.60417 0.32627 -0.5082 0.19977 -0.048719 -0.33592 0.5672 -0.25706 0.66043 -0.32779 -0.26572 -0.00321 -0.25388 0.021691 0.055522 -0.53186 -0.28949 -0.24531 0.53015 0.20503 -0.20252 0.086586 0.31652 -0.13303
wizard -0.48585 -0.0034234 0.043863 0.40874 0.037901 0.13983 -0.10049 -0.64799 -0.56419 -0.17635 0.040058 0.33038 0.22248 0.43059 -0.42825 -0.28972 0.13957 -0.50727 0.30872 -0.0020721 -0.16312 0.039514 -0.10724 -0.36552 -0.14555 -0.17674 0.038478 -0.065371 0.39104 0.55401 0.13782 -0.12642 -0.14861 -0.13735 -0.17391 0.25758 -0.90277 0.35175 -0.063265 0.070477 -0.48739 0.68878 -0.28531 -0.47443 0.12078 -0.033557 -0.035226 0.15386 -0.15295 0.15574 0.65719 0.15574 0.19287 0.77375 -0.26625 0.006616 0.19787 -5.0037E-6 0.35009 0.25532 0.14298 -0.060059 -0.099518 0.44001 0.51578 0.034503 -0.37509 -0.43258 -0.20391 -0.46805 0.37635 0.19832 0.51119 -0.24752 -0.090147 -0.34501 -0.036912 0.030324 -0.037786 -0.20913 0.40656 -0.07271 0.50238 -0.089644 -0.51483 -9.4985E-4 0.044331 -0.28095 0.27509 -0.12529 -0.19001 -0.58525 0.034202 0.039489 0.18775 -0.24524 -0.0023578 0.16192 0.22212 -0.19371
information -0.36972 -0.17913 -0.01173 -0.24305 -0.12061 0.40282 -0.092441 -0.10822 0.68978 0.17521 -0.78294 0.54607 -0.14336 -0.2324 0.55892 -0.090487 0.32344 -0.64872 -0.23002 0.29209 -0.0072918 0.050342 0.40534 -0.065289 -0.19226 -0.32786 0.12421 0.63153 0.29487 -0.092412 0.40086 0.44977 -0.61623 0.62356 -0.31949 0.078479 0.45148 -0.12375 0.23064 -0.29188 -0.23378 0.47543 -0.44023 -0.087201 0.52704 0.21709 0.49909 0.20845 0.0090407 -0.12731 0.63679 -0.090385 -0.50133 0.19218 0.24146 -0.041934 0.32026 0.041003 -0.39756 -0.32227 0.61186 -0.062616 -0.14188 -0.18316 0.16338 -0.15583 -0.3143 -0.30749 -0.25067 -0.46563 0.78585 -0.14741 -0.42066 -0.022514 -0.66075 -0.23735 -0.08177 -0.08147 0.49239 -0.096232 -0.13399 -0.18996 0.69495 0.48909 0.22508 -0.3782 -0.32336 0.67457 -0.017913 -0.40223 0.27761 -0.63245 0.17213 -0.22312 -0.08866 -0.30647 0.01358 -0.33045 0.0039941 -0.3141
Israel 0.16103 0.41069 0.044562 -0.76219 -0.10805 -0.20234 0.15926 -0.54006 -0.098394 0.72958 -0.52821 -0.14042 0.53105 0.48103 0.17034 -0.0077143 0.28979 -0.32149 -0.35725 0.10162 -0.16497 0.073394 -0.11592 0.031647 0.1479 0.41242 0.68038 -0.38722 -0.053313 0.13285 0.087163 0.6113 -0.27695 0.30631 -0.50861 -0.92864 -0.35798 0.040716 0.068899 0.23499 -0.69442 -0.15437 0.3774 0.23699 0.17072 -0.27414 -0.55727 0.69742 -0.39227 0.66749 0.05363 -0.20818 0.062393 -0.0037787 -0.17185 -0.64784 0.46112 0.11352 0.19719 0.057367 0.096762 -0.02269 -0.29523 0.20935 0.079191 -0.36016 -0.28203 0.61825 -0.55615 -0.87931 -0.47777 0.40815 0.040068 0.27393 -0.043028 -0.60867 -0.22217 0.29657 0.35586 0.19162 0.082208 -0.86419 -0.020799 0.10923 0.63696 0.28333 -0.33129 0.068038 -0.053143 -0.55745 -0.061428 -0.81821 0.75773 0.41701 0.32465 0.14783 0.25199 -0.064413 0.92165 -0.39203
brandy -0.14138 -0.14599 -0.061558 0.11172 0.41231 0.053744 -0.42768 -0.35794 -0.0098223 -0.29507 -0.24747 0.50555 -0.18287 -0.0097703 0.031397 -0.4888 0.11736 -0.35411 -0.42004 -0.10202 -0.23827 0.16243 -0.56459 -0.10675 -0.23092 -0.19592 0.099027 -0.050521 0.23363 0.36384 0.42307 -0.24467 0.059473 -0.16543 0.11161 0.17052 0.15703 0.15205 0.21158 -0.34854 0.13265 0.421 0.19841 0.1519 0.31144 0.020197 -0.11752 0.32389 0.099032 -0.10954 0.03328 -0.20757 0.38111 0.60154 -0.16427 0.13001 0.32818 -0.35844 -0.06842 0.65862 0.33351 -0.23419 -0.042996 0.085935 0.24026 -0.25139 -0.25534 -0.37562 -0.23751 -0.21274 0.3948 0.25937 0.15526 0.31553 -0.35687 0.49109 0.36498 0.063264 -0.65903 -0.12139 0.33748 -0.30777 0.41859 0.2313 0.65513 0.044424 -0.30126 0.086432 0.080829 0.13796 -0.16239 -0.24239 0.2635 0.16636 -0.13114 0.25074 -0.11366 0.18072 0.21162 0.13926
interview -0.20322 -0.42888 0.019849 0.22612 0.22464 0.24766 0.014002 -0.067154 0.097505 -0.33735 -0.41086 0.20551 -0.048805 0.26025 0.10168 0.11187 0.096657 -0.43151 -0.049683 0.0077388 0.22271 0.17086 -0.29049 -0.40408 -0.079392 0.23334 0.46665 0.012288 0.18054 -0.26691 -0.2976 -0.029492 -0.070542 -3.9767E-4 -0.5519 -0.53211 0.3409 0.84479 -0.27653 -0.17712 0.0039336 0.60534 0.10024 -0.30906 -0.35586 -0.29112 0.20723 0.33742 0.13608 -0.37725 0.097562 -0.21152 -0.42339 0.0026051 -0.54796 -0.28238 -0.023959 0.21358 -0.1598 -0.58339 0.25796 -0.14456 0.3137 0.16747 0.56979 -0.28179 -0.020466 0.089658 0.21 -0.57732 0.40975 -0.45093 0.81514 -0.023557 -0.29512 -0.33457 -0.39939 0.14516 0.35458 0.29195 0.28719 -0.71327 0.57013 -0.22096 0.23037 0.23404 -0.47142 0.54065 0.47013 -0.067051 0.31166 0.29547 0.40844 0.3784 -0.54525 -0.37861 -0.14543 0.18861 0.38009 -0.23083
prominence -0.19707 0.10353 0.11027 0.20418 0.18811 -0.15495 -0.34807 -0.080072 -0.054494 -0.43613 -0.7026 0.021915 -0.18358 -0.31643 0.096605 -0.41965 -0.10735 0.19933 0.25977 -0.39059 -0.35394 0.039324 -0.62538 0.090182 0.032067 -0.08774 0.42077 0.395 0.069666 0.040393 0.11697 0.085167 -0.019027 -0.24235 -0.54876 -0.073975 -0.31048 0.053287 -0.32813 -0.324 -0.19066 0.3801 0.17392 -0.28639 -0.13477 0.21613 -0.030911 0.3695 0.07182 0.12287 0.50102 -0.14374 -0.52541 0.19564 -0.023 -0.60363 0.39888 0.19264 0.013476 -0.048806 -0.013002 -0.15698 0.0044967 -0.0093844 0.41522 0.27346 -0.37202 0.028586 0.078221 -0.28059 0.39184 0.22517 0.4274 0.043634 -0.27709 0.12639 -0.14597 0.62918 -0.10453 0.12333 0.0028065 -0.095424 -0.18496 0.51049 -0.16786 0.093893 -0.14432 -0.06224 -0.26874 -0.42823 0.0094935 -0.043008 0.28899 0.12431 -0.061936 0.10379 0.41867 -0.22184 0.077466 -0.15334
bed 0.090323 0.095876 0.07641 0.62183 0.25029 -0.3092 0.13451 -0.2054 0.11798 0.60994 -0.19862 0.23263 -0.28097 0.33187 -0.31378 -0.10754 -0.25901 -0.38094 -0.47117 -0.41266 -0.25083 0.18248 0.29686 -0.20091 0.14796 -0.43364 0.5853 0.20896 0.037387 0.57192 0.11667 0.18745 0.28351 0.020712 -0.9684 0.17463 0.14886 0.3271 -0.4728 0.095197 0.37032 0.31197 -0.051805 -0.71266 0.43572 -0.13018 0.060909 0.37271 -0.14531 -1.4986E-6 -0.61065 0.49207 0.57857 0.46369 -0.13959 -0.21103 -0.11961 -0.25067 0.16099 0.0062682 0.50523 0.45924 0.37884 0.41151 0.80426 0.18514 -0.53639 -0.028033 -0.20996 -0.31724 0.0052352 0.26859 0.20755 0.22059 -0.11268 0.17252 -0.21659 0.31302 -0.17057 0.3057 0.49769 -0.1111 0.64091 -0.38363 0.56191 0.08396 -0.38881 0.21999 0.20802 -0.16513 0.091804 -0.21006 0.14427 -0.2385 -0.15714 0.17902 -0.33704 0.24379 0.21767 0.10904
furnace 0.044459 0.039983 0.018256 0.57639 0.5713 0.094034 -0.26149 -0.10414 -0.2972 0.60782 -0.072745 0.0046764 0.011476 0.025002 -0.19702 -0.71114 -0.18818 -0.13419 -0.67722 -0.25613 -0.19683 -0.23274 -0.043908 -0.028583 0.18236 -0.0081117 0.40815 0.107 -0.47345 -0.1413 0.1222 0.33923 0.11086 0.0035563 -0.7003 0.60105 -0.010735 -0.52635 -0.085122 -0.37748 -0.093888 0.12353 0.15325 0.21936 0.21779 -0.085149 -0.11791 0.21717 -0.21392 0.2187 0.029396 -0.29952 0.50072 -0.117 -0.40803 -0.26844 -0.19003 -0.13646 0.16578 0.52353 0.94262 0.2556 0.1975 9.1589E-4 -0.061378 0.028813 -0.86352 -0.3853 0.14618 -0.3085 -0.059096 0.26923 0.048886 0.0047343 -0.46534 0.54048 -0.036639 -0.059091 -0.13234 0.31939 0.43357 0.11204 -0.0131 -0.015159 0.4707 -0.23412 -3.6578E-4 0.37405 0.19687 0.0070562 -0.022855 -0.83116 0.10253 -0.24133 0.3486 0.043386 -0.13905 0.09647 0.62126 -0.0028928
evidence -0.46825 -0.3392 0.023209 -0.25873 -0.0077539 -0.0070425 0.058266 -0.3087 0.18152 0.14716 -0.90276 -0.033681 -0.40594 0.30341 -0.29612 0.028834 -0.19103 -0.42984 -0.24392 0.2286 0.18127 0.035327 0.32825 -0.28836 4.157E-4 0.34158 0.7148 0.6388 -0.52891 -0.33729 -0.16085 -0.033043 0.072068 -0.037187 -0.44242 0.097591 0.14114 -0.02595 -0.088442 -0.54559 -0.12907 -0.37556 -0.30987 -0.017746 0.49038 0.2784 0.39274 0.077234 -0.25519 0.19341 0.52853 -0.069997 -0.33494 0.32904 -0.22632 -0.35997 -0.1621 -0.41358 -0.13448 0.63847 0.18508 0.0015929 -0.32934 -0.30879 0.65159 -0.26412 0.036515 -0.79259 -0.59897 -0.22876 0.44435 0.0065158 0.49757 -0.2302 0.058261 -0.11299 -0.23939 0.29437 -0.067481 -0.055316 -0.088722 -0.43223 0.81664 0.2084 0.3217 0.078388 -0.34394 0.25869 -0.13158 -0.56946 0.29218 0.018909 -0.077193 -0.13526 -0.17121 -0.46237 0.022775 -0.33557 0.2092 -0.48972
sprint -0.38894 0.12088 0.034062 0.22801 0.55731 -0.68584 -0.043602 -0.25577 -0.49165 -0.49314 -0.70226 -0.32334 -0.37712 0.41987 0.53936 -0.25285 0.39643 -0.32021 -0.18748 0.094042 -0.38134 0.31493 -0.87829 -0.13469 -0.12927 -0.61714 0.61544 -0.17877 0.28791 0.50999 -0.28064 -0.43478 0.31845 -0.41698 -0.11999 0.24439 -0.52773 -0.22565 -0.84357 -0.23914 -0.89652 -0.27302 -1.5858E-4 0.21776 0.28103 0.096254 0.079788 -0.06204 0.25686 0.14192 0.56216 -0.26541 0.071457 0.12319 -0.037666 -0.063893 0.11814 0.05092 -0.1756 0.19854 -0.2625 -0.029366 0.44022 0.1327 0.086661 -0.35039 -0.23889 -0.48435 0.080098 0.27856 -0.43779 -0.30118 0.54538 -0.34318 -0.93716 0.18195 -0.20626 0.17669 -0.24961 0.33045 -0.35065 0.13328 0.99458 0.23552 0.14531 0.27495 0.088661 0.90876 0.19474 0.45591 -0.1508 0.21085 -0.043747 0.33427 -0.053855 -0.14891 0.025253 -0.054723 0.041769 0.31949
emergency -0.20617 -0.053893 0.010034 0.069051 0.61889 -0.13491 -0.11901 -0.13553 0.58235 0.22547 -0.07205 -0.51577 0.19129 0.099255 0.12734 -0.1126 0.28579 -0.26552 -0.62773 0.31181 0.56823 -0.19746 0.34974 0.10389 0.43665 -0.054595 0.46396 0.68825 0.33698 -0.098286 0.027234 0.69266 0.061078 0.4651 -0.22778 -0.34505 0.89133 0.72119 -0.20152 0.010937 0.067678 0.19459 0.44402 -0.07551 0.23533 -0.1864 0.38242 0.16099 0.076934 -0.041366 -0.41102 -0.6465 -0.090656 0.11201 -0.30728 -0.50206 0.038185 0.33535 -0.071522 -0.4429 0.5055 -0.037423 -0.024736 0.49818 0.73243 -0.059757 -0.72805 -0.10502 -0.12072 -0.25926 -0.2535 0.33375 0.0061117 -0.097307 0.31774 0.43187 0.44107 0.79431 0.3053 0.29925 -0.18384 0.083007 0.56002 -0.0079899 -0.041572 0.015945 0.071004 0.23583 0.0065375 0.34054 -0.5234 -0.47821 -0.23729 -0.07768 0.14243 -0.21701 -0.26997 -0.46 0.10149 -0.019881
Jackson -0.36754 0.27387 0.31923 0.20683 0.72104 -0.44495 -0.079076 -0.52253 0.013513 -0.24031 0.0057329 -0.20677 -0.38461 -0.040472 0.023452 -0.50354 0.0893 -0.88934 0.39852 -0.28562 0.66468 -0.32663 -0.40356 -0.1096 0.1497 -0.33468 0.51135 0.31477 0.33066 0.35761 -0.26263 -0.10042 -0.20935 -0.32805 -0.85688 -0.26491 -0.20334 0.51933 0.3987 -0.10583 -0.054514 0.75094 -0.14881 -0.22876 0.005067 0.29375 -0.1529 0.71503 0.11855 0.7093 0.19011 0.17988 -0.26321 0.25322 -0.23066 -0.082384 0.41973 -0.26346 0.54699 0.054179 0.22586 -0.26511 0.26229 -0.24891 0.49658 -0.52492 0.42018 -0.19268 -0.23838 -0.51782 -0.33414 0.21304 0.39326 -0.19732 -0.017239 -0.28043 0.0017648 0.054028 0.3683 0.44853 -0.80767 -0.64145 0.095986 -0.24195 0.29822 -0.19307 0.34575 -0.26849 -0.28512 -0.04492 -0.25613 0.16006 -0.30306 -0.48864 -0.24588 0.26966 -0.079629 -0.57723 0.011115 -0.54734
institution -0.67793 -0.20155 0.30654 -0.019137 0.0024666 0.25545 -0.18939 -0.49866 -0.26025 -0.15808 -0.50961 0.078973 0.21172 -0.46762 -0.28834 -0.060723 0.081341 -0.51619 -0.29993 -0.13802 -0.11156 0.024699 0.23361 0.012786 0.023462 -0.08922 0.27587 -1.5038E-4 -0.42234 0.24313 0.20488 0.095139 0.092647 0.0042114 -0.0085319 -0.23766 -0.014358 0.23077 0.041799 0.41338 0.043773 0.10178 -0.039585 -0.089612 0.19644 -0.22834 0.038435 -0.029284 -0.044617 0.4527 0.20134 -0.34183 -0.52894 0.12935 0.087944 -0.045569 -0.0045673 0.14115 0.53698 -0.66931 0.77819 0.0059011 -0.063397 0.7783 0.39842 -0.087403 -0.23074 0.24145 -0.31058 0.076068 -0.020194 0.38582 0.28381 -0.37967 0.044535 0.54614 0.030413 0.57558 0.12188 -0.32222 -0.042058 -0.14075 0.28848 0.37784 0.046654 0.39729 -0.18351 0.066708 0.49149 -0.22238 -0.26236 -0.34811 0.16856 0.29238 0.21503 -0.18261 0.092504 -0.42383 0.32675 -0.018389
bird -0.24845 0.11864 0.25383 -0.16228 0.32275 0.098981 -0.41341 -0.53764 -0.16321 0.30207 -0.74951 0.45153 -0.12798 0.74772 -0.13339 -0.012378 0.26661 -0.4428 -0.34167 0.37757 -0.60264 -0.26672 -0.47984 0.077314 -0.25363 -0.24391 -0.20228 0.80248 0.25375 0.21456 0.024029 -0.073841 -0.22968 0.43298 -0.30758 0.23006 0.27603 0.030854 -0.69121 0.19232 -0.20454 0.053732 0.42269 -0.27627 1.2021 0.43212 0.18167 0.36225 0.0064328 -0.56834 0.36013 0.11168 0.16533 0.24802 -0.62373 -0.41699 -0.023001 -0.12488 0.53997 0.69115 -0.26587 -0.31884 0.11391 0.13015 0.53218 -0.50183 -0.64202 0.19376 0.22223 0.11812 -0.27186 0.53434 0.13779 0.23364 0.22215 0.1034 -0.13242 0.45834 -0.46558 -0.086785 0.33301 -0.45611 0.72969 0.32044 -0.028921 -0.070555 0.014842 0.015447 0.53561 0.63492 0.38086 -0.97761 -0.16094 -0.21515 0.21079 0.30056 -0.2699 -0.015821 -0.10571 0.42282
Brazil -0.16542 -0.0060621 -0.63025 -0.13311 0.2194 -0.5709 -1.0922 -0.60034 -0.23505 -0.14272 -0.77642 0.075817 -0.028749 0.28514 0.63953 -0.44966 0.18594 -0.15546 0.39042 -0.2225 0.13931 0.050879 -0.11945 0.12282 0.4577 -0.096014 0.82239 0.38393 0.3083 0.21324 -0.18343 0.30382 0.064702 0.33983 7.843E-4 -0.28606 -0.16475 -0.0026796 -0.17041 -0.020394 -0.51779 -0.17115 -0.35232 0.32568 -0.25893 0.31704 0.28291 -0.031988 -0.16996 0.56262 -0.22173 0.16771 -0.08039 0.31422 -0.94963 -0.59949 0.56192 0.18453 -0.14968 -0.077266 0.39855 -0.10547 0.31584 0.034468 0.53866 0.032783 -0.33518 0.027067 0.12166 0.27134 -0.17565 -0.15835 0.54275 0.46901 0.080847 -0.0013403 0.47691 -0.21797 0.24981 0.035365 0.044728 -0.20405 -0.0049066 -0.18658 0.041069 0.09408 0.051857 0.90883 0.099237 -0.038767 0.029169 -0.31171 -0.051184 0.56293 0.32465 -0.3951 -0.0016191 0.36217 -0.13388 0.092134
warning -0.31735 -0.26572 0.085515 0.27303 -0.32758 -0.11253 -0.29844 -0.62909 0.29439 0.34956 -0.70514 -0.19487 0.0026278 0.25666 -0.13552 -0.18095 0.15639 -0.4259 -0.57156 0.14195 -0.057158 0.20777 0.08624 -0.021048 -0.27226 0.74707 0.14599 0.52794 0.28111 -0.060295 0.17465 -0.021731 0.082423 0.11576 -0.03913 -0.65906 0.56117 0.54791 0.21391 -0.81632 -0.36669 0.25671 0.69133 0.004497 0.11784 0.36059 -0.23897 -0.055501 -0.21696 -0.58607 0.42839 -0.22441 -0.077059 0.20379 -0.42312 -0.221 0.28966 0.075256 -0.095643 0.21766 0.16757 -0.040016 0.038786 0.21226 0.07009 -5.779E-4 -0.20896 -0.40172 -0.034934 -0.70472 -0.030621 -0.24586 -0.15759 -0.30321 -0.30013 0.074973 0.034843 0.71844 0.21696 0.44947 0.087903 -0.098754 0.19462 0.25708 -0.22069 -0.37064 -0.15764 -0.013575 0.19222 0.51233 -0.2427 -0.43862 0.34373 -0.054291 0.24687 -0.43873 -0.13021 -0.18121 -0.14196 0.077054
implement 0.26492 -0.13837 0.15763 -0.015354 0.13125 0.086421 -0.41659 -0.54626 0.27909 -0.14588 -0.066387 0.41406 0.0035828 -0.0036043 0.48424 -0.14879 -0.21368 -0.40154 -0.83003 0.14521 0.38455 -0.23509 0.39206 0.078353 0.10951 0.091155 0.33719 -0.44084 -0.071291 0.34417 0.17711 0.30235 -0.13655 0.44697 0.17843 -0.01305 0.033013 0.11546 0.1751 -0.013444 -0.11664 -0.1204 0.36777 -0.1479 0.20782 0.14098 -0.38426 0.21235 -0.22834 0.2904 -0.051891 -0.84734 -0.15549 0.016034 -0.24128 -0.19786 -0.044524 0.32334 -0.26044 -0.485 0.080419 -0.53074 -0.23617 0.19476 -0.07217 -0.30563 -0.54129 -0.085781 -0.27236 -0.05422 0.35596 0.21963 0.334 0.010164 0.11032 -0.02199 0.36818 0.38895 -0.2973 0.74764 0.14715 0.7516 0.78107 0.27703 -0.1206 -0.099126 -0.56367 0.73586 0.62133 -0.16399 -0.18517 -0.22058 -0.23209 0.069915 -0.065589 -0.69342 0.41562 -0.47187 0.66042 -0.21375
train -0.38503 0.18035 0.44204 0.22092 0.44731 0.21745 0.17556 -0.13938 -0.16548 -0.021611 -0.12476 0.19223 0.30704 0.054286 0.56576 -0.34298 0.23877 0.29416 -0.77932 -0.21645 -0.22714 0.13902 -0.087725 0.43875 -0.032189 0.0021729 0.20782 0.42806 0.20795 -0.086769 0.42274 0.20785 0.04332 -0.5069 -0.47035 -0.36143 0.31577 0.51911 -0.61052 0.43316 -0.54139 0.30637 0.12164 0.30775 0.81404 -0.14282 0.1312 -0.16747 -0.14515 -0.28632 -0.08145 0.015313 -0.0095795 0.13656 -0.076436 0.23296 0.54235 0.39256 -0.28304 0.16638 0.66239 0.14873 0.18579 0.0033352 0.28986 -0.35895 -0.43891 0.021964 0.081932 -0.0055348 -0.16298 -0.19621 -0.12703 -0.21084 -0.22571 0.34158 0.15448 -0.12428 0.062565 0.5196 -0.061993 0.47143 0.56247 -0.0050779 0.083496 0.2182 -0.52814 0.68724 0.044349 -0.20176 -0.34915 0.15934 0.23497 -0.18238 0.38289 -0.36287 -0.26198 -0.64005 0.33693 -0.02264
area -0.2878 -0.10496 0.20782 0.12178 0.39315 -0.07579 -0.65134 -0.18748 -0.028642 -0.16525 -0.39296 -0.0097244 -0.21729 -0.21878 -0.11509 -0.15192 -0.34282 -0.19707 -0.31565 -0.46361 -0.16495 0.19537 0.015356 -0.149 -0.12168 -0.054187 0.27825 0.1775 0.020303 -0.06318 -0.14513 -0.074376 -0.013261 0.38414 -0.75652 -0.18531 0.55674 0.06937 -0.20677 -0.082592 -0.19683 -0.044382 -0.1679 0.33813 0.72456 0.10624 -0.030597 0.097157 -0.58986 -0.24187 -0.21221 0.15447 -0.17076 0.30314 -0.25128 0.17798 -0.15407 0.30769 0.13901 -0.0046591 0.35471 -0.019404 0.18628 -0.23359 0.051125 -0.57756 -0.083491 0.28057 -0.12966 -0.14397 0.31599 0.27468 0.11713 -0.36246 -0.20267 0.074646 0.1728 0.67119 -0.058321 0.041707 0.14026 0.22118 0.37483 -0.13038 -0.051603 -0.15381 -0.09544 0.45024 -0.1809 -0.083117 -0.05588 -0.46512 0.56051 -0.14539 0.23461 0.38017 -0.34739 -0.43822 0.17178 0.087653
image -0.084129 0.1218 -0.11842 0.50391 -0.16414 -0.013255 -0.21482 -0.32662 -0.50279 -0.073778 -0.47513 -0.10965 0.72779 -0.22012 -0.14444 -0.032008 0.088708 -0.30674 -0.15686 -0.057021 -0.046852 -0.19447 -0.23005 0.28708 -0.10447 -0.19806 0.55594 0.23039 0.32193 0.34199 0.76061 -0.53653 -0.40017 -0.37937 -0.31625 -0.015389 0.13247 0.027948 0.065495 -0.57903 -0.25147 0.078142 -0.012396 -0.2331 -0.068083 0.17945 0.12852 -0.017145 0.49399 -0.052377 0.65333 -0.20091 -0.16247 0.26722 -0.24967 -0.20655 0.27028 -0.30708 -0.25967 0.30264 0.64288 -0.055322 0.059169 -0.040465 -0.0052358 -0.5701 -0.10528 -0.22115 -0.03957 -0.036226 0.58971 0.2922 0.64368 0.23693 0.024433 -0.22098 0.13952 0.29078 -0.19101 -0.09634 0.59686 -0.30758 0.25683 0.28185 0.058092 0.055868 -0.69132 0.042198 0.6002 -0.23489 -0.014572 -0.45522 0.81286 0.20006 0.22042 0.046414 -0.22498 -0.14252 -0.18815 -0.13153
murder -1.1135 0.23519 0.89202 0.098322 0.027183 0.13186 -0.21332 -0.22334 0.10671 -0.2544 -0.52019 0.51861 0.58222 0.61924 0.37235 -0.33577 -0.149 0.19868 -0.064824 -0.22478 0.041149 -0.03975 -0.024802 0.3942 -0.44434 0.2286 0.72737 0.25117 -0.19146 -0.095182 -0.12636 -0.43121 0.26478 -0.43698 -0.41388 -0.046153 0.031238 0.17946 -0.18613 -0.18336 0.047897 0.42777 -0.34089 0.087551 -0.23968 -0.4786 -0.27342 0.58037 -0.29564 0.28914 -0.31367 0.24573 0.31728 0.17036 0.0040475 0.32672 -0.28687 0.36183 -0.47015 0.21684 0.11279 -0.033827 -0.2321 -0.3304 1.3712 -0.16883 0.010769 0.026611 -0.57335 0.29583 0.47204 0.46612 0.21316 -0.60505 -0.086253 0.079479 -0.29661 0.55687 0.041362 0.16657 0.021823 -0.23294 1.264 0.39141 0.71726 0.5139 0.44727 0.51453 0.30784 -0.32849 0.15498 -0.25127 -0.08437 0.29166 -0.095043 -0.07534 -0.0083921 -0.17051 0.32242 -0.84607
journey -0.33877 0.10645 -0.01906 0.32768 0.57019 0.40463 -0.20406 0.024586 -0.054388 -0.044273 -0.41041 0.24936 0.2335 0.18587 0.72768 -0.10767 -0.21091 -0.17292 -0.62416 -0.18705 -0.23554 -0.083935 -0.40491 0.24783 -0.40676 7.0595E-4 0.23016 -0.10933 0.59658 0.46432 0.37584 -0.099209 0.12506 -0.17649 -0.40195 -0.29986 0.11491 0.62244 -0.48469 0.23765 0.08605 0.26813 0.28321 -0.30897 0.47056 -0.10592 -0.052738 0.56991 -0.14299 -0.044507 1.1412 0.12819 0.44301 0.094794 -0.26621 -0.045123 -0.17907 0.095239 -0.41633 0.0062837 0.75615 -0.069406 0.084438 -0.0036331 0.18265 -0.43927 -0.17688 -0.044545 -0.16056 0.52319 -0.18427 0.22987 0.094836 -0.37275 -0.18126 -0.1008 -0.47788 -0.32171 -0.10542 0.23536 -0.30227 0.44101 0.32675 -0.22499 0.0095528 0.47304 -0.034763 1.1243 -0.35808 -0.10078 -0.10473 0.19027 0.7316 -0.0081912 0.36207 0.074453 -0.38169 -0.15368 -0.0035467 -0.33143
minister -0.31082 0.081126 0.2915 0.43509 0.65324 -0.0082827 0.30432 -0.20737 0.4891 -0.21761 -0.58647 -0.32542 0.011736 0.40206 0.17032 -0.28731 0.33621 0.027122 -0.19002 -0.29554 -0.52138 0.12577 -0.18755 0.45875 0.042792 0.4065 0.71961 -0.12266 0.41263 -0.008972 -0.44527 -0.081225 -0.6129 0.066412 -0.43598 -0.57283 -0.72089 0.12176 0.19291 0.0029098 0.3757 0.031068 -0.20239 -0.42469 -0.12358 -0.10212 -0.24435 0.021611 -0.097657 0.18826 -0.48693 -0.15136 -0.3874 -0.14042 0.34732 -0.96795 0.081997 0.49109 0.3185 -0.57452 0.58131 -0.0086219 -0.13379 -0.09968 0.38857 0.24387 -0.1288 -0.28753 -0.085817 -0.45957 0.033078 0.42554 0.41088 -0.36773 0.064915 -0.15213 -0.15571 0.64751 -0.018221 0.48346 0.71402 -0.023195 0.094911 0.23416 0.26612 -0.27332 -1.0826 0.70973 -0.50796 0.34641 0.2277 -0.95686 -0.14464 0.47554 -0.27277 -0.66961 -0.087173 0.074475 0.46006 -0.34704
planet -0.18821 0.41854 0.10247 0.19763 0.33558 0.22751 -0.33504 -0.40642 -0.14114 0.6147 -0.51228 0.0037673 0.33528 0.20493 -0.41818 -0.44106 -0.5438 -0.55547 -0.017903 -0.27502 0.035088 -0.52307 -0.14493 0.27176 -0.41207 -0.0081548 0.21679 0.38306 -0.20885 1.0199 -0.035981 -0.10755 -0.36115 0.17552 0.12525 0.19361 -0.39796 -0.073702 -0.082813 0.19048 -0.37092 -0.57689 0.53178 -0.42425 0.72347 -0.21852 -0.023529 0.32507 -0.23253 0.094054 0.32824 0.37602 -0.10126 0.44737 -0.71632 -0.22003 -0.29302 -0.11754 0.24212 0.66268 0.80349 0.10579 0.24758 0.29706 0.53046 -0.40036 -0.19684 -0.14625 0.047917 0.31047 -0.013656 -0.018618 0.62152 0.25113 0.27386 0.20857 -0.32249 0.015277 0.014482 -0.039363 0.46117 -0.14639 0.47821 -0.18811 -0.029017 0.047179 0.013992 1.0934 0.27508 0.073955 0.64332 -0.41543 0.26343 -0.051328 0.26147 0.21672 0.1708 -0.21307 -0.26056 0.078587
article -1.0197 -0.51773 0.49691 0.066664 0.045003 0.37505 -0.6383 -0.49011 -0.60932 0.53983 -0.79011 0.69318 0.094428 0.049028 0.1178 -0.72426 0.069002 -0.059314 -0.11247 0.13565 0.21877 -0.20764 -0.4317 -1.0607 -0.095004 0.44452 0.22078 0.32376 -0.3492 -0.3433 0.55847 -0.11361 -0.34823 0.13023 0.37562 -0.4144 -0.35283 0.23035 -0.74144 0.1399 -0.017288 0.48301 0.049739 -0.70948 -0.061191 0.14201 0.08897 -0.12383 0.20426 0.12261 -0.11301 0.0609 0.10765 -0.32283 -0.065797 -0.7907 -0.88732 -0.022528 0.47867 -0.62702 -0.099031 -0.39806 0.95921 0.24919 0.92238 -0.45722 -0.046572 0.1568 0.10539 -0.28272 0.64041 -0.19155 0.64255 -0.29708 -0.48679 -0.49555 -0.75046 -0.091952 0.23527 0.33703 0.13752 0.50449 0.89673 0.30895 0.15513 -0.1779 -0.18026 0.041708 0.26986 -0.27493 0.30982 -0.48975 0.94302 0.083258 -0.7625 -0.098717 -0.40042 -0.033863 0.32084 -0.12838
anxiety -0.49162 0.536 -0.24274 -0.37291 -0.016715 -0.55147 -0.080363 -0.05222 0.045565 0.078341 -0.85314 0.28984 -0.13826 -0.20707 0.29207 -0.41095 0.13855 -0.1865 -0.45597 -0.38212 0.1634 -0.20332 -0.27682 0.4383 -0.39844 0.57141 0.61375 0.57469 -0.28205 -0.01754 0.063367 0.096663 0.12571 -0.065881 -0.74639 -0.32062 0.51852 0.079099 0.13824 0.05384 0.25942 0.38871 0.20437 -0.24381 0.34916 0.24818 0.11759 0.53197 0.0057759 0.20854 0.47793 -0.082204 0.055323 0.52139 0.21087 -0.12026 0.46342 -0.60241 0.38148 0.062564 0.0065681 0.14955 -0.17775 0.4559 0.51659 -0.24286 -0.56472 -0.53985 -0.18247 0.20556 -0.036544 -0.37019 0.32593 -0.36784 -0.042999 0.071222 -0.014035 0.39271 0.41644 -0.39077 0.53339 -0.11023 -0.25815 -0.12041 -0.01683 0.50076 -0.59794 -0.12171 -0.1062 0.01172 0.038 -0.06364 0.56196 -0.6476 -0.42537 -0.16845 -0.11576 -0.3374 0.051776 -0.2456
month -0.033571 -0.33426 0.1316 0.11167 -0.22747 0.1047 -0.71688 0.030276 0.015826 -0.36183 -0.64192 -0.33576 -0.3598 0.57822 0.16208 -0.4713 0.12606 -0.28547 0.0017221 -0.36225 -0.21052 0.28914 -0.39091 -0.54545 -0.074845 0.17245 0.28395 0.39952 0.13194 0.14638 -0.032071 0.33913 0.22225 -0.097211 -0.3176 -0.2033 0.28094 -0.25124 -0.17083 -1.2781E-4 -0.12429 -0.022274 -0.11213 0.30385 0.096792 -0.19722 -0.26008 0.17067 0.75229 -0.052611 0.12264 -0.53003 0.18514 -0.0088389 -0.22649 -0.43244 -0.0071769 0.027722 0.085894 -0.099553 0.23563 0.34157 -0.13013 0.091735 0.34614 0.27147 0.025809 0.16135 0.030483 -0.27283 0.28848 0.0016571 -0.22036 -0.34651 0.11315 -0.29257 0.099775 0.52163 -0.29072 0.69894 0.085932 -0.097215 -0.03963 -0.28321 -0.013638 -0.013626 -0.15636 0.73716 0.40835 0.12801 -0.078411 -0.24752 0.10364 -0.046751 -0.037566 0.036834 0.148 -0.24999 0.038953 -0.48232
carnivore -0.50871 0.075923 -0.21346 0.14158 0.4554 -0.073327 -0.6202 -0.41197 -0.28142 0.149 -0.57099 0.3961 0.14757 0.26588 -0.15916 -0.43504 0.058463 -0.2499 -0.28281 -0.22571 -0.46051 -0.095153 -0.20708 0.27317 -0.093343 -0.07975 0.24174 0.14463 0.06056 0.17222 0.095951 -0.11105 -0.099514 -0.012789 0.094206 0.31223 0.089853 -0.29761 -0.23155 0.090899 -0.046496 0.082672 0.23396 -0.39439 0.47694 0.28568 -0.025816 0.51192 -0.10737 0.10807 0.5184 0.15805 0.013161 0.59843 -0.29182 -0.1055 0.48293 0.10521 0.34261 0.49822 0.066626 -0.21464 0.11479 -0.136 0.75071 -0.24973 -0.30694 0.018191 -0.12587 0.064989 0.16221 0.52646 0.44368 0.11662 -0.21577 0.41021 0.13695 0.11609 -0.15658 -0.31925 0.24292 -0.28937 -0.13061 -0.016575 0.30085 -0.044913 -0.010504 0.3647 0.3956 -0.17719 0.19141 -0.31897 0.28984 0.22438 0.17817 -0.055757 -0.089219 -0.22816 -0.097733 -0.029693
party -0.030433 -0.18082 -0.21972 0.72296 0.065556 0.097279 -0.056653 -0.11337 0.36811 -0.043517 -0.77176 -0.46572 0.1979 0.35794 0.81032 -0.30005 0.33632 0.19902 -0.50444 -0.23931 -0.25379 -0.010841 -0.25204 0.3008 -0.16236 -0.078759 0.45486 -0.084845 0.10488 0.34187 0.12644 0.1283 -0.31829 -0.53881 -0.10706 -0.045604 -0.3146 -0.37255 -0.34652 0.45799 0.16791 -0.51545 -0.01893 -0.25042 0.034282 -0.31574 -0.17071 0.22345 0.088542 -0.39745 -0.18711 -0.32522 -0.82382 0.25607 0.37075 -0.084832 -0.33483 -0.19981 -0.093774 -0.12277 0.39308 -0.4197 -0.30386 0.22247 0.5274 -0.092225 -0.19295 0.29776 -0.16319 -0.1397 0.070299 0.29207 0.77527 0.099482 -0.33515 0.23168 0.33471 0.72309 -0.0049652 -0.078346 0.38941 -0.29447 0.038822 0.3749 0.47039 -0.12756 -0.12433 0.24855 -0.003983 -0.11815 0.099528 -0.42405 -0.10192 -0.18012 -0.11651 -0.0032006 -0.054639 -0.12221 0.19128 -0.51378
production -0.39306 -0.42391 0.067846 -0.47052 0.40969 -0.17363 -0.32764 -0.40045 0.23412 -0.43226 0.046691 0.57105 0.074324 -0.08114 -0.070925 -0.69964 0.26636 -0.36054 -0.3303 -0.37124 0.31992 -0.37768 -0.84863 0.11523 -0.043689 -0.19867 0.53996 -0.10318 -0.11538 -0.40718 -0.27147 0.78974 0.15577 0.12546 -0.29929 0.10444 -0.34876 -0.4658 -0.36595 -0.48219 -0.31674 0.15307 -0.030205 -0.089293 -0.26217 0.15788 -0.50663 0.24017 -0.083844 0.18681 0.3188 -0.1899 -0.064549 -0.001642 -0.23404 -0.079672 -0.057872 0.27527 -0.29804 0.47661 0.67597 0.12918 -0.029611 0.3352 -0.079371 0.072112 -0.49051 -0.26199 0.39759 -0.54661 -0.24252 -0.10178 0.28191 -0.027527 0.12174 -0.12414 0.20367 -0.27465 -0.22339 0.21933 0.046077 -0.070632 0.168 -0.29298 -0.29481 0.46594 -0.22198 0.49379 0.048695 -0.29649 0.14341 -0.30376 -0.13571 -0.30714 0.54468 0.24985 -0.59451 0.011141 0.46619 -0.356
importance -0.30618 0.050335 -0.096773 -0.056536 -0.0082647 -0.043206 -0.51813 -0.49513 0.060347 -0.25472 -0.48231 0.0085726 0.33464 -0.33104 -0.1839 -0.315 -0.14291 -0.3335 0.08288 0.1444 -0.067581 -0.28747 -0.046016 0.075964 -0.039109 -0.2158 0.11213 -0.1692 -0.31351 -0.019772 0.19834 -0.045196 -0.321 0.37905 -0.56563 -0.38736 -0.15312 0.42205 -0.37356 0.037585 -0.011536 -0.053364 -0.17028 0.031022 0.2813 0.32898 0.045536 0.27607 -0.1497 0.099521 0.79547 -0.50706 -0.43646 -0.026969 -0.24226 -0.56456 -0.027639 -0.2744 0.046098 -0.14591 0.37792 -0.30463 -0.086849 0.0064716 0.18774 -0.22738 -0.50109 -0.40728 -0.60775 -0.18221 0.15438 -0.18183 0.33954 -0.1036 -0.27358 -0.45168 0.1722 0.58777 -0.11412 -0.11069 -0.073808 0.33697 -0.19303 0.41686 0.20835 0.48604 -0.70867 0.15028 -0.0212 -0.068871 0.36983 -0.19178 0.74653 0.070882 -0.22065 -0.38193 0.28678 -0.015287 -0.16913 -0.0053407
inmate -0.9537 0.33619 0.36918 -0.014099 0.30259 -0.14671 0.26348 -0.17726 0.1914 -0.36856 -0.1799 0.25974 0.43389 0.59463 0.074853 -0.054607 0.30301 0.048595 -0.11967 0.029078 -0.15534 -0.3727 -0.041712 -0.36719 0.1584 -0.080469 1.2019 -0.049781 0.6388 -0.2414 0.035378 0.34753 0.27415 -0.027726 -0.59993 -0.21612 -0.076524 -0.033409 -0.2499 -0.044578 0.12277 0.44559 0.38297 -0.50391 -0.07649 -0.55709 -0.19533 0.10804 0.11645 0.69864 -0.41139 0.010732 -0.064364 -0.0037093 -0.37944 0.46907 -0.42254 0.088744 0.66315 0.29237 -0.16031 0.72227 -0.6041 -0.092445 0.51525 -0.47011 -0.14082 -0.11737 -0.65463 -0.32585 0.24117 0.28528 -0.042497 -0.66196 0.012103 0.19853 -0.2988 0.40755 0.3343 0.15897 -0.045618 -0.30777 0.89864 0.33077 0.054944 0.096644 0.55705 0.36778 0.20443 -0.059229 -0.24277 -0.57842 0.19599 0.59455 -0.18381 0.59214 -0.40793 -0.69234 0.098845 -0.0016691
Harvard -1.2331 0.30522 -0.055566 -0.15995 0.085676 0.43795 0.20567 -0.66019 -0.42683 0.15458 -0.67641 0.097414 -0.26194 0.16267 0.082893 -0.56216 -0.29679 -0.11657 -0.27908 0.20284 -0.58824 -0.64786 -0.6867 -0.14158 -0.25601 -0.21229 0.81113 -0.042148 -0.40425 0.14394 0.50317 0.23859 -0.083436 0.31252 -0.29756 -0.23366 -0.76693 0.81812 -0.018305 0.15252 -0.23074 0.35061 0.094372 -0.19712 0.0041515 -0.35105 0.70051 0.17104 0.48451 0.66155 0.01891 -0.33503 -0.61739 0.58818 -0.30628 -0.38944 -0.12128 0.068847 0.61642 -0.25704 -0.17789 -0.2761 -0.13294 0.36063 0.30658 0.1727 -0.045428 0.54294 -0.20919 -0.20453 -0.16172 -0.26013 0.10093 -1.0046 0.31337 0.35654 -0.40268 0.21802 0.30348 0.1215 -0.15532 8.6159E-4 0.050883 -0.017302 0.25324 -0.35678 -0.21103 -0.38051 0.53744 -0.39484 -0.35511 0.044913 -0.29846 0.09014 -0.16834 -0.53823 0.069579 -0.1588 0.17751 0.27781
psychology -0.89118 -0.19886 -0.0072474 -0.79624 0.35603 0.13315 0.30038 -0.13826 -0.38469 -0.36398 -0.81319 0.47038 -0.081017 -0.29979 -0.18134 -0.11395 -0.11344 -0.69133 -0.3217 -0.34901 0.010062 -0.45451 -0.13608 0.40629 -0.53656 0.43513 0.40052 -0.33449 -0.29958 0.041086 0.24289 -0.1053 0.25742 0.21876 -0.9311 -0.33126 -0.59339 0.44873 -0.18315 -0.20575 -0.1648 0.78259 0.015814 -0.54615 0.28043 -0.4094 0.78391 0.019895 0.074823 0.53185 0.68362 -0.13197 -0.17972 0.45102 0.24682 0.22334 0.17116 -0.19404 0.54061 0.1921 -0.056758 0.26842 -0.28331 0.55257 0.53516 -0.17917 -0.0050817 -0.18045 -0.63317 0.31708 0.093155 0.20243 0.19644 -0.62821 0.11864 0.13623 -0.51908 0.62105 0.20507 -0.22631 0.16598 -0.18839 0.15949 0.021909 0.25845 0.039623 -0.61559 -0.032985 0.41797 -0.6317 -0.34194 0.19096 0.031997 -0.086923 -0.17667 -0.5568 0.028615 -0.55662 0.064536 -0.096826
medal -0.86026 -0.078145 -0.013778 0.63875 0.26086 -0.72828 0.19322 -0.49447 -0.17022 -0.12914 -0.69173 0.26339 -0.9407 0.56571 -0.12414 -0.37829 -0.40956 -0.36013 -0.066425 -0.12568 -0.44175 -0.37157 -0.46559 0.43852 9.9213E-4 -0.56042 0.71395 -0.46289 -0.19965 0.12807 0.49488 -0.77549 0.093619 -0.78058 -0.65981 0.13826 -0.80864 0.042968 -1.1967 0.078828 -1.101 -0.68022 0.39932 0.21133 0.43673 0.2903 -0.23471 0.37631 0.8438 0.20617 0.3297 -0.26842 -0.15117 0.0032968 0.66333 -0.16263 -0.10082 0.336 0.040284 0.15581 0.15802 -0.12102 0.59898 -0.55219 0.34714 0.026818 -0.82761 -0.48675 0.15941 0.37611 -0.64792 -0.54574 0.51932 -0.23208 -0.69617 -0.11267 -0.41808 0.81001 0.30733 0.056876 -0.42992 -0.32212 0.63792 0.38848 0.59188 0.30967 0.20218 0.69999 0.0086015 1.142 -0.14323 0.22049 0.49889 0.41419 0.28335 -0.45622 -0.053981 -0.017242 -0.43401 -0.29472
company -0.46122 -0.60425 0.11556 -0.014733 0.08801 0.070441 -0.26153 -0.33664 -0.062386 -0.41692 -0.28082 0.32404 -0.20463 -0.17125 0.36674 -0.31349 0.21699 -0.3946 -0.60461 -0.25756 0.36865 -0.17836 -0.15827 -0.096093 -0.0058292 -0.46787 0.31198 0.013333 0.088617 -0.37065 0.083496 0.45007 -0.20509 -0.0038943 -0.041965 0.015444 -0.53606 -0.042441 0.20026 0.20145 -0.091692 0.19972 -0.10782 -0.12179 0.35131 0.14605 -0.037541 0.44986 0.12257 0.10751 0.12545 -0.16035 -0.31618 -0.31374 -0.68432 -0.2352 0.13882 -0.32816 0.043536 -0.21447 0.36504 0.032258 0.25359 0.14038 -0.012568 0.02155 -0.063925 -0.18287 0.24109 -0.53235 0.066658 -0.066417 0.026488 -0.23213 -0.2163 0.60007 0.19861 -0.1015 0.026312 0.18971 0.23581 -0.21683 0.41405 0.11255 -0.10832 -0.067991 -0.11647 0.34599 0.18056 0.16042 0.0052242 -0.61353 -0.027287 0.11735 0.32602 0.3259 0.13489 -0.079982 0.10696 -0.47072
live -0.12405 0.46273 0.0058064 0.19508 0.12294 0.41868 -0.19701 0.15392 -0.33643 -0.072254 -0.32782 0.45051 0.10577 0.03875 0.37811 -0.33164 0.062574 -0.59357 0.22683 -0.11948 0.081492 0.32214 0.027126 0.074225 0.25964 0.035169 0.35074 -0.26363 0.21429 0.35173 -0.15823 0.56825 -0.40954 0.061333 -0.93675 -0.17861 0.26886 -0.11406 -0.064747 0.0011848 0.26223 0.11049 0.46079 -0.15973 0.23074 -0.15203 -0.0128 0.098029 -0.22191 -0.088717 0.50444 0.17866 0.03258 0.030447 -0.37111 0.33952 -0.070912 0.54281 0.12416 -0.32182 0.17359 -0.26905 0.30643 0.086814 0.32486 -0.19486 -0.12181 0.047942 -0.06206 -0.31062 -0.065489 0.14426 0.54513 0.37967 -0.024161 0.29043 0.029499 0.25228 -0.057716 -0.081853 0.10117 -0.22707 0.29463 -0.6851 0.36405 0.58221 0.26687 0.51794 0.68781 0.11891 0.52181 -0.47017 0.19917 -0.021355 0.056025 0.020475 -0.36988 -0.5839 0.030882 -0.20007
holy -0.56421 0.44685 0.096433 0.35083 -0.15653 0.24637 -0.13079 -0.44093 -0.3125 -0.3123 -0.67726 0.32568 0.6463 0.41271 -0.13344 -0.49137 0.018927 -0.75342 -0.23247 -1.1369 -0.80824 0.41132 -0.50734 -0.20675 0.28753 0.37262 0.17274 -0.027211 0.10322 0.38341 0.13336 0.036247 -0.46851 0.5524 -0.44091 -1.1903 0.11086 0.09467 -0.23855 -0.14576 -0.33275 -0.55226 0.1457 0.33927 0.59375 0.0047936 -0.10987 0.20005 -0.35678 0.33701 0.39329 -0.90841 0.86011 0.47956 0.29197 -0.47942 -0.035918 0.28166 -0.19004 0.2326 0.30174 0.78974 -0.059481 0.0054546 0.70008 -0.10327 0.14065 0.51883 -0.2866 -0.55789 -0.14871 0.38567 0.29923 0.41931 -0.65545 0.36281 -0.4911 0.30745 0.21241 0.24955 -0.074466 -0.12532 -0.08468 0.27507 0.81212 -0.17908 -0.306 -0.22743 0.011183 -0.57771 0.24915 0.39833 0.29431 0.5621 0.11522 0.093827 -0.069071 -0.63488 0.16712 -0.32062
ticket 0.089369 -0.58888 -0.075667 -0.35978 -0.1215 -0.22216 -0.43198 -0.48387 0.15253 -0.063963 -0.23303 -0.18981 0.090231 -0.011293 0.56361 -1.127 -0.17861 -0.21003 -0.59917 -0.1142 -0.48962 -0.10189 -0.16428 0.32836 0.29785 -0.19113 0.31466 0.21615 0.92799 -0.080578 0.51172 -0.15607 0.061238 -0.44509 -0.50965 -0.23238 0.12127 -0.076577 0.14165 0.12752 -0.20152 -0.16239 0.63612 -0.30775 0.15376 -0.5614 -0.038129 0.40658 0.56634 -0.56686 0.21889 -0.24989 -0.63322 0.20787 0.12938 0.41091 0.39298 0.024491 -0.2464 -0.028631 0.67269 0.042729 0.38927 0.1106 0.036071 -0.16128 -0.36617 0.46965 0.019752 0.068821 0.17655 -0.36017 0.09648 0.1799 -0.48503 -0.32375 0.080496 0.011624 -0.62894 0.15996 0.1424 -0.6997 0.26789 -0.2187 0.57292 -0.072114 -0.13247 0.26466 -0.10896 0.047602 -0.54643 0.062407 -0.18522 -0.34466 0.27548 0.17763 0.29074 -0.95976 -0.081434 -0.032446
victory -0.4652 -0.17857 -0.41799 0.20399 -0.13898 -0.37197 -0.0080114 -0.27224 -0.8801 0.24657 -0.65194 -0.2873 -0.13223 0.25774 0.087141 0.0064478 -0.014294 0.12593 -0.36116 0.2693 -0.06395 -0.34 -0.91541 0.078948 -0.21439 0.40897 0.39532 -0.087079 0.53328 0.1738 0.19976 -8.5433E-4 -0.054795 -0.23976 -0.5924 -0.050278 -0.19691 0.076262 -0.24028 -0.29185 -0.11748 -0.20726 0.13755 0.13542 0.09134 -0.12495 -0.26302 0.52895 0.20043 -0.18257 0.49196 -0.063898 -0.62809 0.31059 0.50005 -0.46485 -0.20645 0.064119 -0.74891 -0.33307 0.13759 -3.443E-4 0.2418 0.12193 -0.21898 0.18048 0.084579 -0.33899 0.0044026 0.053971 0.17272 -0.031174 0.86261 0.0053965 -0.41971 0.038268 0.40971 0.56167 0.51043 0.7391 -0.43263 0.45988 0.21919 0.43675 1.2222 0.037699 0.45256 0.60726 0.22061 0.33192 -0.54523 0.18563 0.54085 0.14381 -0.055537 -0.49574 1.3525E-4 -0.47393 -0.010316 -0.092587
football -0.082432 0.035719 0.15817 -0.032335 0.37961 -0.11754 0.1813 -0.67113 -0.44257 -0.29698 -0.5617 -0.14363 0.19869 -0.07512 0.24924 -0.69831 -0.16364 -0.77324 0.21761 -0.29461 -0.16523 -0.27498 -0.46463 0.17277 0.35176 0.11619 -0.096992 -0.21807 0.34663 0.20568 0.10784 -0.52151 0.091237 -0.46461 -0.35228 -0.34147 -0.38302 -0.55456 -0.53367 0.41937 -0.41395 0.22841 -0.26204 0.049788 0.38354 -0.24828 0.10157 0.19054 -0.16658 0.23429 0.28718 0.21381 -0.32157 0.64489 -0.54926 -0.089569 0.25788 0.38696 0.1432 -0.28916 0.2068 0.49025 0.017054 0.71232 0.20554 -0.62179 -0.40441 0.0015049 0.27573 0.34914 0.43739 -0.31119 0.30801 0.035508 0.22202 0.50144 0.43937 0.35371 0.061165 -0.089434 0.015333 -0.12391 0.60521 -0.302 0.74902 0.48046 0.18695 -0.087356 0.077781 0.030671 -0.23893 -0.61171 -0.20855 -0.21532 -0.44553 -0.4392 0.07269 -0.12638 -0.082432 0.12369
seepage -0.10423 0.043582 0.34109 0.39108 0.20657 0.10998 -0.39341 -0.47453 -0.076635 0.068927 -0.35336 0.37736 0.055304 0.078212 0.13541 -0.33814 0.071168 -0.28349 -0.38309 -0.35092 0.1746 0.050254 -0.25467 -0.0028055 -0.094424 0.10252 0.39586 0.21491 0.009643 0.018896 0.40264 0.041018 -0.34477 -0.083328 -0.48595 -0.056014 -0.102 -0.19743 -0.26698 -0.34735 0.040936 0.23606 0.28187 -0.26849 0.092137 0.34087 0.61769 0.25276 0.054526 -0.13881 0.54972 -0.12475 0.30064 0.23638 -0.46714 -0.2424 -0.075438 -0.20577 0.1288 -0.077263 0.17679 0.081346 0.14129 0.3057 0.33172 -0.011193 -0.19756 0.030818 0.34663 -0.19558 0.17951 0.093111 0.092393 -0.042073 -0.48353 0.0063938 -0.20337 0.033194 0.45469 -0.079986 0.21428 -0.20564 0.36387 0.2006 0.19963 -0.16865 -0.093075 0.17138 0.31496 -0.2886 0.21068 -0.1366 0.35191 0.071682 -0.039046 0.10008 -0.068241 -0.31724 0.23638 -0.31015
rook -0.35445 -0.16577 0.21143 0.3212 0.61183 -0.47918 0.23362 -0.34338 -0.60379 -0.088703 -0.32806 -0.33065 -0.23287 0.14184 0.10379 -0.28606 0.059267 -0.37476 -0.14567 -0.044282 0.0072914 -0.50401 0.031101 0.048184 0.074388 -0.27343 0.36124 0.3699 0.051302 0.22298 -0.16749 0.18073 0.18178 -0.24012 -0.91045 -0.14024 -0.058557 0.33419 -0.1915 0.25509 -0.37921 0.41854 -0.18403 0.058764 0.38801 -0.33512 0.60068 0.38139 -0.4463 0.44087 0.18196 0.029513 0.030573 0.14263 0.29895 0.42224 -0.44086 0.054509 0.18934 0.099442 -0.077288 -0.14327 0.14356 0.22573 0.50256 -0.39163 0.080974 0.29244 0.040991 0.022885 0.52824 0.33313 0.4429 -0.51967 -0.33605 0.17794 -0.15842 0.29715 -0.31209 0.27407 0.090539 0.2437 0.42174 -0.24839 0.68281 0.22745 -0.10257 0.75805 0.20113 0.08799 0.029 -0.078891 -0.12401 -0.54967 -0.35883 0.028767 0.23011 -0.28637 0.041948 0.28171
stroke -0.53283 0.17023 -0.46352 0.085818 -0.40491 -0.36775 -0.17498 -0.2521 0.22546 0.064006 -1.189 -0.18501 -0.654 0.26951 0.20344 0.60546 0.40001 -0.47044 -0.33615 -0.28473 0.1974 -0.25686 -0.52684 0.54521 -0.83433 0.061139 0.40386 0.12174 0.24378 0.37996 -0.84308 0.7064 -0.24701 0.15059 -0.37056 0.26614 -0.24359 0.83842 -0.17783 -0.023252 -0.33765 0.73853 0.10483 0.39437 -0.14817 -0.048142 -0.091112 0.46981 0.13355 -0.016141 0.11734 0.59514 0.22986 0.2862 0.21474 -0.51749 -0.038361 -0.61047 0.10938 0.12571 -0.045809 0.25898 0.3851 0.0059154 0.23121 -0.64502 -0.64425 -0.16229 -0.44026 0.068448 -0.38598 0.03254 0.1162 -0.23049 -0.29158 0.54235 -0.26561 0.71084 -0.22868 0.25086 -0.36817 -0.049216 0.47231 -0.23691 0.16411 -0.13704 -0.25407 0.24916 0.4617 0.58885 0.30093 -0.021511 0.27369 0.010709 -0.12685 0.12697 -0.16485 -0.37595 -0.06066 0.041554
environment -0.47606 -0.12685 0.067521 -0.38215 0.54998 0.2031 -0.21256 -3.6624E-4 0.22776 0.019379 -0.56791 0.013725 0.013847 -0.010132 0.43589 -0.50916 -0.17938 -0.52613 0.018221 -0.11342 -0.30396 -0.092931 0.13537 0.35703 -0.36375 0.18662 0.44642 -0.33343 -0.25932 0.23108 -0.082418 -0.41221 0.14127 0.36365 -0.58622 0.034962 -0.027949 0.074948 0.28896 -0.013855 -0.26252 -0.055989 0.24531 -0.26903 0.51006 0.1113 -0.058599 -0.16299 -0.22802 -0.034472 0.65794 -0.19218 -0.49995 -0.28494 -0.45268 -0.10024 -0.373 0.043077 0.45695 -0.015781 0.61519 -0.021054 0.081451 0.31443 -0.10792 0.15764 -0.59804 -0.34087 -0.19691 -0.31978 0.27581 0.19006 0.42829 0.35551 0.10707 0.20844 0.30711 0.48564 -0.008482 0.038802 0.577 0.37583 -0.062668 0.2608 0.062788 -0.16586 -0.82581 0.51736 0.16548 0.045536 0.34344 -0.50784 0.2473 -0.057195 -0.0066145 0.37111 0.13198 -0.1602 0.1181 0.035677
coffee -0.10437 -0.15633 -0.69733 0.056907 0.60838 0.053677 -0.29138 -0.47027 -0.067335 -0.47968 -0.481 0.84832 0.36419 -0.10466 0.065018 -0.86852 0.041207 -0.25206 -0.34564 -0.74454 -0.71658 0.096123 -0.56193 0.049833 0.10025 -0.19475 0.39862 0.40437 0.30998 0.21498 0.48906 0.021123 0.2673 -0.019468 -0.41562 0.14718 0.08328 0.22774 -0.2327 -0.014064 0.60547 -0.0013901 0.44784 0.26881 -0.057877 0.019173 0.14874 0.31569 -0.1943 -0.13167 -0.17935 -0.13977 -0.044306 0.23635 -0.30803 0.41458 0.084976 -0.41006 0.054363 0.23268 0.27079 -0.046469 -0.11646 0.26797 0.33092 0.33254 -0.73961 -0.27386 -0.14766 -0.40793 -0.019926 -0.037018 -0.18509 0.24051 -0.73915 0.68902 0.030346 -0.064437 -0.041305 0.11857 0.46236 -0.39588 0.47643 -0.13862 0.78339 -0.26296 -0.33234 -0.10969 -0.13217 0.1451 0.022639 -0.1011 -0.10021 0.2346 0.013087 -0.085588 -0.45693 0.093892 0.45129 0.12506
baby 0.04958 0.074617 0.041368 0.30953 0.015018 -0.46942 -0.64714 0.030853 0.15541 -0.47842 -0.3563 0.51367 -0.51317 0.60194 0.17488 -0.17361 0.23995 0.086159 -0.0059987 -0.08851 0.025996 -0.3271 0.31291 0.24612 -0.05373 -0.20201 0.96122 0.51416 0.078691 0.67911 0.57673 -0.084495 -0.045046 -0.38824 -0.23005 0.47964 -0.29433 0.4169 -0.49531 0.24199 0.35019 0.28198 0.045784 -0.5212 0.34911 0.25181 -0.060911 0.78652 0.041349 0.076626 -0.22085 -0.24482 0.32443 0.12263 -0.46472 -0.29168 0.15554 -0.70901 -0.30187 0.85131 0.47692 0.17044 -0.1749 0.12771 1.0138 -0.21615 -0.51762 -0.28151 0.091896 -0.54012 -0.055619 0.43638 -0.24871 -0.086152 -0.18521 0.043237 0.26609 0.090818 -0.094173 -0.23728 0.20497 -0.12718 0.0038241 -0.28772 0.45868 -0.10295 -0.26235 0.067938 0.46614 0.35404 0.15103 -0.63971 -0.10018 -0.19255 0.19711 -0.30191 -0.81055 -0.26863 -0.19266 -0.26592
personnel -0.7612 0.28266 0.42895 -0.28185 0.15235 0.019633 0.032027 -0.46622 0.58604 0.13433 -0.070946 0.16542 -0.012062 0.11351 0.18606 0.092523 -0.030994 -0.00958 -0.29707 -0.23881 0.35563 -0.5204 -0.070878 -0.15041 -0.0024165 -0.42405 0.36529 -0.41605 -0.076826 -0.20779 0.652 0.32945 -0.20398 -0.22825 -0.18029 -0.3561 0.63999 -0.26992 -0.2195 0.10197 -0.47059 0.27568 0.15897 0.40428 0.66595 0.09146 0.40168 0.5418 -0.33158 0.10814 -0.11959 -0.28656 -0.48666 0.088776 -0.17525 -0.29326 0.10346 0.47853 0.18672 -0.28638 0.36923 0.56706 -0.18811 -0.35944 -0.033958 -0.4671 -0.48365 -0.31879 -0.070269 -0.76524 -0.014952 0.34648 -0.058076 -0.51728 0.083899 0.019607 0.42325 -0.060478 -0.003789 0.017902 -0.0072381 -0.026602 0.59527 -0.018503 -0.14699 0.19174 -0.35122 0.54066 -0.16763 0.13346 -0.51644 -0.50147 0.27349 -0.060454 0.018791 -0.30783 0.18217 -0.48281 -0.041893 0.13826
family -0.30766 0.092171 0.20034 0.34558 0.11539 -0.14855 0.01086 -0.18434 0.16189 -0.18514 -0.25675 0.31903 0.025106 0.1035 0.4391 -0.37377 -0.10876 -0.0036849 0.12126 -0.44177 -0.10509 0.17365 -0.047965 -0.070231 -0.073552 -0.063057 0.54546 -0.046572 -0.049516 -0.17704 0.19818 0.020137 -0.25232 0.14934 -0.25498 -0.17965 -0.0026802 0.41156 -0.30195 0.4266 -0.13555 0.42175 -0.12721 -0.4837 0.64017 -0.12447 0.099977 0.6037 0.03906 0.10747 0.3891 0.056472 -0.25192 0.1641 -0.26733 -0.016103 -0.18177 -0.15753 0.075227 0.026208 0.69233 -0.1805 0.19871 -0.34497 0.29257 -0.028689 0.18258 0.039971 -0.1268 -0.13534 0.19023 0.83644 0.13521 0.11849 -0.28365 0.33938 0.12485 0.52901 -0.19162 -0.032852 0.15401 -0.432 0.012595 -0.41899 0.36353 0.24443 0.15472 0.12092 -0.11919 0.044697 0.10193 -0.54178 0.21359 -0.31653 -0.097372 -0.10719 -0.23326 -0.13192 -0.036988 -0.5723
hypertension -0.76119 0.20865 -0.26353 -0.19507 0.20293 -0.35271 -0.22524 -0.13813 0.42121 -0.1558 -0.65645 0.43858 -0.20165 -0.3284 0.16407 0.079729 0.13795 -0.54108 -0.33423 -0.22659 0.17364 -0.67556 -0.38472 0.34681 -0.035004 0.39575 0.62721 0.17716 -0.074298 0.068215 -0.024232 0.33941 -0.28989 0.33258 -0.55056 -0.023735 0.24 0.29235 0.17628 -0.15395 0.13518 0.50758 0.29994 -0.39314 0.18446 0.36636 0.13946 0.4661 0.37236 0.45347 0.0068177 0.29705 -0.26824 0.35809 0.22935 -0.21371 0.44079 -0.71851 0.4734 0.31411 -0.015194 0.20022 -0.27339 0.53608 0.26334 -0.57337 -0.92913 0.091785 -0.30804 -0.030343 0.15937 -0.017553 0.10147 -0.25092 0.017433 0.32035 -0.32235 0.37967 0.14457 0.11519 0.2914 -0.050781 0.16776 -0.11597 -0.13303 0.19716 -0.18653 -0.111 0.28209 -0.081284 -0.13882 -0.21622 0.41352 -0.17884 -0.62385 0.082917 -0.48797 -0.47723 0.35927 -0.0091728
president -0.17045 0.09785 0.077497 0.46296 -0.10835 0.37928 -0.055737 -0.44935 0.24471 -0.29674 -0.76832 -0.18648 0.18297 -0.028581 0.48102 -0.35464 0.17327 -0.43096 -0.37201 -0.3072 -0.0045043 -0.51625 -0.16568 -0.2828 -0.0066039 0.17641 0.69713 0.062411 0.29704 -0.13565 0.52621 -0.17545 -0.12678 0.049911 -0.17984 -0.29481 -0.66624 0.43277 -0.020009 -0.15451 0.077059 -0.060687 0.21262 0.054166 -0.35302 -0.13627 -0.26789 0.31153 0.22923 0.072244 -0.35277 -0.24142 -1.0041 0.10749 -0.19115 -0.39509 0.20333 0.31717 -0.55858 -0.41246 0.0037066 -0.065863 -0.10454 0.17257 -0.022236 -0.041153 0.084834 -0.32826 0.068133 -0.24052 0.08145 -0.02735 0.44326 -0.2416 0.17018 0.30931 0.32897 0.12496 0.020838 0.15265 0.024507 -0.31982 0.13963 -0.33861 -0.077843 0.17922 -0.5535 0.33473 0.33067 0.082705 -0.29476 -0.69215 0.050024 0.44794 -0.13465 -0.35307 -0.11382 0.27506 0.26158 0.10958
atmosphere -0.18196 0.081528 -0.1378 0.25526 0.46921 -0.080551 -0.5321 -0.056749 -0.11125 0.66745 -0.38968 -0.015976 0.66062 -0.36398 -0.10981 -0.56409 -0.36071 -0.70003 -0.57521 -0.58204 -0.52183 -0.46773 -0.40478 0.38185 -0.33028 0.072155 0.13383 0.069224 -0.2147 0.28559 -0.11492 -0.63691 -0.18548 -0.014168 -0.38911 0.48582 0.62882 -0.33232 -0.03327 0.34142 -0.35623 -0.15994 0.17981 0.094527 0.42154 -0.3904 -0.39751 0.063194 -0.066381 0.25637 0.59972 0.19164 -0.089105 0.63594 -0.7013 -0.096119 -0.66263 0.035989 0.31937 0.6432 0.66602 0.12553 0.056443 0.26937 0.21389 0.29492 -0.60663 -0.0366 -0.1823 0.11053 0.12535 -0.40063 1.0601 0.066369 0.24561 -0.10704 0.040934 0.30259 0.24431 0.081563 0.34019 -0.11603 0.10529 -0.44385 0.19925 0.012278 -0.18913 0.39504 0.15978 -0.17432 0.18477 -0.20671 0.22049 0.42039 0.037973 0.066015 -0.22736 0.0011704 0.083398 -0.16155
practice -0.32205 -0.26102 -0.09824 -0.062991 0.15523 -0.38925 0.2266 -0.33052 -0.12203 -0.38425 -0.87657 0.21501 0.2367 -0.1005 0.3695 0.082606 0.12701 -0.83832 -0.28566 -0.2607 0.13987 0.21734 -0.11328 -0.14765 0.14116 -0.10359 0.11368 -0.71872 -0.0023799 0.21478 0.01032 0.071151 0.4739 -0.14925 -0.088993 0.16864 0.46241 0.081102 -0.10518 0.024338 -0.3935 0.52569 0.068516 -0.20802 0.44535 0.059658 0.15667 0.23983 -0.70258 0.37282 0.10931 -0.18375 -0.17042 0.024218 -0.14307 -0.36955 0.099403 -0.40853 0.34462 -0.053543 0.32135 -0.086487 0.11694 0.3242 0.087979 -0.25025 -0.056 0.22564 -0.35265 -0.52167 0.31516 0.051959 0.3634 -0.45529 -0.047822 0.1965 -0.22584 0.44412 0.11052 0.51658 -0.35965 0.30392 0.25276 0.2923 0.42894 -0.07431 -0.13173 0.21477 0.36444 -0.24052 0.18459 -0.035715 -0.49416 0.17718 -0.43678 -0.20883 0.3542 -0.023958 0.072611 0.28246
movie -0.30875 -0.15221 0.19614 -0.41021 0.26441 0.060381 -0.049246 -0.44928 -0.027532 -0.20964 0.0073477 0.36145 0.15372 -0.056861 -0.22467 -0.67217 0.087999 -0.64216 -0.16313 -0.072189 0.18455 0.1356 -0.38347 -0.1104 -0.90501 0.035836 0.40488 -0.1177 0.64271 0.3528 0.30085 -0.051817 -0.086517 -0.33291 -0.44153 0.0929 -0.63428 -0.22372 -0.8787 -0.070085 0.031592 -0.055498 -0.24736 -0.73744 -0.13275 -0.69635 -0.019886 0.3356 0.37894 0.044109 0.67315 0.22255 -0.0022859 0.55387 -0.14155 0.33096 0.467 0.255 0.0018025 0.31056 0.40081 0.12833 0.55904 0.11229 0.5078 -0.24574 -0.36255 0.22436 0.068592 -0.47462 -0.088837 0.2685 0.66118 0.051202 0.17809 -0.21547 -0.010971 -0.19244 -0.23599 -0.041541 0.1797 -0.36893 0.40762 -0.082489 -0.1868 -0.069247 0.40768 0.041075 -0.21713 0.07376 -0.11726 -0.61187 0.22712 0.060615 0.51772 0.13368 -0.28737 -0.33153 0.30768 -0.45882
popcorn -0.38284 -0.18247 -0.6418 0.034598 0.65181 -0.06651 -0.13495 -0.4821 -0.015696 -0.12992 0.064209 0.64226 0.05769 -0.045713 -0.26461 -0.92969 0.25209 -0.53181 -0.42411 -0.35452 0.056101 -0.17067 -0.6734 -0.073663 0.052953 -0.14721 -0.085084 0.084643 0.48039 0.31159 0.2094 0.0048906 -0.057159 -0.27725 -0.2178 0.56276 -0.062822 -0.28067 -0.29203 -0.38405 0.45072 0.29669 0.29522 -0.025404 0.29285 -0.15111 0.095575 0.44707 0.20899 0.22036 0.23058 0.050345 0.026925 0.46937 -0.28955 0.23692 0.026063 -0.32171 0.38697 1.0164 0.3339 0.18474 0.25689 0.3606 0.60325 0.026948 -0.54085 -0.30353 -0.086466 -0.44085 -0.20765 0.047561 0.3104 0.2012 -0.3121 0.38682 0.01751 -0.15731 -0.19964 0.13559 0.30142 -0.46359 0.11482 -0.0040127 0.28401 -0.12612 0.061612 0.068821 -0.010304 -0.09666 -0.071965 -0.22852 0.17063 0.027376 -0.13189 0.17261 -0.73895 -0.14167 0.088151 -0.079701
recommendation 0.032551 -0.41048 -0.17416 -0.025666 -0.13689 0.18324 -0.43719 -0.57345 0.3031 -0.15574 -0.39212 0.13426 0.0048383 -0.10637 0.2156 -0.17695 -0.19547 -0.53038 -0.32017 -0.12361 0.39403 -0.21553 0.26207 -0.66795 -0.23224 0.040667 0.15172 0.25699 0.029134 0.12936 0.68194 0.018551 -0.14014 0.30293 -0.067038 -0.51572 0.1384 0.32776 -0.58313 -0.136 -0.37737 0.28379 0.026011 -0.19156 0.37071 0.2179 -0.030383 0.27154 -0.10235 0.35299 -0.053873 -0.22683 -0.51883 -0.20392 -0.11004 -0.2842 0.067574 0.16292 0.04817 0.004453 0.11483 -0.36061 -0.20482 0.2564 0.12638 0.38843 -0.62638 -0.43805 -0.27598 -0.067524 0.4265 0.35485 0.21496 -0.14698 -0.03524 -0.34933 -0.27482 0.20503 -0.33261 0.64945 -0.21911 -0.038501 0.82753 0.24117 -0.42842 0.14021 -0.44309 0.19345 0.23412 0.4533 0.16283 0.3276 -0.16586 -0.23524 -0.26675 -0.21272 0.19871 -0.075965 0.45396 -0.43388
focus 0.0068577 0.065004 0.27933 0.15308 -0.096317 -0.29809 -0.19506 -0.26979 -0.25241 -0.44822 -0.33519 0.075203 0.1711 -0.29076 0.34732 -0.51834 -0.52394 -0.43731 -0.1063 0.15087 0.14665 -0.021954 0.004465 0.14223 -0.19909 0.031439 0.22521 -0.19833 -0.15761 0.031441 0.024616 0.40451 0.097675 0.26222 -0.31926 -0.41792 -0.25793 0.17494 -0.27341 0.037845 0.10287 0.20427 -0.14867 0.0058198 0.12416 0.40702 0.02008 0.52469 -0.25659 0.14527 0.28986 -0.54572 -0.25887 0.083712 -0.31825 -0.057906 0.26487 -0.31024 0.040816 -0.002551 0.43531 0.03307 0.09135 0.27542 0.10254 -0.078891 -0.18425 -0.058047 -0.37141 -0.16049 0.17912 -0.043952 0.66792 -0.077079 -0.29016 -0.31222 0.20198 0.059777 -0.34123 0.14965 -0.14174 0.50854 0.24087 0.28975 -0.17354 0.3307 -0.81066 0.44891 0.14977 -0.28716 0.47419 0.041528 0.13308 -0.29755 -0.36121 -0.1643 -0.056208 -0.29069 0.08416 -0.086718
attempt 0.0089309 -0.046193 -0.36638 0.53635 0.40403 -0.39177 -0.065537 0.039856 -0.097435 -0.012729 -0.46854 -0.07742 0.5312 0.38539 0.2483 -0.069659 -0.13362 -0.08686 -0.29019 2.4394E-5 -0.13554 -0.10324 -0.5531 0.13635 0.18975 0.27978 0.20901 0.46281 -0.078697 0.46728 -0.045562 -0.20905 -6.9733E-4 -0.031585 -0.0080294 0.094506 0.26174 0.083122 0.26456 0.14513 -0.67442 0.022167 0.052517 -0.12749 0.16864 -0.48427 -0.049305 0.31211 -0.0169 -0.24362 -0.085449 0.081479 -0.53773 0.31572 -0.2006 -0.32736 -0.42968 0.20649 -0.23477 -0.034727 0.2922 0.053995 0.35858 0.096685 0.38316 -0.46896 -0.037594 -0.18276 -0.11888 -0.26196 0.35971 0.37378 0.26249 -0.77006 -0.23238 -0.49579 0.059167 0.31905 -0.23373 0.14961 0.15161 0.40377 0.76463 0.65491 -0.11937 0.30996 0.24009 -0.28352 0.0066117 -0.017137 0.10048 -0.45138 0.52947 0.33041 0.44678 0.15566 0.50638 0.035381 0.48665 -0.71763
approach 0.074507 -0.36518 0.20242 -0.01912 -0.11313 -0.34119 -0.30146 0.0098346 0.15434 -0.32646 -0.50588 0.0069556 -0.019573 -0.13269 -0.13238 0.11204 -0.13926 -0.44339 -0.54955 0.38575 -0.065214 -0.23927 -0.45377 0.081812 -0.42522 0.29184 0.32306 -0.13701 0.13012 0.44284 0.42256 0.012342 0.0069344 0.19403 0.22808 -0.25827 0.067433 0.47248 0.27222 0.090085 -0.31189 0.35628 0.022733 0.10282 0.52067 0.14806 -0.34341 0.27095 -0.39177 -0.0097652 0.3183 -0.068771 -0.16573 0.27235 -0.1601 -0.37361 -0.061329 0.013033 0.18482 -0.19011 0.15484 -0.13509 0.060232 0.54873 0.21733 0.073387 -0.17395 -0.082117 -0.88516 -0.09588 0.28703 -0.14461 0.83814 -0.075993 0.087787 -0.068647 0.073014 0.14416 -0.26473 0.27769 0.21366 0.37286 0.40226 0.30935 -0.32532 -0.030665 -0.82106 0.227 0.12312 -0.17485 -0.071043 -0.12825 0.10726 0.024892 -0.0012483 0.13225 0.10124 -0.33171 0.35094 -0.12586
number -0.25585 -0.28829 -0.25134 0.27486 -0.055128 -0.45801 -0.90879 -0.64871 0.14338 -0.14752 -0.10734 -0.05601 -0.19344 0.51136 -0.033349 -0.18883 0.1193 0.23986 0.16536 0.026722 -0.18063 -0.13746 -0.1003 0.14669 -0.16975 -0.25772 0.32784 -0.18893 0.18314 -0.10411 -0.16747 0.14078 -0.41175 -0.054605 -0.093837 -0.29496 0.56207 -0.072732 -0.20824 -0.12335 -0.42291 0.012604 0.14854 0.37888 -0.062188 -0.09899 0.20096 0.53806 -0.17263 0.060846 0.50402 -0.064058 -0.0176 -0.16045 -0.041986 0.071599 0.15875 -0.015354 0.52203 0.088868 0.065061 -0.095923 -0.1574 -0.13022 -0.025496 0.18311 -0.46976 0.091149 0.0059661 -0.66199 0.034764 -0.057618 0.10403 -0.17672 -0.20336 0.17516 -0.21442 0.32748 -0.43573 0.39846 0.22861 -0.13711 0.43002 0.13424 -0.14875 0.15078 -0.070623 -0.12048 0.31771 -0.087115 0.40176 -0.36753 0.54861 -0.25234 -0.057496 -0.34561 0.14652 -1.0395 -0.029465 0.25389
property -0.26879 -0.71223 0.18688 -0.073185 -0.46147 -0.20992 -0.34963 -0.59842 -0.13412 -0.060841 -0.71019 -0.022581 -0.16074 -0.26557 0.28419 -0.74403 -0.52234 0.016678 -0.11041 -0.055943 0.0099905 0.33466 0.07254 0.083585 -0.10182 -0.040365 0.73006 -0.21914 -0.15286 -0.12773 -0.35957 -0.31681 -0.21213 -0.10429 -0.84344 0.42569 -0.048236 0.0019241 0.82928 -0.018017 -0.043748 0.1068 0.42364 -0.2759 0.12707 0.18242 0.22656 0.0087478 -0.27935 0.38375 0.0048399 -0.044295 -0.19941 -0.091912 -0.019983 0.15055 -0.029569 0.31512 0.36141 -0.4572 0.82601 0.09016 -0.044114 -0.14864 0.12351 -0.56243 0.20476 0.033815 -0.082866 -0.34479 0.1522 0.46152 -0.046899 0.55937 -0.47611 0.48959 0.021452 0.42929 -0.11405 -0.15679 0.39538 -0.11592 0.29291 0.21445 0.1855 0.051462 0.13284 0.35721 -0.27235 -0.018583 -0.30789 -0.7422 0.044526 -0.56878 0.36659 0.39522 0.17225 -0.48681 0.19816 -0.44328
fingerprint -0.38622 0.059794 0.35443 -0.072703 -0.11432 0.30321 -0.43598 -0.23334 -0.24348 -0.14115 -0.41864 0.051384 -0.14622 0.61828 0.28177 -0.16461 0.07136 -0.045913 -0.54357 0.25018 -0.25489 -0.021737 0.061582 -0.28444 -0.076785 -0.34531 0.4248 0.35198 -0.051649 -0.44195 0.20982 -0.11446 -0.51141 0.018055 -0.2593 -0.051376 0.16653 -0.26217 -0.22098 -0.63619 -0.22133 0.29721 0.17657 -0.34493 0.23712 0.30675 0.57957 -0.085071 -0.032319 0.36274 0.014914 -0.09678 0.20773 0.21671 -0.2418 0.13434 0.28066 -0.30907 0.034201 0.18695 0.45197 -0.15391 0.047663 -0.061507 0.37081 -0.56697 -0.60653 -0.27881 -0.53877 -0.40461 0.1128 0.30677 0.11606 -0.57557 -0.226 -0.28085 -0.41001 0.083199 -0.2092 0.51616 0.2465 -0.059435 1.3467 0.06716 0.24574 -0.13712 0.30898 0.042227 0.95559 -0.24716 0.046674 -0.03792 0.13776 0.22903 0.16624 -0.56498 0.41568 -0.34027 -0.11315 -0.17778
reservation 0.06775 -0.50847 -0.038027 0.033968 0.10954 0.032348 -0.2083 -0.50971 0.06718 0.027936 -0.34067 0.42245 0.18856 -0.20395 0.20621 -0.1569 -0.073851 -0.21058 -0.39544 -0.37532 0.053467 -0.11023 0.20589 -0.04953 0.14881 -0.16219 0.0032343 0.18814 0.4622 -0.33451 0.036296 0.068117 -0.37661 0.52704 -0.28253 -0.24306 0.12855 -0.0023445 -0.084027 0.36003 -0.38136 0.11231 0.45552 -0.08036 0.66506 -0.0021168 -0.097218 0.15782 -0.40307 0.017649 0.34293 -0.11917 -0.36294 0.1288 0.10701 -0.2255 -0.041762 0.025558 0.071864 -0.15095 0.45097 -0.16531 0.13845 -0.12993 0.1866 0.020856 -0.61826 0.1349 -0.33857 -0.041288 0.12554 0.033871 0.30014 -0.095644 -0.2111 -0.11525 -0.21433 0.36576 0.14011 -0.13439 0.027983 -0.096738 0.26324 -0.23179 0.33075 -0.20178 0.22533 0.49824 -0.095835 -0.02195 -0.28622 -0.48277 -0.049715 -0.62939 0.094274 0.34949 -0.027344 -0.41256 0.0517 -0.19906
block 0.37632 0.12361 -0.20427 0.71163 0.046186 -0.12091 -0.0090687 -0.57245 0.21256 -0.10038 -0.02609 0.08098 -0.15072 -0.017438 -0.17904 -0.5305 -0.22162 -0.17966 -0.82429 0.078315 0.22652 0.026269 -0.16213 -0.35948 0.08278 0.085948 0.77752 0.3017 0.19155 0.13477 0.12189 0.26593 0.030465 0.23498 -0.27215 0.19247 0.14758 -0.10475 0.33056 -0.29702 -0.086694 -0.20532 -0.042775 0.024653 0.27859 0.21389 0.35363 -0.076026 -0.20742 0.053565 -0.26256 0.19123 -0.13295 0.074364 -0.2432 0.22507 -0.14903 0.61634 -0.14986 -0.26089 0.20106 -0.42254 0.14334 0.65566 0.073274 -0.50314 -0.25706 0.11109 -0.622 -0.29525 0.06496 0.27106 0.38925 -0.63783 -0.26282 0.034603 -0.033191 0.39313 -0.23217 0.1909 -0.18153 0.21568 0.19601 0.21772 -0.032639 -0.33979 0.45164 -0.076584 0.030607 -0.026366 0.054405 -0.5539 0.46239 -0.029913 0.42203 0.34519 -0.31866 -0.49915 0.31806 -0.43987
fear -0.28063 0.28245 -0.051539 -0.029113 -0.3863 -0.45477 -0.036748 -0.4663 0.088011 0.065407 -0.77713 0.21585 0.132 0.18852 0.35675 -0.30117 0.12101 -0.082849 -0.65442 -0.18602 -0.20463 0.52872 0.10569 0.07846 -0.20107 0.67347 0.23785 0.30701 -0.24714 0.51544 -0.14665 0.14536 -0.016651 -0.084515 -0.56493 -0.12205 0.30592 0.076929 0.1551 -0.10528 -0.099041 -0.2068 0.040663 -0.35134 0.4323 -0.01819 0.21581 0.20681 -0.26826 0.085164 0.37211 -0.34846 -0.33789 0.37225 -0.075424 0.033619 0.29183 -0.091657 0.27859 0.18742 0.31683 0.24879 0.14524 -0.11126 0.42571 -0.15246 -0.42823 -0.58871 0.078922 -0.10446 0.11484 0.013366 0.51319 -0.4883 0.076414 -0.044381 0.063087 0.25433 -0.056541 -0.032252 0.38228 -0.19367 -0.29427 0.23952 -0.055959 0.10721 -0.046086 -0.36916 0.19584 -0.19459 0.44914 -0.40791 0.46689 -0.35809 0.15322 -0.38781 0.18493 -0.24738 0.25316 0.075986
surface 0.27043 0.097387 0.20707 0.53496 0.24896 -0.13794 -0.14655 -0.4193 -0.2032 0.45212 -0.41617 -0.043413 -0.11174 0.036618 -0.17123 -0.16316 0.0073474 -0.60055 -0.8128 -0.49688 -0.005882 -0.14544 -0.28576 0.15498 -0.22769 -0.025607 0.45145 0.28656 -0.43553 0.51993 0.13218 0.04533 -0.31484 0.2289 -0.59466 0.34983 -0.33763 -0.6115 -0.10629 -0.16512 -0.52324 -0.01874 0.40069 0.13278 0.75191 0.59498 -0.1662 -0.0082493 -0.33004 0.18093 0.38012 0.31811 0.20005 0.41033 -0.71731 -0.44306 -0.29991 -0.46039 0.002492 0.34053 0.12819 0.29101 -0.15127 0.10015 0.1647 -0.4352 -0.13938 -0.23587 0.024587 0.20921 -0.063671 0.12498 0.34858 0.29433 -0.053894 -0.25461 -0.4198 0.019346 0.088239 0.13367 0.43831 0.43402 0.44232 -0.14478 0.40346 -0.021165 -0.082723 0.78076 0.25378 -0.15947 -0.066442 -0.075823 0.37389 -0.26557 0.061467 0.14899 -0.019658 -0.10936 -0.090524 0.38881
