437 300
plane 0.20306 0.40615 -0.097262 0.58519 -0.37043 -0.038892 0.24183 0.13411 0.11813 -0.21795 -1.0186 -0.22445 -0.035727 -0.42315 -0.1739 0.09025 -0.092655 -0.77119 0.073257 0.08765 0.37558 0.064727 -0.2599 -0.21373 0.12245 -0.29159 0.17295 0.52096 -0.58344 -0.78258 0.34054 -0.39462 -0.075813 0.26873 0.047853 -0.27533 -0.33149 -0.70388 0.15642 0.24831 -0.23063 -0.15437 0.58732 -0.53277 -0.096599 0.098386 0.21799 -0.71039 0.21485 0.19673 0.21773 0.56149 0.60887 0.34801 -0.090541 0.41998 -0.2766 -0.39384 0.10493 0.033375 -0.16724 0.36223 0.21165 -0.5056 -0.28509 -0.2142 0.21904 -0.52431 -0.11582 -0.23629 0.20963 0.14247 -0.020764 -0.18467 0.49966 -0.085276 0.44045 -0.30858 0.47595 -0.32677 0.056017 -0.48392 0.54412 0.76093 0.094688 -0.11125 -0.43512 -0.012009 -5.8495E-4 -0.54813 0.35318 0.15187 0.51527 -0.058759 -0.24553 0.37916 -0.57177 -0.14167 0.36661 0.27101 0.0 0.0 0.0 0.0 0.0 0.0 0.0 0.0 0.0 0.0 0.0 0.0 0.0 0.0 0.0 0.0 0.0 0.0 0.0 0.0 0.0 0.0 0.0 0.0 0.0 0.0 0.0 0.0 0.0 0.0 0.0 0.0 0.0 0.0 0.0 0.0 0.0 0.0 0.0 0.0 0.0 0.0 0.0 0.0 0.0 0.0 0.0 0.0 0.0 0.0 0.0 0.0 0.0 0.0 0.0 0.0 0.0 0.0 0.0 0.0 0.0 0.0 0.0 0.0 0.0 0.0 0.0 0.0 0.0 0.0 0.0 0.0 0.0 0.0 0.0 0.0 0.0 0.0 0.0 0.0 0.0 0.0 0.0 0.0 0.0 0.0 0.0 0.0 0.0 0.0 0.0 0.0 0.0 0.0 0.0 0.0 0.0 0.0 0.0 0.0 0.0 0.0 0.0 0.0 0.0 0.0 0.0 0.0 0.0 0.0 0.0 0.0 0.0 0.0 0.0 0.0 0.0 0.0 0.0 0.0 0.0 0.0 0.0 0.0 0.0 0.0 0.0 0.0 0.0 0.0 0.0 0.0 0.0 0.0 0.0 0.0 0.0 0.0 0.0 0.0 0.0 0.0 0.0 0.0 0.0 0.0 0.0 0.0 0.0 0.0 0.0 0.0 0.0 0.0 0.0 0.0 0.0 0.0 0.0 0.0 0.0 0.0 0.0 0.0 0.0 0.0 0.0 0.0 0.0 0.0 0.0 0.0 0.0 0.0 0.0 0.0 0.0 0.0 0.0 0.0 0.0 0.0 0.0 0.0 0.0 0.0 0.0 0.0 0.0 0.0 0.0 0.0 0.0 0.0 0.0 0.0 0.0 0.0 0.0 0.0
stupid -0.086255 -0.064556 0.056477 0.79647 0.35343 0.60392 -0.07147 0.39368 -0.44721 0.11248 -0.30744 0.2372 -0.1203 -0.11801 -0.49407 -0.48471 -0.22528 -0.28321 0.26006 -0.62312 -0.16941 0.12523 0.51768 -0.46796 -0.34001 0.01221 0.42866 0.56143 -0.18971 0.029117 0.082929 -0.32446 -0.028593 0.11307 0.18805 0.12484 -0.31513 0.0022855 0.33222 -0.53528 0.060598 -0.20573 -0.1411 0.26739 0.22849 -0.17447 0.22417 -0.21649 0.057818 0.26852 0.029871 0.061838 -0.4513 0.06891 -0.66164 -0.24034 -0.38164 -0.33387 -0.25416 -0.091 -0.49364 0.17485 0.13051 -0.10911 0.39014 -0.19797 -0.25072 0.070747 0.22557 -0.78074 0.69919 -0.10622 -0.51053 0.074304 0.22867 0.39978 0.24877 0.028797 -0.74348 0.058975 0.079252 -0.81555 0.44015 0.44676 -0.5912 -0.19507 -0.47122 -0.15126 -0.10529 0.013891 0.014814 0.13236 -0.26712 0.26937 0.31447 -0.29888 -0.084706 0.23498 -0.096267 -0.04288 0.0 0.0 0.0 0.0 0.0 0.0 0.0 0.0 0.0 0.0 0.0 0.0 0.0 0.0 0.0 0.0 0.0 0.0 0.0 0.0 0.0 0.0 0.0 0.0 0.0 0.0 0.0 0.0 0.0 0.0 0.0 0.0 0.0 0.0 0.0 0.0 0.0 0.0 0.0 0.0 0.0 0.0 0.0 0.0 0.0 0.0 0.0 0.0 0.0 0.0 0.0 0.0 0.0 0.0 0.0 0.0 0.0 0.0 0.0 0.0 0.0 0.0 0.0 0.0 0.0 0.0 0.0 0.0 0.0 0.0 0.0 0.0 0.0 0.0 0.0 0.0 0.0 0.0 0.0 0.0 0.0 0.0 0.0 0.0 0.0 0.0 0.0 0.0 0.0 0.0 0.0 0.0 0.0 0.0 0.0 0.0 0.0 0.0 0.0 0.0 0.0 0.0 0.0 0.0 0.0 0.0 0.0 0.0 0.0 0.0 0.0 0.0 0.0 0.0 0.0 0.0 0.0 0.0 0.0 0.0 0.0 0.0 0.0 0.0 0.0 0.0 0.0 0.0 0.0 0.0 0.0 0.0 0.0 0.0 0.0 0.0 0.0 0.0 0.0 0.0 0.0 0.0 0.0 0.0 0.0 0.0 0.0 0.0 0.0 0.0 0.0 0.0 0.0 0.0 0.0 0.0 0.0 0.0 0.0 0.0 0.0 0.0 0.0 0.0 0.0 0.0 0.0 0.0 0.0 0.0 0.0 0.0 0.0 0.0 0.0 0.0 0.0 0.0 0.0 0.0 0.0 0.0 0.0 0.0 0.0 0.0 0.0 0.0 0.0 0.0 0.0 0.0 0.0 0.0 0.0 0.0 0.0 0.0 0.0 0.0
egg -0.64146 -0.02636 0.56946 0.0063904 -0.11996 -0.033558 -0.3751 0.10243 -0.16967 0.57458 0.094147 -0.12227 -0.011742 -0.27599 -0.30966 0.097177 -0.20402 -0.3043 -0.30535 -0.91258 -0.49249 -0.65682 0.030912 -0.44416 -0.35932 0.52328 0.56079 -0.12894 -0.43274 -0.59962 0.47111 -0.23099 -0.17975 -0.028052 -0.26603 0.32089 -0.26847 0.11283 0.42331 0.12675 -0.013165 -0.38675 0.33952 -0.39428 0.12384 0.11914 -0.48796 0.39697 -0.30168 0.058389 0.20234 -0.06961 -0.22663 0.69986 0.037942 -0.19635 0.086265 0.058432 0.039008 -0.10728 0.02205 0.03033 -0.41402 -0.96643 0.37483 0.85484 0.30403 -1.0313 0.20005 -0.78376 0.67585 -0.61922 -0.33359 -0.054647 0.41865 0.15093 0.77385 -0.17789 0.1371 -0.26115 -0.15541 -0.24116 -0.18524 0.091133 0.27994 0.19126 -0.18384 0.11231 -0.12698 -0.22031 1.0517 -0.39182 0.10299 -0.045738 0.14388 -0.53008 -0.21997 0.21075 0.017668 0.18407 0.0 0.0 0.0 0.0 0.0 0.0 0.0 0.0 0.0 0.0 0.0 0.0 0.0 0.0 0.0 0.0 0.0 0.0 0.0 0.0 0.0 0.0 0.0 0.0 0.0 0.0 0.0 0.0 0.0 0.0 0.0 0.0 0.0 0.0 0.0 0.0 0.0 0.0 0.0 0.0 0.0 0.0 0.0 0.0 0.0 0.0 0.0 0.0 0.0 0.0 0.0 0.0 0.0 0.0 0.0 0.0 0.0 0.0 0.0 0.0 0.0 0.0 0.0 0.0 0.0 0.0 0.0 0.0 0.0 0.0 0.0 0.0 0.0 0.0 0.0 0.0 0.0 0.0 0.0 0.0 0.0 0.0 0.0 0.0 0.0 0.0 0.0 0.0 0.0 0.0 0.0 0.0 0.0 0.0 0.0 0.0 0.0 0.0 0.0 0.0 0.0 0.0 0.0 0.0 0.0 0.0 0.0 0.0 0.0 0.0 0.0 0.0 0.0 0.0 0.0 0.0 0.0 0.0 0.0 0.0 0.0 0.0 0.0 0.0 0.0 0.0 0.0 0.0 0.0 0.0 0.0 0.0 0.0 0.0 0.0 0.0 0.0 0.0 0.0 0.0 0.0 0.0 0.0 0.0 0.0 0.0 0.0 0.0 0.0 0.0 0.0 0.0 0.0 0.0 0.0 0.0 0.0 0.0 0.0 0.0 0.0 0.0 0.0 0.0 0.0 0.0 0.0 0.0 0.0 0.0 0.0 0.0 0.0 0.0 0.0 0.0 0.0 0.0 0.0 0.0 0.0 0.0 0.0 0.0 0.0 0.0 0.0 0.0 0.0 0.0 0.0 0.0 0.0 0.0 0.0 0.0 0.0 0.0 0.0 0.0
year 0.40451 -0.51585 0.05403 0.26982 0.19571 0.034314 0.049881 0.025386 -0.1002 0.3214 -0.46393 -0.12997 0.058199 -0.26173 0.032046 -0.14328 0.1835 0.12257 0.081712 -0.52516 -0.070636 -0.41108 0.034319 0.1077 0.065185 -0.48217 -0.12998 0.15358 0.339 -0.42337 -0.28811 0.24212 0.16876 0.089907 -0.051704 0.024889 0.12709 -0.37031 -0.14756 0.43293 -0.061538 -0.34832 -0.10416 0.20825 0.52221 -0.21698 0.049691 -0.030671 -0.24175 -0.044829 -0.047937 -0.17155 -0.15212 0.36799 -0.46598 0.17895 -0.087455 -0.12869 0.038567 -0.039259 0.040886 0.21752 0.064997 0.17507 0.55349 0.25329 -0.34845 -0.4775 0.43582 -0.031383 -0.12094 0.26322 0.072103 -0.10511 0.25158 0.22633 0.040548 -0.055431 -0.10113 -0.46149 -0.23232 0.16885 0.23962 -0.21613 -0.10449 0.13927 -0.17741 0.35925 -0.19551 0.097787 0.35397 -0.23663 0.2555 -0.17599 0.14439 0.031661 -0.15163 0.26 -0.21866 0.24091 0.0 0.0 0.0 0.0 0.0 0.0 0.0 0.0 0.0 0.0 0.0 0.0 0.0 0.0 0.0 0.0 0.0 0.0 0.0 0.0 0.0 0.0 0.0 0.0 0.0 0.0 0.0 0.0 0.0 0.0 0.0 0.0 0.0 0.0 0.0 0.0 0.0 0.0 0.0 0.0 0.0 0.0 0.0 0.0 0.0 0.0 0.0 0.0 0.0 0.0 0.0 0.0 0.0 0.0 0.0 0.0 0.0 0.0 0.0 0.0 0.0 0.0 0.0 0.0 0.0 0.0 0.0 0.0 0.0 0.0 0.0 0.0 0.0 0.0 0.0 0.0 0.0 0.0 0.0 0.0 0.0 0.0 0.0 0.0 0.0 0.0 0.0 0.0 0.0 0.0 0.0 0.0 0.0 0.0 0.0 0.0 0.0 0.0 0.0 0.0 0.0 0.0 0.0 0.0 0.0 0.0 0.0 0.0 0.0 0.0 0.0 0.0 0.0 0.0 0.0 0.0 0.0 0.0 0.0 0.0 0.0 0.0 0.0 0.0 0.0 0.0 0.0 0.0 0.0 0.0 0.0 0.0 0.0 0.0 0.0 0.0 0.0 0.0 0.0 0.0 0.0 0.0 0.0 0.0 0.0 0.0 0.0 0.0 0.0 0.0 0.0 0.0 0.0 0.0 0.0 0.0 0.0 0.0 0.0 0.0 0.0 0.0 0.0 0.0 0.0 0.0 0.0 0.0 0.0 0.0 0.0 0.0 0.0 0.0 0.0 0.0 0.0 0.0 0.0 0.0 0.0 0.0 0.0 0.0 0.0 0.0 0.0 0.0 0.0 0.0 0.0 0.0 0.0 0.0 0.0 0.0 0.0 0.0 0.0 0.0
psychiatry 0.067865 -0.081412 -0.002388 -0.2028 -0.03838 0.18532 -0.14891 -0.23569 0.37983 -0.014208 -0.4568 -0.11534 0.62049 0.11823 -0.37381 -0.7879 0.74106 -0.016105 0.64304 -0.76444 -0.0033125 0.24075 -0.16065 -0.33853 -0.8137 0.12931 0.31446 0.39673 0.04646 -0.15212 0.20834 -0.1302 0.41878 -0.20983 0.11644 1.0175 -0.12564 -0.19049 -0.36569 -0.0983 -0.62866 -0.14563 0.063908 -0.3267 0.63178 -0.54231 -0.81721 0.47208 0.19968 0.6144 0.059982 0.90525 0.27648 0.67154 0.77494 0.22262 -0.21417 0.15997 -0.84166 -0.42218 0.95792 0.22707 0.023358 -0.28331 0.20111 0.28014 -0.3154 0.22176 0.19275 -0.68206 0.60769 0.58597 0.4537 -0.59174 -0.23028 -0.1793 0.21931 0.18764 -0.56895 -0.012447 0.45375 0.26325 -0.032153 0.73779 -0.35431 -0.14261 -0.39077 -0.15708 0.026064 -0.038139 0.29522 0.54768 0.37249 0.45249 -0.79776 0.3431 0.59713 0.49639 -1.2244 -0.10513 0.0 0.0 0.0 0.0 0.0 0.0 0.0 0.0 0.0 0.0 0.0 0.0 0.0 0.0 0.0 0.0 0.0 0.0 0.0 0.0 0.0 0.0 0.0 0.0 0.0 0.0 0.0 0.0 0.0 0.0 0.0 0.0 0.0 0.0 0.0 0.0 0.0 0.0 0.0 0.0 0.0 0.0 0.0 0.0 0.0 0.0 0.0 0.0 0.0 0.0 0.0 0.0 0.0 0.0 0.0 0.0 0.0 0.0 0.0 0.0 0.0 0.0 0.0 0.0 0.0 0.0 0.0 0.0 0.0 0.0 0.0 0.0 0.0 0.0 0.0 0.0 0.0 0.0 0.0 0.0 0.0 0.0 0.0 0.0 0.0 0.0 0.0 0.0 0.0 0.0 0.0 0.0 0.0 0.0 0.0 0.0 0.0 0.0 0.0 0.0 0.0 0.0 0.0 0.0 0.0 0.0 0.0 0.0 0.0 0.0 0.0 0.0 0.0 0.0 0.0 0.0 0.0 0.0 0.0 0.0 0.0 0.0 0.0 0.0 0.0 0.0 0.0 0.0 0.0 0.0 0.0 0.0 0.0 0.0 0.0 0.0 0.0 0.0 0.0 0.0 0.0 0.0 0.0 0.0 0.0 0.0 0.0 0.0 0.0 0.0 0.0 0.0 0.0 0.0 0.0 0.0 0.0 0.0 0.0 0.0 0.0 0.0 0.0 0.0 0.0 0.0 0.0 0.0 0.0 0.0 0.0 0.0 0.0 0.0 0.0 0.0 0.0 0.0 0.0 0.0 0.0 0.0 0.0 0.0 0.0 0.0 0.0 0.0 0.0 0.0 0.0 0.0 0.0 0.0 0.0 0.0 0.0 0.0 0.0 0.0
asylum -0.47843 0.67803 -0.060276 0.70574 0.082574 -0.24584 -0.49815 0.83435 0.79348 -0.033757 -0.94092 -0.42328 0.065517 0.25299 0.0073093 -0.49767 0.13198 0.19871 0.34711 -0.36807 0.34213 0.4321 0.23858 -0.21145 -0.29261 -0.17624 -0.040978 0.43105 -0.013014 -0.044124 -0.13399 0.35826 0.31141 0.19689 0.45517 0.28833 -0.0076994 -0.50783 0.12948 0.15271 -0.027513 0.35147 0.60696 -0.074966 0.029972 -0.053699 -0.14357 -0.28356 0.47433 0.54423 0.16554 0.22611 0.40712 0.3368 -0.0030265 0.20874 0.32264 0.3676 0.44812 -0.31018 0.39603 -0.25251 0.099207 -0.085226 0.41804 0.523 -0.074008 -0.64589 -0.51384 -0.74996 0.35184 -0.087462 -0.29494 -0.17422 0.96277 -0.35642 0.50954 -0.51114 -0.30253 -0.20721 0.26283 0.63179 0.73423 0.30243 -0.2257 -0.092 -1.0748 0.2784 -0.039452 0.57872 0.1843 -0.075231 -0.48115 0.34727 -0.64116 0.080749 -0.73375 0.31962 -0.6145 0.32737 0.0 0.0 0.0 0.0 0.0 0.0 0.0 0.0 0.0 0.0 0.0 0.0 0.0 0.0 0.0 0.0 0.0 0.0 0.0 0.0 0.0 0.0 0.0 0.0 0.0 0.0 0.0 0.0 0.0 0.0 0.0 0.0 0.0 0.0 0.0 0.0 0.0 0.0 0.0 0.0 0.0 0.0 0.0 0.0 0.0 0.0 0.0 0.0 0.0 0.0 0.0 0.0 0.0 0.0 0.0 0.0 0.0 0.0 0.0 0.0 0.0 0.0 0.0 0.0 0.0 0.0 0.0 0.0 0.0 0.0 0.0 0.0 0.0 0.0 0.0 0.0 0.0 0.0 0.0 0.0 0.0 0.0 0.0 0.0 0.0 0.0 0.0 0.0 0.0 0.0 0.0 0.0 0.0 0.0 0.0 0.0 0.0 0.0 0.0 0.0 0.0 0.0 0.0 0.0 0.0 0.0 0.0 0.0 0.0 0.0 0.0 0.0 0.0 0.0 0.0 0.0 0.0 0.0 0.0 0.0 0.0 0.0 0.0 0.0 0.0 0.0 0.0 0.0 0.0 0.0 0.0 0.0 0.0 0.0 0.0 0.0 0.0 0.0 0.0 0.0 0.0 0.0 0.0 0.0 0.0 0.0 0.0 0.0 0.0 0.0 0.0 0.0 0.0 0.0 0.0 0.0 0.0 0.0 0.0 0.0 0.0 0.0 0.0 0.0 0.0 0.0 0.0 0.0 0.0 0.0 0.0 0.0 0.0 0.0 0.0 0.0 0.0 0.0 0.0 0.0 0.0 0.0 0.0 0.0 0.0 0.0 0.0 0.0 0.0 0.0 0.0 0.0 0.0 0.0 0.0 0.0 0.0 0.0 0.0 0.0
manslaughter -0.34157 -0.1994 0.34847 0.25289 0.026358 -0.20796 -0.039691 -0.0014256 0.44476 -0.39834 -0.89679 -0.099618 -0.089662 0.2967 0.093136 0.28521 -0.37834 0.6504 0.23951 -0.43221 0.20766 0.37218 -0.1972 -0.009246 -0.8031 0.12989 0.37179 -0.13736 0.30966 -0.1154 0.54282 0.22671 0.1968 -0.3294 -0.083813 0.5375 0.39634 -1.3301 0.7486 -0.35723 -0.60243 -0.7255 0.59289 0.27581 0.28058 -0.19079 -0.9127 0.14692 0.073414 0.48392 0.13644 -0.059145 0.129 -9.736E-4 -0.9103 0.68686 -1.053 0.39329 0.27512 -0.22722 -0.10229 0.77629 0.70274 0.42529 0.30719 0.74159 0.4217 -0.055247 0.51586 -0.045128 0.47008 0.20275 0.23892 -0.4337 0.27055 0.076789 0.16496 -0.59796 -0.19878 -0.44362 0.66004 -0.41612 0.057685 0.66902 -0.69698 0.58805 -0.29824 -0.45234 0.83609 0.31212 -0.096283 -0.019135 1.0395 0.67038 -0.49464 -0.16551 0.17104 0.45203 -0.073804 0.26157 0.0 0.0 0.0 0.0 0.0 0.0 0.0 0.0 0.0 0.0 0.0 0.0 0.0 0.0 0.0 0.0 0.0 0.0 0.0 0.0 0.0 0.0 0.0 0.0 0.0 0.0 0.0 0.0 0.0 0.0 0.0 0.0 0.0 0.0 0.0 0.0 0.0 0.0 0.0 0.0 0.0 0.0 0.0 0.0 0.0 0.0 0.0 0.0 0.0 0.0 0.0 0.0 0.0 0.0 0.0 0.0 0.0 0.0 0.0 0.0 0.0 0.0 0.0 0.0 0.0 0.0 0.0 0.0 0.0 0.0 0.0 0.0 0.0 0.0 0.0 0.0 0.0 0.0 0.0 0.0 0.0 0.0 0.0 0.0 0.0 0.0 0.0 0.0 0.0 0.0 0.0 0.0 0.0 0.0 0.0 0.0 0.0 0.0 0.0 0.0 0.0 0.0 0.0 0.0 0.0 0.0 0.0 0.0 0.0 0.0 0.0 0.0 0.0 0.0 0.0 0.0 0.0 0.0 0.0 0.0 0.0 0.0 0.0 0.0 0.0 0.0 0.0 0.0 0.0 0.0 0.0 0.0 0.0 0.0 0.0 0.0 0.0 0.0 0.0 0.0 0.0 0.0 0.0 0.0 0.0 0.0 0.0 0.0 0.0 0.0 0.0 0.0 0.0 0.0 0.0 0.0 0.0 0.0 0.0 0.0 0.0 0.0 0.0 0.0 0.0 0.0 0.0 0.0 0.0 0.0 0.0 0.0 0.0 0.0 0.0 0.0 0.0 0.0 0.0 0.0 0.0 0.0 0.0 0.0 0.0 0.0 0.0 0.0 0.0 0.0 0.0 0.0 0.0 0.0 0.0 0.0 0.0 0.0 0.0 0.0
music -0.32785 -0.34098 -0.19413 0.15133 0.44802 0.33155 0.077617 0.041989 -0.385 0.2212 -0.6684 0.28472 0.037095 0.19474 0.44795 0.51645 0.59175 -0.40732 -0.082617 -0.62627 -0.38135 -0.13067 -0.37144 -0.1988 -0.59668 0.31102 0.16375 0.66551 -0.16932 0.31954 0.25158 0.095475 0.29931 -0.045167 -0.22259 0.53514 -0.40944 -0.45195 0.29758 0.012441 -0.012902 0.034704 0.2012 0.087846 0.07335 -0.036346 0.32419 -0.038899 0.35247 0.2131 0.43562 0.24571 0.097812 0.2769 0.033611 0.023796 0.0043176 0.13387 -0.27243 -0.14558 0.21443 -0.63297 -0.098696 0.227 0.16899 -0.1255 -0.58777 -0.1826 0.02539 -0.38168 1.2598 0.10448 -0.44806 -0.26759 -0.11603 0.24616 -0.25997 -0.27833 0.042249 -0.73346 -0.6273 0.30726 0.21531 0.22471 0.19875 -0.01664 0.13068 0.15243 0.56735 0.07734 0.35644 0.41558 0.71828 -0.21685 -0.2001 0.16706 -0.043567 0.019217 -0.040988 -0.34669 0.0 0.0 0.0 0.0 0.0 0.0 0.0 0.0 0.0 0.0 0.0 0.0 0.0 0.0 0.0 0.0 0.0 0.0 0.0 0.0 0.0 0.0 0.0 0.0 0.0 0.0 0.0 0.0 0.0 0.0 0.0 0.0 0.0 0.0 0.0 0.0 0.0 0.0 0.0 0.0 0.0 0.0 0.0 0.0 0.0 0.0 0.0 0.0 0.0 0.0 0.0 0.0 0.0 0.0 0.0 0.0 0.0 0.0 0.0 0.0 0.0 0.0 0.0 0.0 0.0 0.0 0.0 0.0 0.0 0.0 0.0 0.0 0.0 0.0 0.0 0.0 0.0 0.0 0.0 0.0 0.0 0.0 0.0 0.0 0.0 0.0 0.0 0.0 0.0 0.0 0.0 0.0 0.0 0.0 0.0 0.0 0.0 0.0 0.0 0.0 0.0 0.0 0.0 0.0 0.0 0.0 0.0 0.0 0.0 0.0 0.0 0.0 0.0 0.0 0.0 0.0 0.0 0.0 0.0 0.0 0.0 0.0 0.0 0.0 0.0 0.0 0.0 0.0 0.0 0.0 0.0 0.0 0.0 0.0 0.0 0.0 0.0 0.0 0.0 0.0 0.0 0.0 0.0 0.0 0.0 0.0 0.0 0.0 0.0 0.0 0.0 0.0 0.0 0.0 0.0 0.0 0.0 0.0 0.0 0.0 0.0 0.0 0.0 0.0 0.0 0.0 0.0 0.0 0.0 0.0 0.0 0.0 0.0 0.0 0.0 0.0 0.0 0.0 0.0 0.0 0.0 0.0 0.0 0.0 0.0 0.0 0.0 0.0 0.0 0.0 0.0 0.0 0.0 0.0 0.0 0.0 0.0 0.0 0.0 0.0
record 0.38254 -0.22037 0.26278 0.19198 0.16299 -0.37922 0.21103 0.10711 0.010406 -0.26569 -0.15801 0.24851 -0.45706 -0.29487 0.14284 -0.024623 0.14523 -0.037776 -0.11287 -0.45515 0.001548 -0.23354 0.30085 -0.34886 0.1419 -0.12283 -0.37427 0.11566 0.17672 -0.1467 0.31306 0.21853 -5.7911E-4 0.10701 -0.34655 0.017754 0.078764 -0.16006 -0.038579 -0.041054 0.08141 -0.067599 0.062016 0.39113 -0.081832 0.2262 0.095146 -0.4048 0.11003 0.14027 0.084581 0.041895 -0.10184 -0.058737 -0.77946 0.30479 0.3509 0.19021 0.089802 -0.12945 0.26217 -0.26005 -0.072245 -0.38259 0.99889 0.1993 -0.91985 -0.11505 0.39851 -0.23321 -0.12538 0.16959 -0.36527 -0.3866 -0.15902 0.32956 -0.27153 -0.15615 0.50907 -0.83648 -0.1389 -0.058784 0.45475 0.3634 0.012063 0.45233 0.066662 0.032877 0.21118 0.28444 0.74214 0.21197 0.041287 -0.45787 0.51616 -0.21388 0.22048 0.2158 -0.21484 0.15991 0.0 0.0 0.0 0.0 0.0 0.0 0.0 0.0 0.0 0.0 0.0 0.0 0.0 0.0 0.0 0.0 0.0 0.0 0.0 0.0 0.0 0.0 0.0 0.0 0.0 0.0 0.0 0.0 0.0 0.0 0.0 0.0 0.0 0.0 0.0 0.0 0.0 0.0 0.0 0.0 0.0 0.0 0.0 0.0 0.0 0.0 0.0 0.0 0.0 0.0 0.0 0.0 0.0 0.0 0.0 0.0 0.0 0.0 0.0 0.0 0.0 0.0 0.0 0.0 0.0 0.0 0.0 0.0 0.0 0.0 0.0 0.0 0.0 0.0 0.0 0.0 0.0 0.0 0.0 0.0 0.0 0.0 0.0 0.0 0.0 0.0 0.0 0.0 0.0 0.0 0.0 0.0 0.0 0.0 0.0 0.0 0.0 0.0 0.0 0.0 0.0 0.0 0.0 0.0 0.0 0.0 0.0 0.0 0.0 0.0 0.0 0.0 0.0 0.0 0.0 0.0 0.0 0.0 0.0 0.0 0.0 0.0 0.0 0.0 0.0 0.0 0.0 0.0 0.0 0.0 0.0 0.0 0.0 0.0 0.0 0.0 0.0 0.0 0.0 0.0 0.0 0.0 0.0 0.0 0.0 0.0 0.0 0.0 0.0 0.0 0.0 0.0 0.0 0.0 0.0 0.0 0.0 0.0 0.0 0.0 0.0 0.0 0.0 0.0 0.0 0.0 0.0 0.0 0.0 0.0 0.0 0.0 0.0 0.0 0.0 0.0 0.0 0.0 0.0 0.0 0.0 0.0 0.0 0.0 0.0 0.0 0.0 0.0 0.0 0.0 0.0 0.0 0.0 0.0 0.0 0.0 0.0 0.0 0.0 0.0
energy -0.31525 -0.35551 0.36659 -0.23746 -0.067019 0.17648 0.32179 0.27081 0.21088 -0.039174 -0.55982 0.22598 -0.71078 -0.58094 0.11564 -0.49785 0.2751 0.50575 -0.23039 -0.59363 -0.33472 0.18467 -0.13369 -0.30623 -0.87791 0.097772 0.069715 -0.20111 -0.66013 -0.034116 0.18718 -0.39648 0.59848 -0.16744 -0.14843 0.18001 -0.11768 -0.36149 -0.22946 0.0095912 -0.33858 -0.32561 0.3885 0.32758 0.11672 0.17614 0.44591 0.28394 0.91475 -0.14232 0.0013303 -0.11477 0.2857 0.21447 -0.45225 -0.29922 0.028576 -0.60607 0.17707 0.13174 0.28911 0.13298 -0.11048 -0.13211 -0.043585 -0.42412 0.17465 -0.48605 0.2896 0.074456 0.082908 -0.20606 -0.25817 0.10252 0.039122 -0.088861 0.094705 0.37397 -0.077234 -0.45038 -0.68484 0.39495 0.032279 0.034778 0.11706 -0.25114 -0.067397 0.41848 0.59422 -0.19229 0.40597 -0.42407 -0.10459 -0.13217 -0.23684 -0.20606 0.18881 0.57371 -0.59042 0.22489 0.0 0.0 0.0 0.0 0.0 0.0 0.0 0.0 0.0 0.0 0.0 0.0 0.0 0.0 0.0 0.0 0.0 0.0 0.0 0.0 0.0 0.0 0.0 0.0 0.0 0.0 0.0 0.0 0.0 0.0 0.0 0.0 0.0 0.0 0.0 0.0 0.0 0.0 0.0 0.0 0.0 0.0 0.0 0.0 0.0 0.0 0.0 0.0 0.0 0.0 0.0 0.0 0.0 0.0 0.0 0.0 0.0 0.0 0.0 0.0 0.0 0.0 0.0 0.0 0.0 0.0 0.0 0.0 0.0 0.0 0.0 0.0 0.0 0.0 0.0 0.0 0.0 0.0 0.0 0.0 0.0 0.0 0.0 0.0 0.0 0.0 0.0 0.0 0.0 0.0 0.0 0.0 0.0 0.0 0.0 0.0 0.0 0.0 0.0 0.0 0.0 0.0 0.0 0.0 0.0 0.0 0.0 0.0 0.0 0.0 0.0 0.0 0.0 0.0 0.0 0.0 0.0 0.0 0.0 0.0 0.0 0.0 0.0 0.0 0.0 0.0 0.0 0.0 0.0 0.0 0.0 0.0 0.0 0.0 0.0 0.0 0.0 0.0 0.0 0.0 0.0 0.0 0.0 0.0 0.0 0.0 0.0 0.0 0.0 0.0 0.0 0.0 0.0 0.0 0.0 0.0 0.0 0.0 0.0 0.0 0.0 0.0 0.0 0.0 0.0 0.0 0.0 0.0 0.0 0.0 0.0 0.0 0.0 0.0 0.0 0.0 0.0 0.0 0.0 0.0 0.0 0.0 0.0 0.0 0.0 0.0 0.0 0.0 0.0 0.0 0.0 0.0 0.0 0.0 0.0 0.0 0.0 0.0 0.0 0.0
announcement 0.37357 -0.38227 -0.16976 0.19353 -0.22067 0.2589 0.33848 -0.1102 -0.32099 -0.15206 -0.72693 0.090414 0.092504 0.030228 0.30623 0.2598 -0.037062 0.1427 0.16439 -0.38112 0.35559 -0.4363 -0.090019 -0.28611 -0.15281 -0.5535 0.155 -0.080947 0.27497 -0.04399 0.094744 0.062876 -0.44613 0.070407 -0.39636 -0.16047 -0.03161 -0.036104 -0.035485 0.35994 -0.34929 0.22046 -0.17403 -0.15222 0.25505 0.24296 0.13122 -0.25954 0.45705 -0.065439 -0.098989 -0.085231 -0.088119 0.18711 -0.46576 0.21813 0.10298 -0.25445 -0.22005 0.077111 0.24873 0.49296 0.21516 0.22356 -0.33065 0.19598 0.10995 -0.44665 0.60005 -0.9009 -0.078808 -0.095368 0.10496 0.020116 -0.06998 -0.141 0.2359 0.25422 0.064078 -0.90304 0.18138 0.19948 -0.075022 -0.24984 -0.36734 -0.30456 -0.45787 -0.16076 0.31457 -0.0066525 0.33389 0.2738 -0.067426 0.22598 0.24128 -0.14177 -0.7934 0.3531 0.061454 -0.086776 0.0 0.0 0.0 0.0 0.0 0.0 0.0 0.0 0.0 0.0 0.0 0.0 0.0 0.0 0.0 0.0 0.0 0.0 0.0 0.0 0.0 0.0 0.0 0.0 0.0 0.0 0.0 0.0 0.0 0.0 0.0 0.0 0.0 0.0 0.0 0.0 0.0 0.0 0.0 0.0 0.0 0.0 0.0 0.0 0.0 0.0 0.0 0.0 0.0 0.0 0.0 0.0 0.0 0.0 0.0 0.0 0.0 0.0 0.0 0.0 0.0 0.0 0.0 0.0 0.0 0.0 0.0 0.0 0.0 0.0 0.0 0.0 0.0 0.0 0.0 0.0 0.0 0.0 0.0 0.0 0.0 0.0 0.0 0.0 0.0 0.0 0.0 0.0 0.0 0.0 0.0 0.0 0.0 0.0 0.0 0.0 0.0 0.0 0.0 0.0 0.0 0.0 0.0 0.0 0.0 0.0 0.0 0.0 0.0 0.0 0.0 0.0 0.0 0.0 0.0 0.0 0.0 0.0 0.0 0.0 0.0 0.0 0.0 0.0 0.0 0.0 0.0 0.0 0.0 0.0 0.0 0.0 0.0 0.0 0.0 0.0 0.0 0.0 0.0 0.0 0.0 0.0 0.0 0.0 0.0 0.0 0.0 0.0 0.0 0.0 0.0 0.0 0.0 0.0 0.0 0.0 0.0 0.0 0.0 0.0 0.0 0.0 0.0 0.0 0.0 0.0 0.0 0.0 0.0 0.0 0.0 0.0 0.0 0.0 0.0 0.0 0.0 0.0 0.0 0.0 0.0 0.0 0.0 0.0 0.0 0.0 0.0 0.0 0.0 0.0 0.0 0.0 0.0 0.0 0.0 0.0 0.0 0.0 0.0 0.0
mile 0.054088 -1.119 0.027076 0.37416 -0.71175 0.11691 -0.08746 0.24038 0.27602 0.50079 -0.59162 0.21794 -0.51605 -0.57961 -0.40747 -0.19553 0.0081043 -0.47598 0.24852 -0.29905 0.008803 0.42531 -0.14879 -0.21792 0.036741 -0.56896 -0.26199 -0.25145 -0.20876 -0.42385 0.25832 0.23523 0.097486 0.27612 0.19293 0.109 -0.029892 -0.51304 0.31532 -0.0052332 -0.3834 -0.25011 0.39925 0.030026 0.57985 -0.37566 0.31474 0.0057379 -0.2622 0.29069 -0.075161 0.12861 0.24271 0.14872 -0.91723 0.17865 0.8528 0.16496 0.34238 0.031428 -0.2138 0.45243 -0.067851 -0.44378 0.54974 0.37217 0.50222 0.012485 -0.37029 -0.29762 0.024605 0.26151 -0.066781 0.13314 0.30299 0.60517 0.68034 0.19114 0.63319 -0.034018 0.22635 0.15878 -0.0013959 0.23623 0.46343 -0.17587 0.05831 0.074017 0.16305 -0.32362 -0.085797 0.21372 0.29455 -0.26874 -0.033339 0.29635 -0.13382 -0.12523 -0.11084 0.045477 0.0 0.0 0.0 0.0 0.0 0.0 0.0 0.0 0.0 0.0 0.0 0.0 0.0 0.0 0.0 0.0 0.0 0.0 0.0 0.0 0.0 0.0 0.0 0.0 0.0 0.0 0.0 0.0 0.0 0.0 0.0 0.0 0.0 0.0 0.0 0.0 0.0 0.0 0.0 0.0 0.0 0.0 0.0 0.0 0.0 0.0 0.0 0.0 0.0 0.0 0.0 0.0 0.0 0.0 0.0 0.0 0.0 0.0 0.0 0.0 0.0 0.0 0.0 0.0 0.0 0.0 0.0 0.0 0.0 0.0 0.0 0.0 0.0 0.0 0.0 0.0 0.0 0.0 0.0 0.0 0.0 0.0 0.0 0.0 0.0 0.0 0.0 0.0 0.0 0.0 0.0 0.0 0.0 0.0 0.0 0.0 0.0 0.0 0.0 0.0 0.0 0.0 0.0 0.0 0.0 0.0 0.0 0.0 0.0 0.0 0.0 0.0 0.0 0.0 0.0 0.0 0.0 0.0 0.0 0.0 0.0 0.0 0.0 0.0 0.0 0.0 0.0 0.0 0.0 0.0 0.0 0.0 0.0 0.0 0.0 0.0 0.0 0.0 0.0 0.0 0.0 0.0 0.0 0.0 0.0 0.0 0.0 0.0 0.0 0.0 0.0 0.0 0.0 0.0 0.0 0.0 0.0 0.0 0.0 0.0 0.0 0.0 0.0 0.0 0.0 0.0 0.0 0.0 0.0 0.0 0.0 0.0 0.0 0.0 0.0 0.0 0.0 0.0 0.0 0.0 0.0 0.0 0.0 0.0 0.0 0.0 0.0 0.0 0.0 0.0 0.0 0.0 0.0 0.0 0.0 0.0 0.0 0.0 0.0 0.0
airport 0.079865 0.14311 -0.11128 0.3509 -0.14444 0.032767 -0.14256 0.10718 0.2693 -0.40151 -0.85283 -0.14079 -0.052433 0.18529 0.027439 -0.16741 0.34946 -0.33412 -0.0893 -0.074298 0.2021 0.057279 -0.45743 -0.40458 0.026166 -0.56889 0.27382 0.41924 -0.50479 -0.32133 -0.0082914 -0.10323 0.046551 0.28227 0.3226 -0.096731 -0.25664 -0.46855 -0.15825 1.1306 -0.82218 -0.16358 0.79724 -0.1221 0.12312 0.31835 0.14398 -0.73076 0.24093 0.38399 0.30331 0.58653 0.30736 0.11213 -0.43908 -0.15662 0.039899 -0.074741 0.21913 0.20161 -0.27639 0.21605 0.19325 -0.34592 0.054727 0.29794 0.37358 -0.52513 -0.35616 -0.33138 0.58012 0.3805 -0.19146 -0.30688 0.38204 -0.41625 0.52341 0.10939 0.62845 -0.070991 -0.10747 -0.08006 0.017614 0.83023 -0.36575 0.21617 -0.35702 0.1909 -0.012051 -0.26151 0.13083 0.051536 0.20433 -0.23051 -0.47528 0.28829 -0.65026 -0.29224 0.089588 0.18919 0.0 0.0 0.0 0.0 0.0 0.0 0.0 0.0 0.0 0.0 0.0 0.0 0.0 0.0 0.0 0.0 0.0 0.0 0.0 0.0 0.0 0.0 0.0 0.0 0.0 0.0 0.0 0.0 0.0 0.0 0.0 0.0 0.0 0.0 0.0 0.0 0.0 0.0 0.0 0.0 0.0 0.0 0.0 0.0 0.0 0.0 0.0 0.0 0.0 0.0 0.0 0.0 0.0 0.0 0.0 0.0 0.0 0.0 0.0 0.0 0.0 0.0 0.0 0.0 0.0 0.0 0.0 0.0 0.0 0.0 0.0 0.0 0.0 0.0 0.0 0.0 0.0 0.0 0.0 0.0 0.0 0.0 0.0 0.0 0.0 0.0 0.0 0.0 0.0 0.0 0.0 0.0 0.0 0.0 0.0 0.0 0.0 0.0 0.0 0.0 0.0 0.0 0.0 0.0 0.0 0.0 0.0 0.0 0.0 0.0 0.0 0.0 0.0 0.0 0.0 0.0 0.0 0.0 0.0 0.0 0.0 0.0 0.0 0.0 0.0 0.0 0.0 0.0 0.0 0.0 0.0 0.0 0.0 0.0 0.0 0.0 0.0 0.0 0.0 0.0 0.0 0.0 0.0 0.0 0.0 0.0 0.0 0.0 0.0 0.0 0.0 0.0 0.0 0.0 0.0 0.0 0.0 0.0 0.0 0.0 0.0 0.0 0.0 0.0 0.0 0.0 0.0 0.0 0.0 0.0 0.0 0.0 0.0 0.0 0.0 0.0 0.0 0.0 0.0 0.0 0.0 0.0 0.0 0.0 0.0 0.0 0.0 0.0 0.0 0.0 0.0 0.0 0.0 0.0 0.0 0.0 0.0 0.0 0.0 0.0
population 0.10246 -0.29789 0.20467 0.43739 -0.32254 -0.42952 0.070706 0.027354 -0.25212 0.19696 -0.89593 0.28765 -0.62553 0.18256 0.43347 -0.48592 -0.037483 -0.19941 0.065778 -1.066 -0.21832 0.018144 -0.2189 -0.081287 -0.67946 0.37836 -0.38119 0.29548 0.0045137 -0.77199 -0.045921 0.63003 0.3836 0.73993 -0.036622 0.16382 0.28765 0.29886 -0.35872 0.095358 0.067799 0.3973 0.49905 -0.22597 0.73086 0.052637 -0.47391 0.3364 -0.11722 0.66134 0.2838 0.31102 0.13815 0.35118 -0.21181 -0.10257 0.40119 0.25701 0.28055 -0.57536 0.065014 -0.096054 -0.25088 -0.36433 0.02467 0.32478 -0.13514 -0.43215 0.035226 -0.089063 0.31895 -0.099144 -0.061708 -0.32864 0.46899 -0.32278 0.60387 -0.12433 -0.1577 0.28326 -0.42431 0.17151 0.22405 0.49755 -0.030834 -0.06058 -0.20672 0.34783 -0.41277 0.10243 -0.049574 -0.20312 -0.33581 -0.017169 -0.19925 -0.067388 0.073503 0.51934 -0.0032879 0.11043 0.0 0.0 0.0 0.0 0.0 0.0 0.0 0.0 0.0 0.0 0.0 0.0 0.0 0.0 0.0 0.0 0.0 0.0 0.0 0.0 0.0 0.0 0.0 0.0 0.0 0.0 0.0 0.0 0.0 0.0 0.0 0.0 0.0 0.0 0.0 0.0 0.0 0.0 0.0 0.0 0.0 0.0 0.0 0.0 0.0 0.0 0.0 0.0 0.0 0.0 0.0 0.0 0.0 0.0 0.0 0.0 0.0 0.0 0.0 0.0 0.0 0.0 0.0 0.0 0.0 0.0 0.0 0.0 0.0 0.0 0.0 0.0 0.0 0.0 0.0 0.0 0.0 0.0 0.0 0.0 0.0 0.0 0.0 0.0 0.0 0.0 0.0 0.0 0.0 0.0 0.0 0.0 0.0 0.0 0.0 0.0 0.0 0.0 0.0 0.0 0.0 0.0 0.0 0.0 0.0 0.0 0.0 0.0 0.0 0.0 0.0 0.0 0.0 0.0 0.0 0.0 0.0 0.0 0.0 0.0 0.0 0.0 0.0 0.0 0.0 0.0 0.0 0.0 0.0 0.0 0.0 0.0 0.0 0.0 0.0 0.0 0.0 0.0 0.0 0.0 0.0 0.0 0.0 0.0 0.0 0.0 0.0 0.0 0.0 0.0 0.0 0.0 0.0 0.0 0.0 0.0 0.0 0.0 0.0 0.0 0.0 0.0 0.0 0.0 0.0 0.0 0.0 0.0 0.0 0.0 0.0 0.0 0.0 0.0 0.0 0.0 0.0 0.0 0.0 0.0 0.0 0.0 0.0 0.0 0.0 0.0 0.0 0.0 0.0 0.0 0.0 0.0 0.0 0.0 0.0 0.0 0.0 0.0 0.0 0.0
planning -0.12173 -0.20087 -0.1106 0.065966 -0.31011 -0.13573 0.28429 0.552 -0.11948 -0.23621 -0.50463 -0.0016652 0.037995 0.19022 -0.10978 -0.15573 0.058401 -0.037859 -0.48247 0.10437 -0.16729 0.46751 -0.19795 -0.27749 -0.27819 -0.37697 0.20909 0.69576 0.16623 0.034806 -0.09836 -0.048817 0.1421 -0.060895 -0.30335 0.20716 -0.29195 -0.18594 0.031154 0.37275 -0.23878 0.087254 0.16498 0.32667 0.36959 -0.071133 0.10287 0.23539 0.16783 -0.59329 -0.1765 0.26309 0.037907 -0.0065283 -0.45466 -0.014929 -0.1382 -0.08036 0.30192 -0.020943 0.17089 0.38008 0.45903 -0.14824 -0.073121 0.39792 -0.041425 -0.46011 0.17176 -0.27153 0.16016 -0.2027 -0.26369 -0.088689 0.13317 -0.26134 -0.018417 0.14879 -0.13634 -0.46007 -0.12191 -0.15439 -0.13147 0.32839 -0.10317 -0.19207 -0.26146 -0.12323 -0.23879 -0.10706 0.22799 0.13608 0.11531 0.1236 -0.21424 -0.17224 -0.39727 0.1636 -0.46288 -0.023844 0.0 0.0 0.0 0.0 0.0 0.0 0.0 0.0 0.0 0.0 0.0 0.0 0.0 0.0 0.0 0.0 0.0 0.0 0.0 0.0 0.0 0.0 0.0 0.0 0.0 0.0 0.0 0.0 0.0 0.0 0.0 0.0 0.0 0.0 0.0 0.0 0.0 0.0 0.0 0.0 0.0 0.0 0.0 0.0 0.0 0.0 0.0 0.0 0.0 0.0 0.0 0.0 0.0 0.0 0.0 0.0 0.0 0.0 0.0 0.0 0.0 0.0 0.0 0.0 0.0 0.0 0.0 0.0 0.0 0.0 0.0 0.0 0.0 0.0 0.0 0.0 0.0 0.0 0.0 0.0 0.0 0.0 0.0 0.0 0.0 0.0 0.0 0.0 0.0 0.0 0.0 0.0 0.0 0.0 0.0 0.0 0.0 0.0 0.0 0.0 0.0 0.0 0.0 0.0 0.0 0.0 0.0 0.0 0.0 0.0 0.0 0.0 0.0 0.0 0.0 0.0 0.0 0.0 0.0 0.0 0.0 0.0 0.0 0.0 0.0 0.0 0.0 0.0 0.0 0.0 0.0 0.0 0.0 0.0 0.0 0.0 0.0 0.0 0.0 0.0 0.0 0.0 0.0 0.0 0.0 0.0 0.0 0.0 0.0 0.0 0.0 0.0 0.0 0.0 0.0 0.0 0.0 0.0 0.0 0.0 0.0 0.0 0.0 0.0 0.0 0.0 0.0 0.0 0.0 0.0 0.0 0.0 0.0 0.0 0.0 0.0 0.0 0.0 0.0 0.0 0.0 0.0 0.0 0.0 0.0 0.0 0.0 0.0 0.0 0.0 0.0 0.0 0.0 0.0 0.0 0.0 0.0 0.0 0.0 0.0
canyon -0.096188 -0.29993 0.11332 0.53699 -0.89044 0.48013 0.10317 0.2259 0.2269 0.58097 -1.0224 -0.031407 -0.70774 -0.28988 -0.087972 -0.065795 0.24616 -0.55135 0.21477 -0.082757 -0.022238 0.26417 0.37513 -0.24944 -0.79548 -0.14752 0.065242 -0.34935 -0.17737 -0.5792 0.2536 0.09044 -0.25907 0.38303 0.12413 0.62497 -0.21905 -0.46014 0.19655 0.24434 -0.070677 0.029806 0.44216 -0.3287 -0.096596 -0.6254 -0.059525 -0.022151 -0.46578 0.41135 0.59676 0.53192 0.52626 0.26494 -0.39764 0.31158 0.062307 -0.41154 0.42193 -0.30021 0.066657 -0.77237 0.57343 -0.25758 0.66608 -0.19774 0.34655 -0.053661 -0.021344 -0.21783 -0.022496 -0.4399 -0.48028 -0.29326 -0.2101 0.41435 0.132 0.39749 0.32316 -0.49593 0.47016 -0.074072 0.1438 0.20339 0.73173 -0.53813 -0.15436 0.12586 0.13867 -0.14439 -0.15286 0.69951 0.77852 -0.30152 -0.14088 0.35244 0.30778 -0.37347 0.54626 0.34031 0.0 0.0 0.0 0.0 0.0 0.0 0.0 0.0 0.0 0.0 0.0 0.0 0.0 0.0 0.0 0.0 0.0 0.0 0.0 0.0 0.0 0.0 0.0 0.0 0.0 0.0 0.0 0.0 0.0 0.0 0.0 0.0 0.0 0.0 0.0 0.0 0.0 0.0 0.0 0.0 0.0 0.0 0.0 0.0 0.0 0.0 0.0 0.0 0.0 0.0 0.0 0.0 0.0 0.0 0.0 0.0 0.0 0.0 0.0 0.0 0.0 0.0 0.0 0.0 0.0 0.0 0.0 0.0 0.0 0.0 0.0 0.0 0.0 0.0 0.0 0.0 0.0 0.0 0.0 0.0 0.0 0.0 0.0 0.0 0.0 0.0 0.0 0.0 0.0 0.0 0.0 0.0 0.0 0.0 0.0 0.0 0.0 0.0 0.0 0.0 0.0 0.0 0.0 0.0 0.0 0.0 0.0 0.0 0.0 0.0 0.0 0.0 0.0 0.0 0.0 0.0 0.0 0.0 0.0 0.0 0.0 0.0 0.0 0.0 0.0 0.0 0.0 0.0 0.0 0.0 0.0 0.0 0.0 0.0 0.0 0.0 0.0 0.0 0.0 0.0 0.0 0.0 0.0 0.0 0.0 0.0 0.0 0.0 0.0 0.0 0.0 0.0 0.0 0.0 0.0 0.0 0.0 0.0 0.0 0.0 0.0 0.0 0.0 0.0 0.0 0.0 0.0 0.0 0.0 0.0 0.0 0.0 0.0 0.0 0.0 0.0 0.0 0.0 0.0 0.0 0.0 0.0 0.0 0.0 0.0 0.0 0.0 0.0 0.0 0.0 0.0 0.0 0.0 0.0 0.0 0.0 0.0 0.0 0.0 0.0
delay 0.040835 -0.20754 -0.26269 0.22822 -0.19462 -0.16063 0.075536 0.17582 -0.44983 0.099945 -0.38185 -0.48129 -0.20724 0.059511 -0.17022 0.11555 -0.22406 0.23809 0.032994 -0.31114 0.41312 0.2606 0.0075227 -0.12138 -0.20193 -0.4934 0.26025 0.21218 0.093107 0.1466 0.3531 0.18367 0.053724 0.11767 0.085432 -0.22899 -0.082878 -0.17023 -0.033203 0.069402 -0.062867 0.42559 0.048295 0.49358 0.42689 0.057506 0.28224 -0.099115 -0.072572 0.042679 -0.045103 -0.25704 -0.18094 0.031986 -0.32607 0.46308 -0.1623 -0.51776 0.37515 -0.2557 0.31655 0.43602 -0.60466 -0.075339 -0.132 0.33009 0.18104 -0.59874 0.48875 -0.43896 0.43083 -0.36524 0.14055 -0.35383 0.028618 -0.36202 -0.5169 0.14474 0.057755 -0.84945 0.29577 -0.12033 -0.24044 0.88843 -0.19674 0.099047 -0.52879 0.099695 0.21602 -0.38246 0.65347 0.095337 -0.1466 0.35897 -0.087264 -0.045781 -0.53093 0.28407 -0.0073643 0.14619 0.0 0.0 0.0 0.0 0.0 0.0 0.0 0.0 0.0 0.0 0.0 0.0 0.0 0.0 0.0 0.0 0.0 0.0 0.0 0.0 0.0 0.0 0.0 0.0 0.0 0.0 0.0 0.0 0.0 0.0 0.0 0.0 0.0 0.0 0.0 0.0 0.0 0.0 0.0 0.0 0.0 0.0 0.0 0.0 0.0 0.0 0.0 0.0 0.0 0.0 0.0 0.0 0.0 0.0 0.0 0.0 0.0 0.0 0.0 0.0 0.0 0.0 0.0 0.0 0.0 0.0 0.0 0.0 0.0 0.0 0.0 0.0 0.0 0.0 0.0 0.0 0.0 0.0 0.0 0.0 0.0 0.0 0.0 0.0 0.0 0.0 0.0 0.0 0.0 0.0 0.0 0.0 0.0 0.0 0.0 0.0 0.0 0.0 0.0 0.0 0.0 0.0 0.0 0.0 0.0 0.0 0.0 0.0 0.0 0.0 0.0 0.0 0.0 0.0 0.0 0.0 0.0 0.0 0.0 0.0 0.0 0.0 0.0 0.0 0.0 0.0 0.0 0.0 0.0 0.0 0.0 0.0 0.0 0.0 0.0 0.0 0.0 0.0 0.0 0.0 0.0 0.0 0.0 0.0 0.0 0.0 0.0 0.0 0.0 0.0 0.0 0.0 0.0 0.0 0.0 0.0 0.0 0.0 0.0 0.0 0.0 0.0 0.0 0.0 0.0 0.0 0.0 0.0 0.0 0.0 0.0 0.0 0.0 0.0 0.0 0.0 0.0 0.0 0.0 0.0 0.0 0.0 0.0 0.0 0.0 0.0 0.0 0.0 0.0 0.0 0.0 0.0 0.0 0.0 0.0 0.0 0.0 0.0 0.0 0.0
size 0.20832 -0.42406 0.067239 0.33052 -0.30907 -0.16292 0.15024 0.27856 -0.25789 -0.029579 -0.21693 0.11712 -0.40547 -0.35994 0.2316 -0.31898 -0.16951 -0.17379 -0.25342 -0.3253 -0.1713 -0.49768 -0.06869 -0.22166 -0.47074 0.091365 0.48687 -0.15208 -0.02576 -0.56667 0.04012 0.10286 -0.10708 0.34128 -0.38478 -0.16158 0.36074 -0.046168 -0.28928 0.26851 0.05535 -0.096672 0.31981 -0.28966 0.13905 0.019261 0.085759 0.42298 -0.40102 0.34516 0.043087 0.14831 -0.18267 0.38566 -0.38985 0.12335 0.77394 -0.31025 0.051514 -0.11231 -0.13696 -0.075361 -0.0099934 -8.607E-4 -0.37114 0.18872 0.056214 -0.42862 -0.061587 0.030661 0.19411 -0.26803 -0.017437 -0.0023691 -0.028581 0.37359 0.44381 0.0065115 -0.18031 0.27716 -0.35494 0.20295 -0.075627 0.96954 -0.219 0.0094062 0.42453 -0.26881 -0.25266 -0.44507 0.6284 0.10264 0.43866 -0.1252 -0.044783 -0.068035 -0.27075 0.49425 0.10254 0.12227 0.0 0.0 0.0 0.0 0.0 0.0 0.0 0.0 0.0 0.0 0.0 0.0 0.0 0.0 0.0 0.0 0.0 0.0 0.0 0.0 0.0 0.0 0.0 0.0 0.0 0.0 0.0 0.0 0.0 0.0 0.0 0.0 0.0 0.0 0.0 0.0 0.0 0.0 0.0 0.0 0.0 0.0 0.0 0.0 0.0 0.0 0.0 0.0 0.0 0.0 0.0 0.0 0.0 0.0 0.0 0.0 0.0 0.0 0.0 0.0 0.0 0.0 0.0 0.0 0.0 0.0 0.0 0.0 0.0 0.0 0.0 0.0 0.0 0.0 0.0 0.0 0.0 0.0 0.0 0.0 0.0 0.0 0.0 0.0 0.0 0.0 0.0 0.0 0.0 0.0 0.0 0.0 0.0 0.0 0.0 0.0 0.0 0.0 0.0 0.0 0.0 0.0 0.0 0.0 0.0 0.0 0.0 0.0 0.0 0.0 0.0 0.0 0.0 0.0 0.0 0.0 0.0 0.0 0.0 0.0 0.0 0.0 0.0 0.0 0.0 0.0 0.0 0.0 0.0 0.0 0.0 0.0 0.0 0.0 0.0 0.0 0.0 0.0 0.0 0.0 0.0 0.0 0.0 0.0 0.0 0.0 0.0 0.0 0.0 0.0 0.0 0.0 0.0 0.0 0.0 0.0 0.0 0.0 0.0 0.0 0.0 0.0 0.0 0.0 0.0 0.0 0.0 0.0 0.0 0.0 0.0 0.0 0.0 0.0 0.0 0.0 0.0 0.0 0.0 0.0 0.0 0.0 0.0 0.0 0.0 0.0 0.0 0.0 0.0 0.0 0.0 0.0 0.0 0.0 0.0 0.0 0.0 0.0 0.0 0.0
peace -0.1815 -0.18978 -0.64689 0.19495 -0.052756 0.35606 -0.033544 0.079922 0.096577 0.28598 -0.91704 -0.11827 -0.55332 0.18208 0.34785 0.25947 -0.093206 0.39411 -0.40781 -0.70895 -0.028397 -0.079291 0.37763 -0.83403 0.11364 0.073683 0.90977 0.58223 -0.18526 -0.56899 0.070418 0.066432 -0.23862 -0.023948 -0.27848 0.34414 -0.86923 -0.59332 -0.09592 0.57222 0.061063 -0.11082 0.71979 0.18987 0.25128 0.026112 -0.50278 0.09645 0.38018 0.96406 0.35151 -0.92097 0.28507 -0.032932 -0.032186 -0.50115 -0.42891 -0.16953 0.01701 -0.31255 0.080125 0.36406 0.13197 -0.028903 0.025366 -0.10477 -0.54578 -0.33764 0.45631 -0.32767 -0.067199 0.36241 -0.40651 0.16637 0.77106 -0.2099 0.012468 -0.25168 0.40037 -0.76027 0.18219 0.35373 -0.12893 0.053232 0.52005 0.17322 -0.69228 -0.32051 -0.18283 0.47795 -0.32967 0.57251 -0.30651 0.015681 -0.10435 -0.17684 0.22595 0.057527 -0.48756 0.37569 0.0 0.0 0.0 0.0 0.0 0.0 0.0 0.0 0.0 0.0 0.0 0.0 0.0 0.0 0.0 0.0 0.0 0.0 0.0 0.0 0.0 0.0 0.0 0.0 0.0 0.0 0.0 0.0 0.0 0.0 0.0 0.0 0.0 0.0 0.0 0.0 0.0 0.0 0.0 0.0 0.0 0.0 0.0 0.0 0.0 0.0 0.0 0.0 0.0 0.0 0.0 0.0 0.0 0.0 0.0 0.0 0.0 0.0 0.0 0.0 0.0 0.0 0.0 0.0 0.0 0.0 0.0 0.0 0.0 0.0 0.0 0.0 0.0 0.0 0.0 0.0 0.0 0.0 0.0 0.0 0.0 0.0 0.0 0.0 0.0 0.0 0.0 0.0 0.0 0.0 0.0 0.0 0.0 0.0 0.0 0.0 0.0 0.0 0.0 0.0 0.0 0.0 0.0 0.0 0.0 0.0 0.0 0.0 0.0 0.0 0.0 0.0 0.0 0.0 0.0 0.0 0.0 0.0 0.0 0.0 0.0 0.0 0.0 0.0 0.0 0.0 0.0 0.0 0.0 0.0 0.0 0.0 0.0 0.0 0.0 0.0 0.0 0.0 0.0 0.0 0.0 0.0 0.0 0.0 0.0 0.0 0.0 0.0 0.0 0.0 0.0 0.0 0.0 0.0 0.0 0.0 0.0 0.0 0.0 0.0 0.0 0.0 0.0 0.0 0.0 0.0 0.0 0.0 0.0 0.0 0.0 0.0 0.0 0.0 0.0 0.0 0.0 0.0 0.0 0.0 0.0 0.0 0.0 0.0 0.0 0.0 0.0 0.0 0.0 0.0 0.0 0.0 0.0 0.0 0.0 0.0 0.0 0.0 0.0 0.0
science -0.066497 -0.18691 0.19319 -0.17772 -0.41 0.53289 0.44863 0.38604 -0.26618 -0.083005 -0.63279 0.16608 -0.23265 -0.10649 -0.024857 -0.30916 0.57737 -0.13097 0.12861 -0.26409 -0.36468 -0.095635 0.032489 -0.49349 -0.64164 0.43183 0.16087 0.63634 -0.30789 -0.14701 0.1453 -0.40891 0.23957 -0.085172 -0.0038966 0.2429 -0.094027 -0.34591 -0.10082 0.25207 -0.050483 0.21771 0.012081 0.045765 -0.076884 -0.41117 -0.73696 0.08293 0.13051 0.64566 -0.14021 -0.04382 -0.21509 0.30472 0.24977 0.064583 0.046331 -0.40609 -0.61234 0.059344 0.45727 0.35098 -0.14657 -0.15718 0.3686 0.062822 -0.088232 -0.32581 -0.15629 -0.30899 0.46335 0.12521 0.46185 -0.26195 0.24664 -0.072942 -0.18722 0.12514 -0.31285 -0.0072667 -0.07045 -0.28822 0.62241 -0.030356 0.10541 -0.1483 -0.19241 -0.21445 0.22927 -0.29137 0.72772 0.52349 0.39772 0.2126 -0.26422 -0.26302 0.33012 0.29218 -1.1517 0.30716 0.0 0.0 0.0 0.0 0.0 0.0 0.0 0.0 0.0 0.0 0.0 0.0 0.0 0.0 0.0 0.0 0.0 0.0 0.0 0.0 0.0 0.0 0.0 0.0 0.0 0.0 0.0 0.0 0.0 0.0 0.0 0.0 0.0 0.0 0.0 0.0 0.0 0.0 0.0 0.0 0.0 0.0 0.0 0.0 0.0 0.0 0.0 0.0 0.0 0.0 0.0 0.0 0.0 0.0 0.0 0.0 0.0 0.0 0.0 0.0 0.0 0.0 0.0 0.0 0.0 0.0 0.0 0.0 0.0 0.0 0.0 0.0 0.0 0.0 0.0 0.0 0.0 0.0 0.0 0.0 0.0 0.0 0.0 0.0 0.0 0.0 0.0 0.0 0.0 0.0 0.0 0.0 0.0 0.0 0.0 0.0 0.0 0.0 0.0 0.0 0.0 0.0 0.0 0.0 0.0 0.0 0.0 0.0 0.0 0.0 0.0 0.0 0.0 0.0 0.0 0.0 0.0 0.0 0.0 0.0 0.0 0.0 0.0 0.0 0.0 0.0 0.0 0.0 0.0 0.0 0.0 0.0 0.0 0.0 0.0 0.0 0.0 0.0 0.0 0.0 0.0 0.0 0.0 0.0 0.0 0.0 0.0 0.0 0.0 0.0 0.0 0.0 0.0 0.0 0.0 0.0 0.0 0.0 0.0 0.0 0.0 0.0 0.0 0.0 0.0 0.0 0.0 0.0 0.0 0.0 0.0 0.0 0.0 0.0 0.0 0.0 0.0 0.0 0.0 0.0 0.0 0.0 0.0 0.0 0.0 0.0 0.0 0.0 0.0 0.0 0.0 0.0 0.0 0.0 0.0 0.0 0.0 0.0 0.0 0.0
dawn -0.11932 0.11657 0.085978 0.47223 -0.33845 0.64012 0.14144 -0.31474 -0.10986 0.17856 -0.33447 0.04976 -0.29189 0.031015 0.16677 0.37834 0.07817 -0.19151 0.18466 -0.19709 -0.45102 0.21456 0.16589 -0.35593 -0.5556 -0.59358 0.11132 0.28689 0.056045 -0.2253 0.38891 0.029317 -0.16909 -0.12097 0.23455 0.90254 0.27324 -0.68581 -0.12482 0.24465 -0.22058 -0.34253 0.43217 0.16037 0.41288 0.63477 -0.03593 -0.3464 -0.43147 0.10512 0.2366 0.065706 0.20541 0.034563 -0.58302 0.059424 -0.12786 -0.18305 -0.29122 0.011787 0.13915 0.31796 0.33178 -0.66162 -0.03202 0.12414 0.37681 -0.58916 0.069662 -0.42728 0.17393 0.27716 -0.10914 0.50671 0.38656 0.26646 0.1729 0.010418 0.068167 -0.35571 0.30785 0.49887 0.38851 0.0044587 0.24153 -0.16728 -0.024425 0.21751 0.10398 -0.51384 -0.35869 0.15782 0.028142 0.1161 0.14839 0.33857 -0.31337 0.071301 0.20503 -0.03738 0.0 0.0 0.0 0.0 0.0 0.0 0.0 0.0 0.0 0.0 0.0 0.0 0.0 0.0 0.0 0.0 0.0 0.0 0.0 0.0 0.0 0.0 0.0 0.0 0.0 0.0 0.0 0.0 0.0 0.0 0.0 0.0 0.0 0.0 0.0 0.0 0.0 0.0 0.0 0.0 0.0 0.0 0.0 0.0 0.0 0.0 0.0 0.0 0.0 0.0 0.0 0.0 0.0 0.0 0.0 0.0 0.0 0.0 0.0 0.0 0.0 0.0 0.0 0.0 0.0 0.0 0.0 0.0 0.0 0.0 0.0 0.0 0.0 0.0 0.0 0.0 0.0 0.0 0.0 0.0 0.0 0.0 0.0 0.0 0.0 0.0 0.0 0.0 0.0 0.0 0.0 0.0 0.0 0.0 0.0 0.0 0.0 0.0 0.0 0.0 0.0 0.0 0.0 0.0 0.0 0.0 0.0 0.0 0.0 0.0 0.0 0.0 0.0 0.0 0.0 0.0 0.0 0.0 0.0 0.0 0.0 0.0 0.0 0.0 0.0 0.0 0.0 0.0 0.0 0.0 0.0 0.0 0.0 0.0 0.0 0.0 0.0 0.0 0.0 0.0 0.0 0.0 0.0 0.0 0.0 0.0 0.0 0.0 0.0 0.0 0.0 0.0 0.0 0.0 0.0 0.0 0.0 0.0 0.0 0.0 0.0 0.0 0.0 0.0 0.0 0.0 0.0 0.0 0.0 0.0 0.0 0.0 0.0 0.0 0.0 0.0 0.0 0.0 0.0 0.0 0.0 0.0 0.0 0.0 0.0 0.0 0.0 0.0 0.0 0.0 0.0 0.0 0.0 0.0 0.0 0.0 0.0 0.0 0.0 0.0
brother 0.66684 -0.26553 0.7219 0.67534 0.30357 0.55807 0.39558 0.14638 0.057569 -0.035085 -0.52484 -0.14774 0.48421 0.022021 0.098354 0.42093 0.028259 -0.11895 0.57484 -0.16464 -0.29012 0.088007 -0.22811 0.11063 0.12541 0.078814 0.18473 0.34864 -0.29795 -0.030167 0.20548 -0.15893 -0.0016025 -0.33239 -0.17598 0.22096 -0.052188 -0.2544 0.036678 -0.48211 -0.1046 -0.10579 0.34031 -0.19869 0.53534 -0.36505 -0.034772 0.041913 0.19191 0.135 -0.36836 0.028497 0.55203 -0.03431 -0.11386 0.068539 -0.68376 0.51079 0.15477 -0.27145 -0.0036716 0.50525 0.4368 -0.10645 0.13593 -0.042693 -0.26668 -0.44666 -0.015082 -0.15135 0.06503 -0.15076 -0.074564 0.14208 0.073197 0.10798 0.16735 -0.53393 0.32285 -0.3724 -0.26637 0.19675 -0.19816 1.0008 -0.5873 -0.48865 -0.35083 -0.23383 -0.01953 0.28022 0.16746 -0.019771 0.46083 0.37914 0.52878 0.25074 -0.13003 -0.0020765 -0.035352 -0.2876 0.0 0.0 0.0 0.0 0.0 0.0 0.0 0.0 0.0 0.0 0.0 0.0 0.0 0.0 0.0 0.0 0.0 0.0 0.0 0.0 0.0 0.0 0.0 0.0 0.0 0.0 0.0 0.0 0.0 0.0 0.0 0.0 0.0 0.0 0.0 0.0 0.0 0.0 0.0 0.0 0.0 0.0 0.0 0.0 0.0 0.0 0.0 0.0 0.0 0.0 0.0 0.0 0.0 0.0 0.0 0.0 0.0 0.0 0.0 0.0 0.0 0.0 0.0 0.0 0.0 0.0 0.0 0.0 0.0 0.0 0.0 0.0 0.0 0.0 0.0 0.0 0.0 0.0 0.0 0.0 0.0 0.0 0.0 0.0 0.0 0.0 0.0 0.0 0.0 0.0 0.0 0.0 0.0 0.0 0.0 0.0 0.0 0.0 0.0 0.0 0.0 0.0 0.0 0.0 0.0 0.0 0.0 0.0 0.0 0.0 0.0 0.0 0.0 0.0 0.0 0.0 0.0 0.0 0.0 0.0 0.0 0.0 0.0 0.0 0.0 0.0 0.0 0.0 0.0 0.0 0.0 0.0 0.0 0.0 0.0 0.0 0.0 0.0 0.0 0.0 0.0 0.0 0.0 0.0 0.0 0.0 0.0 0.0 0.0 0.0 0.0 0.0 0.0 0.0 0.0 0.0 0.0 0.0 0.0 0.0 0.0 0.0 0.0 0.0 0.0 0.0 0.0 0.0 0.0 0.0 0.0 0.0 0.0 0.0 0.0 0.0 0.0 0.0 0.0 0.0 0.0 0.0 0.0 0.0 0.0 0.0 0.0 0.0 0.0 0.0 0.0 0.0 0.0 0.0 0.0 0.0 0.0 0.0 0.0 0.0
wine -0.49444 -0.25974 0.043639 -0.33598 0.25165 0.093134 0.10183 -0.41365 -0.2595 0.58445 -0.50114 0.14773 -0.5606 0.0048598 -0.035837 -0.16602 0.6777 -0.37006 -0.30428 -0.33823 -0.48271 -0.33688 0.28623 -0.1273 -0.35213 0.025503 0.29269 0.10733 -0.32289 -0.65849 0.0073242 -0.16648 0.12649 -0.10297 -0.14737 0.50522 -0.18447 -0.07773 0.44504 -0.34164 -0.64638 -0.31735 0.27532 0.18393 0.066454 -0.16241 0.059045 0.21886 0.33354 0.36067 0.66172 0.32267 0.4327 0.29062 -0.097267 -0.15171 -0.18743 -0.22441 -0.16416 -0.22749 -0.52995 -0.9098 -0.04188 -0.32103 0.46219 0.05294 0.21029 -0.50652 0.41901 -0.45366 0.55981 -0.1237 -0.24522 0.016672 -0.33368 0.087464 0.49467 -0.47881 -0.13439 -0.069212 -0.22336 0.59328 -0.33211 0.10681 0.2163 0.32341 -0.065385 0.23385 0.44448 0.16517 0.8517 -0.58027 0.79088 0.13104 -0.08212 0.21419 -0.11017 -0.25504 -0.16921 0.65873 0.0 0.0 0.0 0.0 0.0 0.0 0.0 0.0 0.0 0.0 0.0 0.0 0.0 0.0 0.0 0.0 0.0 0.0 0.0 0.0 0.0 0.0 0.0 0.0 0.0 0.0 0.0 0.0 0.0 0.0 0.0 0.0 0.0 0.0 0.0 0.0 0.0 0.0 0.0 0.0 0.0 0.0 0.0 0.0 0.0 0.0 0.0 0.0 0.0 0.0 0.0 0.0 0.0 0.0 0.0 0.0 0.0 0.0 0.0 0.0 0.0 0.0 0.0 0.0 0.0 0.0 0.0 0.0 0.0 0.0 0.0 0.0 0.0 0.0 0.0 0.0 0.0 0.0 0.0 0.0 0.0 0.0 0.0 0.0 0.0 0.0 0.0 0.0 0.0 0.0 0.0 0.0 0.0 0.0 0.0 0.0 0.0 0.0 0.0 0.0 0.0 0.0 0.0 0.0 0.0 0.0 0.0 0.0 0.0 0.0 0.0 0.0 0.0 0.0 0.0 0.0 0.0 0.0 0.0 0.0 0.0 0.0 0.0 0.0 0.0 0.0 0.0 0.0 0.0 0.0 0.0 0.0 0.0 0.0 0.0 0.0 0.0 0.0 0.0 0.0 0.0 0.0 0.0 0.0 0.0 0.0 0.0 0.0 0.0 0.0 0.0 0.0 0.0 0.0 0.0 0.0 0.0 0.0 0.0 0.0 0.0 0.0 0.0 0.0 0.0 0.0 0.0 0.0 0.0 0.0 0.0 0.0 0.0 0.0 0.0 0.0 0.0 0.0 0.0 0.0 0.0 0.0 0.0 0.0 0.0 0.0 0.0 0.0 0.0 0.0 0.0 0.0 0.0 0.0 0.0 0.0 0.0 0.0 0.0 0.0
object 0.26423 -0.23719 -0.11716 0.32158 -0.27964 0.1133 0.22536 -0.10893 -0.049978 0.051033 -0.11758 -0.14367 -0.27108 -0.26412 -0.14664 -0.26324 -0.16891 -0.046912 -0.054819 -0.077711 -0.059103 0.11715 -0.27277 -0.46154 -0.37236 0.2946 0.27534 0.1497 -0.31103 -0.17361 0.20215 -0.049143 -0.27063 -0.40549 0.027485 0.38669 0.16265 -0.2293 0.13015 0.12797 0.011977 -0.23714 -0.013473 -0.076152 -0.37274 -0.53117 -0.31679 0.1732 -0.047851 0.38579 0.44086 -0.14629 0.25353 0.37989 -0.56387 0.087789 0.29143 -0.30368 -0.07823 0.016125 0.1699 0.027273 -0.22769 0.10128 0.15029 -0.26206 0.008657 -0.48697 -0.17125 -0.66318 0.12129 -0.029572 -0.27872 -0.024351 0.16465 0.32612 0.039916 0.11266 -0.28075 -0.0023 -0.12801 -0.36523 0.31475 0.65348 0.089566 -0.38596 -0.33162 -0.21125 0.40894 -0.32034 0.48302 0.38945 0.37472 0.15608 -0.14181 0.038849 -0.25115 0.19442 0.37435 -0.023598 0.0 0.0 0.0 0.0 0.0 0.0 0.0 0.0 0.0 0.0 0.0 0.0 0.0 0.0 0.0 0.0 0.0 0.0 0.0 0.0 0.0 0.0 0.0 0.0 0.0 0.0 0.0 0.0 0.0 0.0 0.0 0.0 0.0 0.0 0.0 0.0 0.0 0.0 0.0 0.0 0.0 0.0 0.0 0.0 0.0 0.0 0.0 0.0 0.0 0.0 0.0 0.0 0.0 0.0 0.0 0.0 0.0 0.0 0.0 0.0 0.0 0.0 0.0 0.0 0.0 0.0 0.0 0.0 0.0 0.0 0.0 0.0 0.0 0.0 0.0 0.0 0.0 0.0 0.0 0.0 0.0 0.0 0.0 0.0 0.0 0.0 0.0 0.0 0.0 0.0 0.0 0.0 0.0 0.0 0.0 0.0 0.0 0.0 0.0 0.0 0.0 0.0 0.0 0.0 0.0 0.0 0.0 0.0 0.0 0.0 0.0 0.0 0.0 0.0 0.0 0.0 0.0 0.0 0.0 0.0 0.0 0.0 0.0 0.0 0.0 0.0 0.0 0.0 0.0 0.0 0.0 0.0 0.0 0.0 0.0 0.0 0.0 0.0 0.0 0.0 0.0 0.0 0.0 0.0 0.0 0.0 0.0 0.0 0.0 0.0 0.0 0.0 0.0 0.0 0.0 0.0 0.0 0.0 0.0 0.0 0.0 0.0 0.0 0.0 0.0 0.0 0.0 0.0 0.0 0.0 0.0 0.0 0.0 0.0 0.0 0.0 0.0 0.0 0.0 0.0 0.0 0.0 0.0 0.0 0.0 0.0 0.0 0.0 0.0 0.0 0.0 0.0 0.0 0.0 0.0 0.0 0.0 0.0 0.0 0.0
attitude 0.075196 -0.0013597 0.16548 0.9451 0.20622 0.02252 0.26388 0.086268 -0.3274 -0.19809 -0.14224 0.37227 0.0039014 0.16112 -0.10993 -0.39742 0.20494 0.14188 0.38425 -0.64814 -0.28757 -0.15722 0.02249 -0.66625 -0.73836 -0.23946 0.35234 0.41801 -0.027188 -0.49454 0.078189 -0.17267 0.15184 -0.34527 -0.38514 0.18605 -0.32604 -0.20791 0.33876 0.0047587 -0.16862 -0.086684 0.27678 0.11507 0.10852 -0.15988 -0.16318 -0.33558 0.06579 0.67642 -0.12875 0.18189 -0.027359 -0.059482 -0.46293 -0.56039 0.13231 0.15022 0.066015 -0.57339 0.10724 0.003112 -0.059867 0.047549 -0.18876 -0.44935 0.13945 0.31977 0.18817 -0.40183 -0.001229 -0.169 -0.11057 0.40682 -0.21182 0.47095 0.34717 0.19245 -0.70454 -0.082366 -0.2287 -0.16723 -0.3343 0.11775 -0.29083 0.31715 -0.53779 -0.14731 0.075294 0.27924 0.24114 0.29931 -0.07239 0.0544 -0.18971 0.11471 -0.63054 0.2011 -0.4075 -0.0048015 0.0 0.0 0.0 0.0 0.0 0.0 0.0 0.0 0.0 0.0 0.0 0.0 0.0 0.0 0.0 0.0 0.0 0.0 0.0 0.0 0.0 0.0 0.0 0.0 0.0 0.0 0.0 0.0 0.0 0.0 0.0 0.0 0.0 0.0 0.0 0.0 0.0 0.0 0.0 0.0 0.0 0.0 0.0 0.0 0.0 0.0 0.0 0.0 0.0 0.0 0.0 0.0 0.0 0.0 0.0 0.0 0.0 0.0 0.0 0.0 0.0 0.0 0.0 0.0 0.0 0.0 0.0 0.0 0.0 0.0 0.0 0.0 0.0 0.0 0.0 0.0 0.0 0.0 0.0 0.0 0.0 0.0 0.0 0.0 0.0 0.0 0.0 0.0 0.0 0.0 0.0 0.0 0.0 0.0 0.0 0.0 0.0 0.0 0.0 0.0 0.0 0.0 0.0 0.0 0.0 0.0 0.0 0.0 0.0 0.0 0.0 0.0 0.0 0.0 0.0 0.0 0.0 0.0 0.0 0.0 0.0 0.0 0.0 0.0 0.0 0.0 0.0 0.0 0.0 0.0 0.0 0.0 0.0 0.0 0.0 0.0 0.0 0.0 0.0 0.0 0.0 0.0 0.0 0.0 0.0 0.0 0.0 0.0 0.0 0.0 0.0 0.0 0.0 0.0 0.0 0.0 0.0 0.0 0.0 0.0 0.0 0.0 0.0 0.0 0.0 0.0 0.0 0.0 0.0 0.0 0.0 0.0 0.0 0.0 0.0 0.0 0.0 0.0 0.0 0.0 0.0 0.0 0.0 0.0 0.0 0.0 0.0 0.0 0.0 0.0 0.0 0.0 0.0 0.0 0.0 0.0 0.0 0.0 0.0 0.0
treatment -0.099182 0.44598 -0.31757 0.20181 -0.021758 -0.018978 -0.20842 0.68342 0.16697 0.013223 -0.41078 0.03409 0.37185 0.086275 -0.48855 -0.39136 0.37214 0.50101 0.21192 -1.0301 0.22819 0.52201 0.066853 0.21784 -0.28239 0.17359 0.037546 -0.50462 0.19882 -0.37595 -0.43274 0.068856 0.46196 -0.064434 0.2233 0.39854 -0.11427 0.093087 0.078902 -0.063469 -0.81727 -0.16025 0.35075 -0.10035 0.41884 0.0074341 0.0017347 0.1183 0.25452 0.36219 -0.15821 -0.04084 0.35544 0.076872 0.013264 -0.22003 0.082718 0.070639 0.19254 -0.60625 0.53932 0.4465 -0.3826 -0.33021 0.26602 0.29582 0.087924 -0.35085 -0.033442 -0.41833 0.53444 -0.0030697 0.2973 -0.068816 -0.55525 -0.11871 0.35368 -0.030604 -0.26274 -0.48841 0.35395 0.098445 -0.11476 0.39461 -0.10063 -0.1651 -0.18263 -0.0041334 0.082724 0.12817 0.10908 0.10044 0.1866 0.19044 -0.29993 -0.36307 -0.62639 0.4202 -0.21342 0.12582 0.0 0.0 0.0 0.0 0.0 0.0 0.0 0.0 0.0 0.0 0.0 0.0 0.0 0.0 0.0 0.0 0.0 0.0 0.0 0.0 0.0 0.0 0.0 0.0 0.0 0.0 0.0 0.0 0.0 0.0 0.0 0.0 0.0 0.0 0.0 0.0 0.0 0.0 0.0 0.0 0.0 0.0 0.0 0.0 0.0 0.0 0.0 0.0 0.0 0.0 0.0 0.0 0.0 0.0 0.0 0.0 0.0 0.0 0.0 0.0 0.0 0.0 0.0 0.0 0.0 0.0 0.0 0.0 0.0 0.0 0.0 0.0 0.0 0.0 0.0 0.0 0.0 0.0 0.0 0.0 0.0 0.0 0.0 0.0 0.0 0.0 0.0 0.0 0.0 0.0 0.0 0.0 0.0 0.0 0.0 0.0 0.0 0.0 0.0 0.0 0.0 0.0 0.0 0.0 0.0 0.0 0.0 0.0 0.0 0.0 0.0 0.0 0.0 0.0 0.0 0.0 0.0 0.0 0.0 0.0 0.0 0.0 0.0 0.0 0.0 0.0 0.0 0.0 0.0 0.0 0.0 0.0 0.0 0.0 0.0 0.0 0.0 0.0 0.0 0.0 0.0 0.0 0.0 0.0 0.0 0.0 0.0 0.0 0.0 0.0 0.0 0.0 0.0 0.0 0.0 0.0 0.0 0.0 0.0 0.0 0.0 0.0 0.0 0.0 0.0 0.0 0.0 0.0 0.0 0.0 0.0 0.0 0.0 0.0 0.0 0.0 0.0 0.0 0.0 0.0 0.0 0.0 0.0 0.0 0.0 0.0 0.0 0.0 0.0 0.0 0.0 0.0 0.0 0.0 0.0 0.0 0.0 0.0 0.0 0.0
flight 0.2367 0.1954 -0.072978 0.11144 -0.13917 0.014531 0.04565 0.28321 0.0072819 -0.15358 -0.61505 -0.023391 0.2823 -0.090076 -0.42619 0.10873 0.26715 -0.70857 -0.15369 -0.02859 0.25447 0.028343 -0.3558 -0.16236 -0.13891 -0.57396 0.14472 0.50098 -0.42562 -1.0625 0.43359 0.072479 -0.0067266 0.3163 0.17718 -0.22701 -0.26249 -0.78544 -0.076715 0.64174 -0.36701 -0.0036657 0.57507 -0.21354 0.26423 0.35778 -0.02896 -0.83986 0.18364 0.28892 -0.025671 0.39654 0.53246 0.25975 0.068763 0.47003 -0.15009 -0.43611 0.27584 0.25031 0.12433 0.29795 -0.069563 -0.37152 -0.30297 -0.12751 0.36901 -0.38626 -0.16985 -0.19417 0.47929 -0.12829 -0.072829 -0.12379 0.44601 -0.2965 0.16175 -0.37853 0.52253 -0.21976 -0.034656 -0.53567 0.52079 0.82483 -0.19547 0.54941 -0.67879 -0.12157 -0.041697 -0.38209 0.51789 0.36611 0.61574 -0.28994 -0.38408 0.14953 -0.3636 -0.022615 0.1146 0.27239 0.0 0.0 0.0 0.0 0.0 0.0 0.0 0.0 0.0 0.0 0.0 0.0 0.0 0.0 0.0 0.0 0.0 0.0 0.0 0.0 0.0 0.0 0.0 0.0 0.0 0.0 0.0 0.0 0.0 0.0 0.0 0.0 0.0 0.0 0.0 0.0 0.0 0.0 0.0 0.0 0.0 0.0 0.0 0.0 0.0 0.0 0.0 0.0 0.0 0.0 0.0 0.0 0.0 0.0 0.0 0.0 0.0 0.0 0.0 0.0 0.0 0.0 0.0 0.0 0.0 0.0 0.0 0.0 0.0 0.0 0.0 0.0 0.0 0.0 0.0 0.0 0.0 0.0 0.0 0.0 0.0 0.0 0.0 0.0 0.0 0.0 0.0 0.0 0.0 0.0 0.0 0.0 0.0 0.0 0.0 0.0 0.0 0.0 0.0 0.0 0.0 0.0 0.0 0.0 0.0 0.0 0.0 0.0 0.0 0.0 0.0 0.0 0.0 0.0 0.0 0.0 0.0 0.0 0.0 0.0 0.0 0.0 0.0 0.0 0.0 0.0 0.0 0.0 0.0 0.0 0.0 0.0 0.0 0.0 0.0 0.0 0.0 0.0 0.0 0.0 0.0 0.0 0.0 0.0 0.0 0.0 0.0 0.0 0.0 0.0 0.0 0.0 0.0 0.0 0.0 0.0 0.0 0.0 0.0 0.0 0.0 0.0 0.0 0.0 0.0 0.0 0.0 0.0 0.0 0.0 0.0 0.0 0.0 0.0 0.0 0.0 0.0 0.0 0.0 0.0 0.0 0.0 0.0 0.0 0.0 0.0 0.0 0.0 0.0 0.0 0.0 0.0 0.0 0.0 0.0 0.0 0.0 0.0 0.0 0.0
forest -0.55468 0.048659 0.12159 0.42494 -0.6714 0.22525 -0.138 0.32407 -0.046657 0.54288 -0.93879 0.21967 -0.86715 0.070301 -0.020871 -0.38723 -0.27537 -0.61756 -0.1001 -0.3103 -0.35316 0.34672 0.099255 -0.23393 -0.18176 0.23451 0.68942 -0.58531 -0.2938 -0.53924 0.32161 0.28722 0.13919 0.36772 0.1744 0.78428 -0.58816 0.08388 -0.14248 0.72135 -0.2371 0.015239 0.34306 -0.14068 0.29761 -0.10205 -0.15779 0.16836 0.14055 0.36675 0.29994 0.31264 0.36469 0.60623 -0.84744 -0.088182 0.066087 -0.093304 0.46961 -0.16067 0.014649 -0.071457 0.65354 -0.37256 0.37119 -0.43572 -0.014303 -0.10868 0.27947 0.23779 0.33462 -0.48297 -0.3129 -0.31811 0.38311 -0.4517 0.097369 0.037297 0.30902 -0.18429 -0.48423 0.44405 0.55162 -0.060734 0.35214 -0.59423 -0.095571 0.2172 0.17603 -0.29119 -0.060272 0.0036428 0.48766 -0.0054361 0.0031669 0.070313 0.26138 6.8009E-4 -0.057791 0.41878 0.0 0.0 0.0 0.0 0.0 0.0 0.0 0.0 0.0 0.0 0.0 0.0 0.0 0.0 0.0 0.0 0.0 0.0 0.0 0.0 0.0 0.0 0.0 0.0 0.0 0.0 0.0 0.0 0.0 0.0 0.0 0.0 0.0 0.0 0.0 0.0 0.0 0.0 0.0 0.0 0.0 0.0 0.0 0.0 0.0 0.0 0.0 0.0 0.0 0.0 0.0 0.0 0.0 0.0 0.0 0.0 0.0 0.0 0.0 0.0 0.0 0.0 0.0 0.0 0.0 0.0 0.0 0.0 0.0 0.0 0.0 0.0 0.0 0.0 0.0 0.0 0.0 0.0 0.0 0.0 0.0 0.0 0.0 0.0 0.0 0.0 0.0 0.0 0.0 0.0 0.0 0.0 0.0 0.0 0.0 0.0 0.0 0.0 0.0 0.0 0.0 0.0 0.0 0.0 0.0 0.0 0.0 0.0 0.0 0.0 0.0 0.0 0.0 0.0 0.0 0.0 0.0 0.0 0.0 0.0 0.0 0.0 0.0 0.0 0.0 0.0 0.0 0.0 0.0 0.0 0.0 0.0 0.0 0.0 0.0 0.0 0.0 0.0 0.0 0.0 0.0 0.0 0.0 0.0 0.0 0.0 0.0 0.0 0.0 0.0 0.0 0.0 0.0 0.0 0.0 0.0 0.0 0.0 0.0 0.0 0.0 0.0 0.0 0.0 0.0 0.0 0.0 0.0 0.0 0.0 0.0 0.0 0.0 0.0 0.0 0.0 0.0 0.0 0.0 0.0 0.0 0.0 0.0 0.0 0.0 0.0 0.0 0.0 0.0 0.0 0.0 0.0 0.0 0.0 0.0 0.0 0.0 0.0 0.0 0.0
abuse 0.047871 0.42965 0.15487 0.09327 0.22813 0.092244 -0.24695 0.031134 0.093024 -0.11563 -0.13313 -0.21345 0.044711 0.088195 -0.20322 -0.49742 0.48642 0.7483 0.13766 -0.78809 0.090238 0.17528 -0.1504 -0.021023 -0.92083 0.1519 -0.01721 0.052284 0.57546 -0.14201 -0.046665 -0.3922 5.5246E-4 0.19074 -0.17293 0.2187 -0.22348 -0.19165 -0.52374 -0.12936 0.11726 -0.10485 -0.03989 0.43898 0.07794 -0.17838 -0.10451 0.73596 -0.083925 0.5587 -0.087782 0.34681 0.25595 0.2481 -1.0584 -0.37373 -0.47002 0.54372 0.41014 -0.43328 0.30229 0.086444 -0.1886 -0.1192 0.35578 0.12013 -0.28011 -0.05426 0.095504 -0.43675 0.44242 -0.10961 0.12497 -0.086628 0.23746 0.026393 0.58254 -0.61014 -0.046863 -0.36533 0.66515 0.014426 0.58295 0.7864 -0.31495 -0.038904 -0.15475 -0.32143 0.59223 0.16764 0.12358 0.33896 0.15724 0.54345 -0.54104 0.18358 0.0025375 0.52971 0.063268 0.163 0.0 0.0 0.0 0.0 0.0 0.0 0.0 0.0 0.0 0.0 0.0 0.0 0.0 0.0 0.0 0.0 0.0 0.0 0.0 0.0 0.0 0.0 0.0 0.0 0.0 0.0 0.0 0.0 0.0 0.0 0.0 0.0 0.0 0.0 0.0 0.0 0.0 0.0 0.0 0.0 0.0 0.0 0.0 0.0 0.0 0.0 0.0 0.0 0.0 0.0 0.0 0.0 0.0 0.0 0.0 0.0 0.0 0.0 0.0 0.0 0.0 0.0 0.0 0.0 0.0 0.0 0.0 0.0 0.0 0.0 0.0 0.0 0.0 0.0 0.0 0.0 0.0 0.0 0.0 0.0 0.0 0.0 0.0 0.0 0.0 0.0 0.0 0.0 0.0 0.0 0.0 0.0 0.0 0.0 0.0 0.0 0.0 0.0 0.0 0.0 0.0 0.0 0.0 0.0 0.0 0.0 0.0 0.0 0.0 0.0 0.0 0.0 0.0 0.0 0.0 0.0 0.0 0.0 0.0 0.0 0.0 0.0 0.0 0.0 0.0 0.0 0.0 0.0 0.0 0.0 0.0 0.0 0.0 0.0 0.0 0.0 0.0 0.0 0.0 0.0 0.0 0.0 0.0 0.0 0.0 0.0 0.0 0.0 0.0 0.0 0.0 0.0 0.0 0.0 0.0 0.0 0.0 0.0 0.0 0.0 0.0 0.0 0.0 0.0 0.0 0.0 0.0 0.0 0.0 0.0 0.0 0.0 0.0 0.0 0.0 0.0 0.0 0.0 0.0 0.0 0.0 0.0 0.0 0.0 0.0 0.0 0.0 0.0 0.0 0.0 0.0 0.0 0.0 0.0 0.0 0.0 0.0 0.0 0.0 0.0
criterion 0.0064126 -0.011613 -0.1083 0.30774 -0.24963 -0.37162 -0.035697 0.65778 -0.24567 0.017555 -0.035166 0.3826 -0.16211 -0.086007 0.21659 -0.12999 0.32702 0.13856 0.03864 -0.35103 0.27707 -0.1818 0.52986 -0.25516 -0.34399 0.1689 0.59838 0.25682 -0.4446 -0.1331 -0.0054089 0.22914 0.24805 -0.24647 -0.027381 -0.058316 0.086597 -0.16446 0.055581 -0.214 -0.053073 0.059448 0.39597 0.13236 0.40127 -0.51721 -0.57092 0.054206 0.10994 0.19076 -0.38411 -0.37012 -0.31084 -0.012302 -0.078396 0.13771 0.5109 0.12778 -0.42807 -0.064071 -0.42986 0.30721 0.081357 0.24127 0.32888 0.17169 0.18649 -0.22512 0.27849 -0.49803 0.040179 0.22167 -0.22313 -0.25896 0.017812 0.16273 0.18577 -0.2365 -0.94757 -0.46871 -0.29065 -0.033272 0.23891 0.66906 -0.077887 -0.25728 0.064495 -0.39805 0.2601 0.094824 0.51062 -0.10334 0.048477 -0.021554 -0.3542 -0.1987 -0.55023 -0.12095 -0.34065 0.45034 0.0 0.0 0.0 0.0 0.0 0.0 0.0 0.0 0.0 0.0 0.0 0.0 0.0 0.0 0.0 0.0 0.0 0.0 0.0 0.0 0.0 0.0 0.0 0.0 0.0 0.0 0.0 0.0 0.0 0.0 0.0 0.0 0.0 0.0 0.0 0.0 0.0 0.0 0.0 0.0 0.0 0.0 0.0 0.0 0.0 0.0 0.0 0.0 0.0 0.0 0.0 0.0 0.0 0.0 0.0 0.0 0.0 0.0 0.0 0.0 0.0 0.0 0.0 0.0 0.0 0.0 0.0 0.0 0.0 0.0 0.0 0.0 0.0 0.0 0.0 0.0 0.0 0.0 0.0 0.0 0.0 0.0 0.0 0.0 0.0 0.0 0.0 0.0 0.0 0.0 0.0 0.0 0.0 0.0 0.0 0.0 0.0 0.0 0.0 0.0 0.0 0.0 0.0 0.0 0.0 0.0 0.0 0.0 0.0 0.0 0.0 0.0 0.0 0.0 0.0 0.0 0.0 0.0 0.0 0.0 0.0 0.0 0.0 0.0 0.0 0.0 0.0 0.0 0.0 0.0 0.0 0.0 0.0 0.0 0.0 0.0 0.0 0.0 0.0 0.0 0.0 0.0 0.0 0.0 0.0 0.0 0.0 0.0 0.0 0.0 0.0 0.0 0.0 0.0 0.0 0.0 0.0 0.0 0.0 0.0 0.0 0.0 0.0 0.0 0.0 0.0 0.0 0.0 0.0 0.0 0.0 0.0 0.0 0.0 0.0 0.0 0.0 0.0 0.0 0.0 0.0 0.0 0.0 0.0 0.0 0.0 0.0 0.0 0.0 0.0 0.0 0.0 0.0 0.0 0.0 0.0 0.0 0.0 0.0 0.0
sea -0.60801 0.05255 0.27506 0.37576 -0.44849 0.30495 -0.14727 -0.23131 0.23078 0.50426 -0.9102 0.025918 -1.1514 -0.15548 0.26299 -0.19627 0.20246 -0.62399 -0.24306 -0.028737 -0.17631 0.027983 -0.23156 -0.5783 -0.48568 0.022633 0.55369 -0.051712 -0.19825 -0.8618 0.074316 -0.0030515 -0.0028197 0.18033 0.1552 0.61889 0.11728 -0.16011 0.073481 0.36913 -0.51191 0.0033036 0.55712 -0.15631 0.053884 -0.011221 -0.18733 -0.29645 0.0044665 0.32929 0.16353 0.16833 0.35592 0.3456 -0.37902 0.56986 0.12789 -0.36608 0.46761 -0.47017 0.31959 0.065423 -0.18082 -0.34896 0.31221 -0.16897 -0.010028 -0.52147 -0.088241 0.17278 0.049522 -0.14677 -0.27153 0.17268 0.12232 0.6847 0.44235 -0.22881 -0.043468 -0.19803 -0.067297 -0.4143 0.30702 0.26491 0.53596 0.2486 0.30341 0.28408 0.11481 0.18296 0.2623 -0.26222 0.19558 -0.14898 0.1547 -0.40989 -0.10417 0.019371 -0.12218 0.3456 0.0 0.0 0.0 0.0 0.0 0.0 0.0 0.0 0.0 0.0 0.0 0.0 0.0 0.0 0.0 0.0 0.0 0.0 0.0 0.0 0.0 0.0 0.0 0.0 0.0 0.0 0.0 0.0 0.0 0.0 0.0 0.0 0.0 0.0 0.0 0.0 0.0 0.0 0.0 0.0 0.0 0.0 0.0 0.0 0.0 0.0 0.0 0.0 0.0 0.0 0.0 0.0 0.0 0.0 0.0 0.0 0.0 0.0 0.0 0.0 0.0 0.0 0.0 0.0 0.0 0.0 0.0 0.0 0.0 0.0 0.0 0.0 0.0 0.0 0.0 0.0 0.0 0.0 0.0 0.0 0.0 0.0 0.0 0.0 0.0 0.0 0.0 0.0 0.0 0.0 0.0 0.0 0.0 0.0 0.0 0.0 0.0 0.0 0.0 0.0 0.0 0.0 0.0 0.0 0.0 0.0 0.0 0.0 0.0 0.0 0.0 0.0 0.0 0.0 0.0 0.0 0.0 0.0 0.0 0.0 0.0 0.0 0.0 0.0 0.0 0.0 0.0 0.0 0.0 0.0 0.0 0.0 0.0 0.0 0.0 0.0 0.0 0.0 0.0 0.0 0.0 0.0 0.0 0.0 0.0 0.0 0.0 0.0 0.0 0.0 0.0 0.0 0.0 0.0 0.0 0.0 0.0 0.0 0.0 0.0 0.0 0.0 0.0 0.0 0.0 0.0 0.0 0.0 0.0 0.0 0.0 0.0 0.0 0.0 0.0 0.0 0.0 0.0 0.0 0.0 0.0 0.0 0.0 0.0 0.0 0.0 0.0 0.0 0.0 0.0 0.0 0.0 0.0 0.0 0.0 0.0 0.0 0.0 0.0 0.0
dollar 0.92512 -0.69108 0.14741 -0.17656 0.096844 -0.81109 0.47829 0.26877 -0.049722 0.64161 -0.47333 0.025595 -1.0827 0.02122 -0.10426 -0.44788 -0.2461 0.58659 -0.041165 -0.42847 0.0087574 -0.57053 0.18361 -0.62 -0.12104 -0.64034 -0.10099 -0.067478 0.2366 -0.72135 0.65674 0.29029 -0.36088 0.08894 0.245 0.54452 0.22382 0.094487 0.090332 -0.32151 -0.043234 -0.52837 0.023872 -0.55599 -0.04216 0.25979 0.70639 -0.77811 0.43449 0.11337 0.35957 0.1364 -0.20361 0.14724 0.07456 -0.36338 -0.33537 -0.11895 -0.3196 -0.33496 0.36922 0.23833 0.1945 -0.63456 0.19411 -0.6128 -0.12223 -0.64132 0.024354 -0.091427 0.090506 -0.099152 -0.3303 -0.15304 0.32827 -0.2481 0.06987 -0.52415 -0.17926 -0.69754 -0.19912 -0.19185 0.098567 0.13515 -0.27804 0.28508 0.33186 0.042727 0.48996 0.43492 0.91611 -0.22569 -5.8356E-4 0.13339 -0.45756 -0.054682 0.12247 0.53404 -0.22918 -0.0043237 0.0 0.0 0.0 0.0 0.0 0.0 0.0 0.0 0.0 0.0 0.0 0.0 0.0 0.0 0.0 0.0 0.0 0.0 0.0 0.0 0.0 0.0 0.0 0.0 0.0 0.0 0.0 0.0 0.0 0.0 0.0 0.0 0.0 0.0 0.0 0.0 0.0 0.0 0.0 0.0 0.0 0.0 0.0 0.0 0.0 0.0 0.0 0.0 0.0 0.0 0.0 0.0 0.0 0.0 0.0 0.0 0.0 0.0 0.0 0.0 0.0 0.0 0.0 0.0 0.0 0.0 0.0 0.0 0.0 0.0 0.0 0.0 0.0 0.0 0.0 0.0 0.0 0.0 0.0 0.0 0.0 0.0 0.0 0.0 0.0 0.0 0.0 0.0 0.0 0.0 0.0 0.0 0.0 0.0 0.0 0.0 0.0 0.0 0.0 0.0 0.0 0.0 0.0 0.0 0.0 0.0 0.0 0.0 0.0 0.0 0.0 0.0 0.0 0.0 0.0 0.0 0.0 0.0 0.0 0.0 0.0 0.0 0.0 0.0 0.0 0.0 0.0 0.0 0.0 0.0 0.0 0.0 0.0 0.0 0.0 0.0 0.0 0.0 0.0 0.0 0.0 0.0 0.0 0.0 0.0 0.0 0.0 0.0 0.0 0.0 0.0 0.0 0.0 0.0 0.0 0.0 0.0 0.0 0.0 0.0 0.0 0.0 0.0 0.0 0.0 0.0 0.0 0.0 0.0 0.0 0.0 0.0 0.0 0.0 0.0 0.0 0.0 0.0 0.0 0.0 0.0 0.0 0.0 0.0 0.0 0.0 0.0 0.0 0.0 0.0 0.0 0.0 0.0 0.0 0.0 0.0 0.0 0.0 0.0 0.0
example 0.18509 -0.25393 0.157 0.14859 0.19345 0.16031 0.23721 0.3442 -0.35907 -0.073318 -0.060514 -0.16252 -0.10879 -0.1213 0.085091 -0.22753 -0.11822 0.014335 -0.074967 -0.33804 -0.21764 -0.082315 0.24602 -0.052155 -0.1756 -0.3033 -0.048895 0.17618 -0.31413 -0.3523 -0.27641 0.16083 0.086385 -0.022138 -0.12698 0.27399 -0.080127 -0.096979 0.2063 -0.038705 -0.44386 -0.28187 0.1231 0.29547 0.28363 -0.21813 -0.010782 -0.054613 -0.13569 0.019242 -0.087663 0.16694 0.31383 0.42449 -0.063833 -0.031309 0.34861 0.0059676 0.086605 -0.054888 0.062007 0.10542 -0.16964 -0.19969 -0.10986 -0.0088553 -0.14529 0.018626 0.36421 -0.23325 0.29046 -0.056295 0.023871 -0.11638 0.03624 0.10478 0.17229 0.17432 -0.25916 -0.092876 -0.13885 0.18075 0.13274 0.20386 -0.24399 -0.3693 -0.25606 -0.2189 0.20711 0.15463 0.39138 0.072864 -0.0045609 0.2767 -0.14206 -0.25144 -0.3704 -0.033914 0.044319 0.45326 0.0 0.0 0.0 0.0 0.0 0.0 0.0 0.0 0.0 0.0 0.0 0.0 0.0 0.0 0.0 0.0 0.0 0.0 0.0 0.0 0.0 0.0 0.0 0.0 0.0 0.0 0.0 0.0 0.0 0.0 0.0 0.0 0.0 0.0 0.0 0.0 0.0 0.0 0.0 0.0 0.0 0.0 0.0 0.0 0.0 0.0 0.0 0.0 0.0 0.0 0.0 0.0 0.0 0.0 0.0 0.0 0.0 0.0 0.0 0.0 0.0 0.0 0.0 0.0 0.0 0.0 0.0 0.0 0.0 0.0 0.0 0.0 0.0 0.0 0.0 0.0 0.0 0.0 0.0 0.0 0.0 0.0 0.0 0.0 0.0 0.0 0.0 0.0 0.0 0.0 0.0 0.0 0.0 0.0 0.0 0.0 0.0 0.0 0.0 0.0 0.0 0.0 0.0 0.0 0.0 0.0 0.0 0.0 0.0 0.0 0.0 0.0 0.0 0.0 0.0 0.0 0.0 0.0 0.0 0.0 0.0 0.0 0.0 0.0 0.0 0.0 0.0 0.0 0.0 0.0 0.0 0.0 0.0 0.0 0.0 0.0 0.0 0.0 0.0 0.0 0.0 0.0 0.0 0.0 0.0 0.0 0.0 0.0 0.0 0.0 0.0 0.0 0.0 0.0 0.0 0.0 0.0 0.0 0.0 0.0 0.0 0.0 0.0 0.0 0.0 0.0 0.0 0.0 0.0 0.0 0.0 0.0 0.0 0.0 0.0 0.0 0.0 0.0 0.0 0.0 0.0 0.0 0.0 0.0 0.0 0.0 0.0 0.0 0.0 0.0 0.0 0.0 0.0 0.0 0.0 0.0 0.0 0.0 0.0 0.0
journal 0.34985 0.11321 0.016571 -0.0041927 -0.038605 0.39923 0.327 -0.39868 0.72609 0.37229 -0.32275 0.55428 0.0032649 0.065387 0.803 -0.33163 0.25083 -0.63598 0.17677 -0.64011 0.39425 0.36058 -0.17815 0.34296 -0.78882 -0.29892 -0.06946 -0.35143 -0.44725 -0.85172 -0.2516 0.12495 -0.35769 0.17079 0.062544 0.78823 -0.16965 -0.5087 0.30108 0.10538 0.1605 -0.21705 -0.38229 0.17343 0.32975 0.20517 -0.32494 0.14914 -0.031959 0.95286 -0.26309 0.4336 -0.12237 0.20803 0.1675 0.68119 -0.41315 0.1446 -0.77898 -0.11513 0.44862 0.66449 -0.24127 -0.015944 0.080593 -0.025863 -1.0167 -0.4456 0.49449 -0.81811 0.32528 -0.27888 0.79682 -0.28232 -0.39722 0.10961 0.14953 0.2485 -0.81548 0.37452 0.18429 0.2127 0.46147 0.12582 -0.027039 -0.23697 -0.13228 -0.23885 -0.34403 -0.36992 1.1964 0.50402 0.22024 0.22662 -0.28055 -0.3628 0.066701 0.9539 -0.78725 0.68113 0.0 0.0 0.0 0.0 0.0 0.0 0.0 0.0 0.0 0.0 0.0 0.0 0.0 0.0 0.0 0.0 0.0 0.0 0.0 0.0 0.0 0.0 0.0 0.0 0.0 0.0 0.0 0.0 0.0 0.0 0.0 0.0 0.0 0.0 0.0 0.0 0.0 0.0 0.0 0.0 0.0 0.0 0.0 0.0 0.0 0.0 0.0 0.0 0.0 0.0 0.0 0.0 0.0 0.0 0.0 0.0 0.0 0.0 0.0 0.0 0.0 0.0 0.0 0.0 0.0 0.0 0.0 0.0 0.0 0.0 0.0 0.0 0.0 0.0 0.0 0.0 0.0 0.0 0.0 0.0 0.0 0.0 0.0 0.0 0.0 0.0 0.0 0.0 0.0 0.0 0.0 0.0 0.0 0.0 0.0 0.0 0.0 0.0 0.0 0.0 0.0 0.0 0.0 0.0 0.0 0.0 0.0 0.0 0.0 0.0 0.0 0.0 0.0 0.0 0.0 0.0 0.0 0.0 0.0 0.0 0.0 0.0 0.0 0.0 0.0 0.0 0.0 0.0 0.0 0.0 0.0 0.0 0.0 0.0 0.0 0.0 0.0 0.0 0.0 0.0 0.0 0.0 0.0 0.0 0.0 0.0 0.0 0.0 0.0 0.0 0.0 0.0 0.0 0.0 0.0 0.0 0.0 0.0 0.0 0.0 0.0 0.0 0.0 0.0 0.0 0.0 0.0 0.0 0.0 0.0 0.0 0.0 0.0 0.0 0.0 0.0 0.0 0.0 0.0 0.0 0.0 0.0 0.0 0.0 0.0 0.0 0.0 0.0 0.0 0.0 0.0 0.0 0.0 0.0 0.0 0.0 0.0 0.0 0.0 0.0
laundering -0.042339 0.12219 0.54946 -0.20671 0.78238 -0.27036 -0.048861 0.12827 1.1526 0.058456 -0.32984 -0.319 -1.0317 -0.15035 -0.34667 -0.81827 -0.058842 0.25812 -0.45121 -0.31534 0.46316 0.076483 0.050527 -0.37478 -0.57318 -0.2607 0.11638 0.54129 0.64837 -0.39596 -0.2122 -0.52447 0.063242 0.1134 0.39322 0.40253 0.16446 -1.1403 0.5598 -0.31468 0.038493 -0.6978 0.40846 0.022822 0.49337 0.18363 0.1979 0.49257 0.17404 -0.24112 0.29387 -0.20335 -0.081985 -0.25066 -0.63952 -0.64553 -0.94133 0.50926 -0.41087 0.53793 0.1134 0.29544 0.30074 0.11185 0.25793 0.36937 -0.40189 -0.3929 -0.21507 -0.22029 0.69578 -0.18103 0.13001 -0.14725 0.14458 -0.0036662 0.74935 -0.9183 0.41598 -0.62377 -0.28729 0.28006 0.074802 0.78497 -0.95323 0.16768 -0.16334 -0.43651 0.093731 -0.43648 -0.28542 -0.34105 0.1199 0.93388 -0.030406 -0.35487 -0.2442 0.085255 -0.56015 0.24956 0.0 0.0 0.0 0.0 0.0 0.0 0.0 0.0 0.0 0.0 0.0 0.0 0.0 0.0 0.0 0.0 0.0 0.0 0.0 0.0 0.0 0.0 0.0 0.0 0.0 0.0 0.0 0.0 0.0 0.0 0.0 0.0 0.0 0.0 0.0 0.0 0.0 0.0 0.0 0.0 0.0 0.0 0.0 0.0 0.0 0.0 0.0 0.0 0.0 0.0 0.0 0.0 0.0 0.0 0.0 0.0 0.0 0.0 0.0 0.0 0.0 0.0 0.0 0.0 0.0 0.0 0.0 0.0 0.0 0.0 0.0 0.0 0.0 0.0 0.0 0.0 0.0 0.0 0.0 0.0 0.0 0.0 0.0 0.0 0.0 0.0 0.0 0.0 0.0 0.0 0.0 0.0 0.0 0.0 0.0 0.0 0.0 0.0 0.0 0.0 0.0 0.0 0.0 0.0 0.0 0.0 0.0 0.0 0.0 0.0 0.0 0.0 0.0 0.0 0.0 0.0 0.0 0.0 0.0 0.0 0.0 0.0 0.0 0.0 0.0 0.0 0.0 0.0 0.0 0.0 0.0 0.0 0.0 0.0 0.0 0.0 0.0 0.0 0.0 0.0 0.0 0.0 0.0 0.0 0.0 0.0 0.0 0.0 0.0 0.0 0.0 0.0 0.0 0.0 0.0 0.0 0.0 0.0 0.0 0.0 0.0 0.0 0.0 0.0 0.0 0.0 0.0 0.0 0.0 0.0 0.0 0.0 0.0 0.0 0.0 0.0 0.0 0.0 0.0 0.0 0.0 0.0 0.0 0.0 0.0 0.0 0.0 0.0 0.0 0.0 0.0 0.0 0.0 0.0 0.0 0.0 0.0 0.0 0.0 0.0
hotel 0.22576 0.29795 -0.21912 -0.056557 0.1041 0.39369 0.060794 0.4066 0.34783 -0.15134 -0.71911 -0.035024 -0.11684 0.20379 0.14733 0.015594 0.5072 -0.11066 -0.27062 0.077251 -0.44294 -0.1166 -0.33309 -0.2299 0.10542 -0.69292 0.14538 -0.1091 -0.088762 -0.64633 -0.33406 0.10614 0.064253 -0.26283 -0.29044 0.38956 -0.045807 -0.10108 0.31759 0.3258 -0.84803 -0.43153 0.47382 -0.053224 0.07551 0.11415 -0.25113 -0.3151 0.33979 -0.073447 0.4464 0.48057 0.25561 0.37353 -0.44351 0.30294 -0.16502 -0.16022 -0.057265 0.095296 -0.49624 -0.31497 0.46082 -0.48173 0.18095 0.14088 0.66828 -0.15025 -0.28177 -0.21368 0.23459 0.14112 -0.67985 0.0051704 -0.15232 0.25015 0.27905 0.15893 0.2393 -0.4883 0.066945 0.29988 0.052647 0.75665 -0.13725 -0.073117 -1.3774E-4 -0.13987 -0.12844 0.10173 -0.0087383 -0.42982 0.40992 -0.097495 -0.6506 0.43936 -0.20151 -0.039626 -0.20059 0.27615 0.0 0.0 0.0 0.0 0.0 0.0 0.0 0.0 0.0 0.0 0.0 0.0 0.0 0.0 0.0 0.0 0.0 0.0 0.0 0.0 0.0 0.0 0.0 0.0 0.0 0.0 0.0 0.0 0.0 0.0 0.0 0.0 0.0 0.0 0.0 0.0 0.0 0.0 0.0 0.0 0.0 0.0 0.0 0.0 0.0 0.0 0.0 0.0 0.0 0.0 0.0 0.0 0.0 0.0 0.0 0.0 0.0 0.0 0.0 0.0 0.0 0.0 0.0 0.0 0.0 0.0 0.0 0.0 0.0 0.0 0.0 0.0 0.0 0.0 0.0 0.0 0.0 0.0 0.0 0.0 0.0 0.0 0.0 0.0 0.0 0.0 0.0 0.0 0.0 0.0 0.0 0.0 0.0 0.0 0.0 0.0 0.0 0.0 0.0 0.0 0.0 0.0 0.0 0.0 0.0 0.0 0.0 0.0 0.0 0.0 0.0 0.0 0.0 0.0 0.0 0.0 0.0 0.0 0.0 0.0 0.0 0.0 0.0 0.0 0.0 0.0 0.0 0.0 0.0 0.0 0.0 0.0 0.0 0.0 0.0 0.0 0.0 0.0 0.0 0.0 0.0 0.0 0.0 0.0 0.0 0.0 0.0 0.0 0.0 0.0 0.0 0.0 0.0 0.0 0.0 0.0 0.0 0.0 0.0 0.0 0.0 0.0 0.0 0.0 0.0 0.0 0.0 0.0 0.0 0.0 0.0 0.0 0.0 0.0 0.0 0.0 0.0 0.0 0.0 0.0 0.0 0.0 0.0 0.0 0.0 0.0 0.0 0.0 0.0 0.0 0.0 0.0 0.0 0.0 0.0 0.0 0.0 0.0 0.0 0.0
term 0.032063 -0.75711 -0.059713 0.49421 0.17243 0.2144 0.20544 0.48655 0.29065 0.60048 -0.33397 -0.081592 -0.15383 0.4194 -0.50591 0.30028 0.46723 0.5558 -0.2272 -0.21308 0.097004 -0.60599 0.35743 -0.26776 -0.47854 -0.26557 0.07242 -0.02377 0.15294 -0.29201 0.019617 0.35431 -0.011035 0.089932 0.18979 0.22433 0.12554 -0.12905 -0.21897 -0.47811 -0.72081 0.0076744 0.063082 0.34536 0.4315 0.11229 -0.11909 0.54414 -0.43074 0.15076 0.0021856 -0.40217 0.14679 -0.35605 -0.38001 0.36609 0.28813 -0.16399 -0.31971 -0.0063481 0.092095 0.71663 -0.1354 -0.0070674 0.57835 0.070131 -0.23237 -0.28566 0.13593 -0.21946 -0.46029 -0.084217 -0.31104 -0.08371 0.081566 -0.44818 0.32293 -0.20793 -0.44291 -0.43538 -0.18403 0.23438 -0.031232 0.48202 -0.5816 -0.29331 -0.4434 0.039391 0.060686 -0.046517 0.083624 0.16466 -0.42188 0.012823 0.034318 -0.64297 -0.074009 0.066803 -0.099119 0.45109 0.0 0.0 0.0 0.0 0.0 0.0 0.0 0.0 0.0 0.0 0.0 0.0 0.0 0.0 0.0 0.0 0.0 0.0 0.0 0.0 0.0 0.0 0.0 0.0 0.0 0.0 0.0 0.0 0.0 0.0 0.0 0.0 0.0 0.0 0.0 0.0 0.0 0.0 0.0 0.0 0.0 0.0 0.0 0.0 0.0 0.0 0.0 0.0 0.0 0.0 0.0 0.0 0.0 0.0 0.0 0.0 0.0 0.0 0.0 0.0 0.0 0.0 0.0 0.0 0.0 0.0 0.0 0.0 0.0 0.0 0.0 0.0 0.0 0.0 0.0 0.0 0.0 0.0 0.0 0.0 0.0 0.0 0.0 0.0 0.0 0.0 0.0 0.0 0.0 0.0 0.0 0.0 0.0 0.0 0.0 0.0 0.0 0.0 0.0 0.0 0.0 0.0 0.0 0.0 0.0 0.0 0.0 0.0 0.0 0.0 0.0 0.0 0.0 0.0 0.0 0.0 0.0 0.0 0.0 0.0 0.0 0.0 0.0 0.0 0.0 0.0 0.0 0.0 0.0 0.0 0.0 0.0 0.0 0.0 0.0 0.0 0.0 0.0 0.0 0.0 0.0 0.0 0.0 0.0 0.0 0.0 0.0 0.0 0.0 0.0 0.0 0.0 0.0 0.0 0.0 0.0 0.0 0.0 0.0 0.0 0.0 0.0 0.0 0.0 0.0 0.0 0.0 0.0 0.0 0.0 0.0 0.0 0.0 0.0 0.0 0.0 0.0 0.0 0.0 0.0 0.0 0.0 0.0 0.0 0.0 0.0 0.0 0.0 0.0 0.0 0.0 0.0 0.0 0.0 0.0 0.0 0.0 0.0 0.0 0.0
listing 0.15408 -0.36454 0.096589 0.014857 -0.30824 -0.31422 0.077916 0.47728 -0.015188 0.056448 -0.33551 0.18594 -0.37018 0.019074 0.41777 -0.037319 0.5479 -0.29058 -0.42289 -0.19814 0.29272 0.205 0.034655 -0.24401 0.23008 -0.36028 0.25323 0.075885 0.1627 -0.44311 -0.14645 -0.041291 -0.40059 -0.020457 -0.039255 0.027148 -0.36227 0.030194 0.60092 0.32222 -0.070245 0.11932 0.16893 -0.027319 0.15883 0.16141 0.15156 -0.2284 0.41093 -0.038116 0.23401 0.16395 0.092844 0.43952 0.10576 0.33031 0.47073 0.42726 -0.23241 0.24619 0.098981 -0.10824 0.43702 0.08068 0.24807 0.27288 0.1014 -0.040933 0.32854 -0.76059 -0.23239 -0.50893 -0.17274 -0.03357 -0.0080923 -0.59954 0.04217 0.12104 -0.061163 -0.56308 -0.068094 0.34778 0.43546 0.86758 -0.29563 0.19727 0.11637 -0.29435 0.2543 0.06181 0.27081 0.038869 0.091958 0.14356 -0.13228 -0.39864 -0.47407 0.31522 -0.020391 0.45034 0.0 0.0 0.0 0.0 0.0 0.0 0.0 0.0 0.0 0.0 0.0 0.0 0.0 0.0 0.0 0.0 0.0 0.0 0.0 0.0 0.0 0.0 0.0 0.0 0.0 0.0 0.0 0.0 0.0 0.0 0.0 0.0 0.0 0.0 0.0 0.0 0.0 0.0 0.0 0.0 0.0 0.0 0.0 0.0 0.0 0.0 0.0 0.0 0.0 0.0 0.0 0.0 0.0 0.0 0.0 0.0 0.0 0.0 0.0 0.0 0.0 0.0 0.0 0.0 0.0 0.0 0.0 0.0 0.0 0.0 0.0 0.0 0.0 0.0 0.0 0.0 0.0 0.0 0.0 0.0 0.0 0.0 0.0 0.0 0.0 0.0 0.0 0.0 0.0 0.0 0.0 0.0 0.0 0.0 0.0 0.0 0.0 0.0 0.0 0.0 0.0 0.0 0.0 0.0 0.0 0.0 0.0 0.0 0.0 0.0 0.0 0.0 0.0 0.0 0.0 0.0 0.0 0.0 0.0 0.0 0.0 0.0 0.0 0.0 0.0 0.0 0.0 0.0 0.0 0.0 0.0 0.0 0.0 0.0 0.0 0.0 0.0 0.0 0.0 0.0 0.0 0.0 0.0 0.0 0.0 0.0 0.0 0.0 0.0 0.0 0.0 0.0 0.0 0.0 0.0 0.0 0.0 0.0 0.0 0.0 0.0 0.0 0.0 0.0 0.0 0.0 0.0 0.0 0.0 0.0 0.0 0.0 0.0 0.0 0.0 0.0 0.0 0.0 0.0 0.0 0.0 0.0 0.0 0.0 0.0 0.0 0.0 0.0 0.0 0.0 0.0 0.0 0.0 0.0 0.0 0.0 0.0 0.0 0.0 0.0
chemistry -0.0067112 0.14462 0.44893 -0.29054 -0.050292 0.59398 0.12271 0.11066 -0.19826 -0.25791 -0.32455 0.35181 0.013605 -0.23623 0.036107 0.14046 0.4932 -0.016276 -0.12441 -0.67252 -0.51305 -0.03603 0.35263 -0.36623 -0.53544 0.33016 0.25626 -0.067021 -0.56768 -0.16853 0.36118 -0.26729 0.10789 -0.3361 0.050749 0.30675 -0.25121 -0.35989 -0.18199 0.32789 -0.35556 -0.41118 0.58472 -0.36805 -0.15237 -0.36789 -0.42541 0.102 -0.25768 0.76683 -0.24386 -0.21523 0.16814 -0.023758 0.19206 0.24064 0.0062868 -0.60521 -0.36055 0.14185 0.37066 0.32908 -0.19175 0.51225 0.52817 0.043182 -0.13216 0.040749 0.037034 -0.58116 0.33901 0.1905 0.32264 0.054385 -0.21567 0.21532 -0.15931 -0.1804 -0.057715 -0.18861 -0.54685 0.012872 0.078875 0.092191 0.2904 -0.43012 -0.27184 -0.059621 -0.1177 -0.10376 0.65223 0.54907 0.80198 0.37818 -0.16625 -0.4312 0.10176 0.48619 -1.2142 0.18862 0.0 0.0 0.0 0.0 0.0 0.0 0.0 0.0 0.0 0.0 0.0 0.0 0.0 0.0 0.0 0.0 0.0 0.0 0.0 0.0 0.0 0.0 0.0 0.0 0.0 0.0 0.0 0.0 0.0 0.0 0.0 0.0 0.0 0.0 0.0 0.0 0.0 0.0 0.0 0.0 0.0 0.0 0.0 0.0 0.0 0.0 0.0 0.0 0.0 0.0 0.0 0.0 0.0 0.0 0.0 0.0 0.0 0.0 0.0 0.0 0.0 0.0 0.0 0.0 0.0 0.0 0.0 0.0 0.0 0.0 0.0 0.0 0.0 0.0 0.0 0.0 0.0 0.0 0.0 0.0 0.0 0.0 0.0 0.0 0.0 0.0 0.0 0.0 0.0 0.0 0.0 0.0 0.0 0.0 0.0 0.0 0.0 0.0 0.0 0.0 0.0 0.0 0.0 0.0 0.0 0.0 0.0 0.0 0.0 0.0 0.0 0.0 0.0 0.0 0.0 0.0 0.0 0.0 0.0 0.0 0.0 0.0 0.0 0.0 0.0 0.0 0.0 0.0 0.0 0.0 0.0 0.0 0.0 0.0 0.0 0.0 0.0 0.0 0.0 0.0 0.0 0.0 0.0 0.0 0.0 0.0 0.0 0.0 0.0 0.0 0.0 0.0 0.0 0.0 0.0 0.0 0.0 0.0 0.0 0.0 0.0 0.0 0.0 0.0 0.0 0.0 0.0 0.0 0.0 0.0 0.0 0.0 0.0 0.0 0.0 0.0 0.0 0.0 0.0 0.0 0.0 0.0 0.0 0.0 0.0 0.0 0.0 0.0 0.0 0.0 0.0 0.0 0.0 0.0 0.0 0.0 0.0 0.0 0.0 0.0
seafood -0.51789 -0.12805 0.74229 -0.59138 -0.35894 0.045513 -0.23253 -0.14934 -0.15011 -0.05441 -1.0717 0.11427 -1.0275 0.24268 -0.18123 -0.32258 0.6452 -0.69636 -0.26698 -0.5962 -0.71825 -0.4777 0.35103 0.25372 -0.53477 -0.32146 0.84258 0.27075 -0.22734 -1.0047 0.10357 -0.042393 0.18648 0.066141 -0.29078 0.23183 -0.31256 -0.086985 1.0054 -0.19387 -0.84556 -0.22698 0.26916 0.0943 0.11846 0.18663 -0.14804 -0.03391 0.46579 0.10705 0.29901 0.28508 0.13436 0.47512 -0.12788 -0.24179 0.056107 0.13014 -0.33404 -0.1162 -0.06835 -0.45902 -0.52102 -0.30678 0.18302 0.15398 0.52835 -0.40598 0.11162 -0.32238 0.19428 -0.25759 -0.33463 -0.079375 -0.18173 0.18681 0.76569 -0.17762 0.21206 -0.047726 -0.0083971 -0.011156 -0.30352 0.24231 0.18249 0.46137 0.43199 0.7144 0.23924 0.14664 0.48831 -0.49206 0.41946 0.2034 -0.065062 -0.67815 -0.036459 -0.2549 -0.39641 0.47612 0.0 0.0 0.0 0.0 0.0 0.0 0.0 0.0 0.0 0.0 0.0 0.0 0.0 0.0 0.0 0.0 0.0 0.0 0.0 0.0 0.0 0.0 0.0 0.0 0.0 0.0 0.0 0.0 0.0 0.0 0.0 0.0 0.0 0.0 0.0 0.0 0.0 0.0 0.0 0.0 0.0 0.0 0.0 0.0 0.0 0.0 0.0 0.0 0.0 0.0 0.0 0.0 0.0 0.0 0.0 0.0 0.0 0.0 0.0 0.0 0.0 0.0 0.0 0.0 0.0 0.0 0.0 0.0 0.0 0.0 0.0 0.0 0.0 0.0 0.0 0.0 0.0 0.0 0.0 0.0 0.0 0.0 0.0 0.0 0.0 0.0 0.0 0.0 0.0 0.0 0.0 0.0 0.0 0.0 0.0 0.0 0.0 0.0 0.0 0.0 0.0 0.0 0.0 0.0 0.0 0.0 0.0 0.0 0.0 0.0 0.0 0.0 0.0 0.0 0.0 0.0 0.0 0.0 0.0 0.0 0.0 0.0 0.0 0.0 0.0 0.0 0.0 0.0 0.0 0.0 0.0 0.0 0.0 0.0 0.0 0.0 0.0 0.0 0.0 0.0 0.0 0.0 0.0 0.0 0.0 0.0 0.0 0.0 0.0 0.0 0.0 0.0 0.0 0.0 0.0 0.0 0.0 0.0 0.0 0.0 0.0 0.0 0.0 0.0 0.0 0.0 0.0 0.0 0.0 0.0 0.0 0.0 0.0 0.0 0.0 0.0 0.0 0.0 0.0 0.0 0.0 0.0 0.0 0.0 0.0 0.0 0.0 0.0 0.0 0.0 0.0 0.0 0.0 0.0 0.0 0.0 0.0 0.0 0.0 0.0
CD 0.089896 -0.46045 -0.10419 0.27049 0.13952 -0.044736 0.22085 0.59892 -0.17177 0.58182 -0.1783 0.49408 0.1404 -0.14206 0.61087 0.46342 0.33359 0.40672 -0.12237 -0.46525 0.37069 -0.38772 -0.37846 0.34758 -0.15705 0.3894 0.32213 0.40299 -0.34625 -0.31465 0.13679 0.53511 0.02574 -0.22023 -0.31287 0.43129 -0.54208 -0.34758 0.41936 -0.04887 0.38369 -0.10211 0.24927 0.014827 0.08932 0.42687 0.54955 -0.29548 -0.033175 -0.067515 0.55029 0.22793 -0.25543 0.63384 -0.2083 0.0072407 -0.2636 -0.087453 -0.20472 0.27254 0.053563 -0.5436 -0.02398 -0.064595 0.46044 0.042507 -1.0274 -0.12866 0.4794 -0.26875 1.1298 0.11347 -0.65638 0.1362 -0.24389 0.20172 -0.058236 -0.6534 0.34711 -0.57453 -0.39621 0.10589 0.35715 0.34321 0.16929 0.045892 -0.0020205 -0.0067272 0.48289 0.010112 0.77873 0.26975 0.48574 -0.047972 0.017477 0.087448 -0.12719 0.022194 -0.14151 -0.26322 0.0 0.0 0.0 0.0 0.0 0.0 0.0 0.0 0.0 0.0 0.0 0.0 0.0 0.0 0.0 0.0 0.0 0.0 0.0 0.0 0.0 0.0 0.0 0.0 0.0 0.0 0.0 0.0 0.0 0.0 0.0 0.0 0.0 0.0 0.0 0.0 0.0 0.0 0.0 0.0 0.0 0.0 0.0 0.0 0.0 0.0 0.0 0.0 0.0 0.0 0.0 0.0 0.0 0.0 0.0 0.0 0.0 0.0 0.0 0.0 0.0 0.0 0.0 0.0 0.0 0.0 0.0 0.0 0.0 0.0 0.0 0.0 0.0 0.0 0.0 0.0 0.0 0.0 0.0 0.0 0.0 0.0 0.0 0.0 0.0 0.0 0.0 0.0 0.0 0.0 0.0 0.0 0.0 0.0 0.0 0.0 0.0 0.0 0.0 0.0 0.0 0.0 0.0 0.0 0.0 0.0 0.0 0.0 0.0 0.0 0.0 0.0 0.0 0.0 0.0 0.0 0.0 0.0 0.0 0.0 0.0 0.0 0.0 0.0 0.0 0.0 0.0 0.0 0.0 0.0 0.0 0.0 0.0 0.0 0.0 0.0 0.0 0.0 0.0 0.0 0.0 0.0 0.0 0.0 0.0 0.0 0.0 0.0 0.0 0.0 0.0 0.0 0.0 0.0 0.0 0.0 0.0 0.0 0.0 0.0 0.0 0.0 0.0 0.0 0.0 0.0 0.0 0.0 0.0 0.0 0.0 0.0 0.0 0.0 0.0 0.0 0.0 0.0 0.0 0.0 0.0 0.0 0.0 0.0 0.0 0.0 0.0 0.0 0.0 0.0 0.0 0.0 0.0 0.0 0.0 0.0 0.0 0.0 0.0 0.0
mind 0.083297 -0.17123 0.15254 0.48097 -0.22239 0.34145 0.20928 0.236 -0.26735 -0.075071 0.15335 0.21578 -0.079894 0.031642 0.2422 -0.29835 0.12695 -0.29595 -0.10557 -0.25034 0.0092975 -0.25149 -0.11203 -0.43265 -0.24179 -0.079376 0.54971 -0.034667 -0.038374 -0.24004 0.23468 -0.10459 0.3039 -0.22189 -0.20745 0.53506 -0.14045 -0.36198 0.36962 -0.30852 -0.010877 -0.20681 0.038241 0.021411 -0.090135 -0.41835 -0.3321 -0.1138 -0.034336 0.41268 -0.058247 0.022603 -0.061609 0.17873 -0.26869 0.035623 0.11082 -0.2124 -0.10344 -0.18356 -0.25697 0.19887 0.12549 -0.19654 0.16761 -0.23914 -0.29503 -0.041966 0.39419 -0.40166 0.36274 -0.010118 -0.4859 0.31916 0.19827 0.022876 -0.070248 -0.17781 -0.36969 -0.479 -0.20158 -0.094552 -0.31113 0.66431 0.10793 -0.16053 -0.2932 0.050632 0.12608 0.12136 -0.059878 0.13056 0.14245 0.012343 0.12221 0.062794 -0.31794 0.13102 -0.33723 0.041798 0.0 0.0 0.0 0.0 0.0 0.0 0.0 0.0 0.0 0.0 0.0 0.0 0.0 0.0 0.0 0.0 0.0 0.0 0.0 0.0 0.0 0.0 0.0 0.0 0.0 0.0 0.0 0.0 0.0 0.0 0.0 0.0 0.0 0.0 0.0 0.0 0.0 0.0 0.0 0.0 0.0 0.0 0.0 0.0 0.0 0.0 0.0 0.0 0.0 0.0 0.0 0.0 0.0 0.0 0.0 0.0 0.0 0.0 0.0 0.0 0.0 0.0 0.0 0.0 0.0 0.0 0.0 0.0 0.0 0.0 0.0 0.0 0.0 0.0 0.0 0.0 0.0 0.0 0.0 0.0 0.0 0.0 0.0 0.0 0.0 0.0 0.0 0.0 0.0 0.0 0.0 0.0 0.0 0.0 0.0 0.0 0.0 0.0 0.0 0.0 0.0 0.0 0.0 0.0 0.0 0.0 0.0 0.0 0.0 0.0 0.0 0.0 0.0 0.0 0.0 0.0 0.0 0.0 0.0 0.0 0.0 0.0 0.0 0.0 0.0 0.0 0.0 0.0 0.0 0.0 0.0 0.0 0.0 0.0 0.0 0.0 0.0 0.0 0.0 0.0 0.0 0.0 0.0 0.0 0.0 0.0 0.0 0.0 0.0 0.0 0.0 0.0 0.0 0.0 0.0 0.0 0.0 0.0 0.0 0.0 0.0 0.0 0.0 0.0 0.0 0.0 0.0 0.0 0.0 0.0 0.0 0.0 0.0 0.0 0.0 0.0 0.0 0.0 0.0 0.0 0.0 0.0 0.0 0.0 0.0 0.0 0.0 0.0 0.0 0.0 0.0 0.0 0.0 0.0 0.0 0.0 0.0 0.0 0.0 0.0
sex -0.19463 0.044381 0.15099 -0.062762 0.33255 0.095809 -0.39521 -0.064905 0.16131 0.20945 0.30239 0.24296 -0.18955 0.22311 -0.046629 -0.14542 -0.03697 -0.076048 -0.3558 -0.67947 -0.65798 -0.10905 -0.2149 -0.076867 -0.43363 0.068724 -0.088981 0.21965 0.59322 -0.45673 0.097681 -0.42808 0.14595 -0.53651 0.52399 0.13204 -0.14452 -0.32984 -0.1196 -0.21772 -0.16501 -0.33955 0.1295 -0.085739 0.37162 -0.2491 -0.60027 0.14441 -0.066244 0.44754 -0.069773 0.41406 0.069931 0.25589 -0.85029 -0.40784 -0.3403 0.25907 0.097269 -0.38564 0.052667 -0.23051 -0.3263 0.0599 0.67336 0.3813 -0.2145 -0.12965 -0.27954 -0.54853 0.42454 -0.22413 -0.5315 -0.15109 0.077615 -0.14085 0.51552 -0.53226 -0.14444 -0.45542 0.48684 -0.1638 0.43392 0.5397 0.12827 -0.11821 -0.35925 -0.34073 0.37908 0.16929 0.25835 0.66957 0.18654 0.50177 -1.1117 0.02393 -0.12863 0.45786 -0.16701 0.22918 0.0 0.0 0.0 0.0 0.0 0.0 0.0 0.0 0.0 0.0 0.0 0.0 0.0 0.0 0.0 0.0 0.0 0.0 0.0 0.0 0.0 0.0 0.0 0.0 0.0 0.0 0.0 0.0 0.0 0.0 0.0 0.0 0.0 0.0 0.0 0.0 0.0 0.0 0.0 0.0 0.0 0.0 0.0 0.0 0.0 0.0 0.0 0.0 0.0 0.0 0.0 0.0 0.0 0.0 0.0 0.0 0.0 0.0 0.0 0.0 0.0 0.0 0.0 0.0 0.0 0.0 0.0 0.0 0.0 0.0 0.0 0.0 0.0 0.0 0.0 0.0 0.0 0.0 0.0 0.0 0.0 0.0 0.0 0.0 0.0 0.0 0.0 0.0 0.0 0.0 0.0 0.0 0.0 0.0 0.0 0.0 0.0 0.0 0.0 0.0 0.0 0.0 0.0 0.0 0.0 0.0 0.0 0.0 0.0 0.0 0.0 0.0 0.0 0.0 0.0 0.0 0.0 0.0 0.0 0.0 0.0 0.0 0.0 0.0 0.0 0.0 0.0 0.0 0.0 0.0 0.0 0.0 0.0 0.0 0.0 0.0 0.0 0.0 0.0 0.0 0.0 0.0 0.0 0.0 0.0 0.0 0.0 0.0 0.0 0.0 0.0 0.0 0.0 0.0 0.0 0.0 0.0 0.0 0.0 0.0 0.0 0.0 0.0 0.0 0.0 0.0 0.0 0.0 0.0 0.0 0.0 0.0 0.0 0.0 0.0 0.0 0.0 0.0 0.0 0.0 0.0 0.0 0.0 0.0 0.0 0.0 0.0 0.0 0.0 0.0 0.0 0.0 0.0 0.0 0.0 0.0 0.0 0.0 0.0 0.0
food -0.13854 0.11542 0.79888 -0.40548 -0.28409 0.25105 -0.24504 -0.076782 -0.087089 0.38177 -0.63538 0.10226 -0.59761 0.21702 0.11555 -0.39466 0.76556 0.04062 -0.0015399 -0.55664 -0.41553 -0.086111 0.31603 0.061334 -0.56103 0.12313 0.39344 0.25487 -0.37473 -0.5761 0.042055 0.048414 0.37968 -0.14491 -0.12686 0.042269 -0.43053 -0.21632 0.0018859 -0.12186 -0.45894 -0.50437 0.10066 0.19829 -0.16028 0.46842 0.1244 0.20097 0.55554 0.0412 0.029751 0.12927 -0.35534 0.6189 0.050876 -0.16674 0.26603 0.0068092 0.23603 -0.23807 -0.4324 -0.13014 -0.40788 -0.35869 0.12983 0.09584 0.26636 -0.59537 0.30953 0.069032 0.44502 -0.1531 -0.14614 -0.20862 0.39302 0.03392 0.56489 0.064262 0.12853 -0.39957 0.21558 0.14646 0.19009 0.32945 0.26227 0.06232 0.22953 0.50743 -0.016821 -0.13091 0.5542 -0.49821 0.12259 0.44509 -0.45803 -0.097536 -0.13714 -0.13312 -0.62269 0.12818 0.0 0.0 0.0 0.0 0.0 0.0 0.0 0.0 0.0 0.0 0.0 0.0 0.0 0.0 0.0 0.0 0.0 0.0 0.0 0.0 0.0 0.0 0.0 0.0 0.0 0.0 0.0 0.0 0.0 0.0 0.0 0.0 0.0 0.0 0.0 0.0 0.0 0.0 0.0 0.0 0.0 0.0 0.0 0.0 0.0 0.0 0.0 0.0 0.0 0.0 0.0 0.0 0.0 0.0 0.0 0.0 0.0 0.0 0.0 0.0 0.0 0.0 0.0 0.0 0.0 0.0 0.0 0.0 0.0 0.0 0.0 0.0 0.0 0.0 0.0 0.0 0.0 0.0 0.0 0.0 0.0 0.0 0.0 0.0 0.0 0.0 0.0 0.0 0.0 0.0 0.0 0.0 0.0 0.0 0.0 0.0 0.0 0.0 0.0 0.0 0.0 0.0 0.0 0.0 0.0 0.0 0.0 0.0 0.0 0.0 0.0 0.0 0.0 0.0 0.0 0.0 0.0 0.0 0.0 0.0 0.0 0.0 0.0 0.0 0.0 0.0 0.0 0.0 0.0 0.0 0.0 0.0 0.0 0.0 0.0 0.0 0.0 0.0 0.0 0.0 0.0 0.0 0.0 0.0 0.0 0.0 0.0 0.0 0.0 0.0 0.0 0.0 0.0 0.0 0.0 0.0 0.0 0.0 0.0 0.0 0.0 0.0 0.0 0.0 0.0 0.0 0.0 0.0 0.0 0.0 0.0 0.0 0.0 0.0 0.0 0.0 0.0 0.0 0.0 0.0 0.0 0.0 0.0 0.0 0.0 0.0 0.0 0.0 0.0 0.0 0.0 0.0 0.0 0.0 0.0 0.0 0.0 0.0 0.0 0.0
precedent 0.17351 0.17624 -0.19804 0.59572 0.10602 -0.66014 0.4223 0.054712 -0.23619 0.064904 -0.53941 -0.13913 -0.26643 0.37252 -0.3124 -0.2658 -0.26381 0.21342 0.16165 -0.34032 0.14257 -0.16142 0.27542 -0.64129 -0.40292 -0.19369 0.61115 0.34628 -0.049664 0.33581 -0.14966 0.07776 0.10322 -0.32818 -0.068466 0.45623 -0.10551 -0.32128 0.3 0.17674 0.24752 0.19959 0.16752 0.52875 0.076989 -0.49849 -0.34731 0.026861 -0.0097268 -0.087789 0.16712 -0.062807 0.065541 -0.14776 -0.23513 0.2204 0.4002 -0.088347 -0.30156 -0.52312 0.010966 -0.17401 -0.029711 -0.19567 -0.10214 -0.17518 -0.25743 -0.27822 0.51661 -0.54926 0.17444 -0.2666 0.18846 -0.12066 0.0046555 0.13759 0.12168 -0.04992 -0.27386 -0.58251 -0.28377 0.19039 0.17955 0.62166 -0.31606 -0.31623 -0.56625 -0.29932 0.71687 0.45349 0.12014 0.2297 -0.13072 0.18626 0.038612 -0.34381 -0.34685 -0.0026782 -0.15003 0.40335 0.0 0.0 0.0 0.0 0.0 0.0 0.0 0.0 0.0 0.0 0.0 0.0 0.0 0.0 0.0 0.0 0.0 0.0 0.0 0.0 0.0 0.0 0.0 0.0 0.0 0.0 0.0 0.0 0.0 0.0 0.0 0.0 0.0 0.0 0.0 0.0 0.0 0.0 0.0 0.0 0.0 0.0 0.0 0.0 0.0 0.0 0.0 0.0 0.0 0.0 0.0 0.0 0.0 0.0 0.0 0.0 0.0 0.0 0.0 0.0 0.0 0.0 0.0 0.0 0.0 0.0 0.0 0.0 0.0 0.0 0.0 0.0 0.0 0.0 0.0 0.0 0.0 0.0 0.0 0.0 0.0 0.0 0.0 0.0 0.0 0.0 0.0 0.0 0.0 0.0 0.0 0.0 0.0 0.0 0.0 0.0 0.0 0.0 0.0 0.0 0.0 0.0 0.0 0.0 0.0 0.0 0.0 0.0 0.0 0.0 0.0 0.0 0.0 0.0 0.0 0.0 0.0 0.0 0.0 0.0 0.0 0.0 0.0 0.0 0.0 0.0 0.0 0.0 0.0 0.0 0.0 0.0 0.0 0.0 0.0 0.0 0.0 0.0 0.0 0.0 0.0 0.0 0.0 0.0 0.0 0.0 0.0 0.0 0.0 0.0 0.0 0.0 0.0 0.0 0.0 0.0 0.0 0.0 0.0 0.0 0.0 0.0 0.0 0.0 0.0 0.0 0.0 0.0 0.0 0.0 0.0 0.0 0.0 0.0 0.0 0.0 0.0 0.0 0.0 0.0 0.0 0.0 0.0 0.0 0.0 0.0 0.0 0.0 0.0 0.0 0.0 0.0 0.0 0.0 0.0 0.0 0.0 0.0 0.0 0.0
series 0.13601 0.50802 0.19309 -0.20992 0.066579 -0.1994 0.23054 0.55844 -0.694 0.063811 0.0081336 -0.11907 -0.072566 0.23145 0.013003 0.085512 -0.18245 0.04705 0.4197 -0.41729 -0.057032 -0.29083 0.086543 -0.10404 0.16058 -0.22768 0.12891 0.015261 0.19686 -0.56393 -0.38105 -0.12064 -0.37274 0.0059872 -0.196 0.24872 -0.17147 -0.46478 0.025775 0.36596 -0.33424 0.26572 -0.25627 0.34422 0.3154 0.22225 0.13131 0.024429 -0.17355 -0.15128 -9.6162E-4 0.12496 -0.18893 0.015745 -0.48615 -0.0028006 -0.45955 0.1239 -0.1614 0.1428 0.44391 0.11822 0.19109 0.0078816 0.015874 0.14541 -0.42889 -0.20305 -0.011397 -0.18055 -0.045848 0.10024 0.063449 0.44195 -0.1758 0.39998 -0.091378 0.35888 -0.27179 -0.75293 0.034905 -0.017951 0.21324 0.76345 0.32239 -0.4396 -0.67467 -0.089556 0.056685 -0.27122 0.25292 0.47185 0.5633 -0.17162 -0.18501 -0.10545 0.49591 0.015274 -0.20423 -0.16233 0.0 0.0 0.0 0.0 0.0 0.0 0.0 0.0 0.0 0.0 0.0 0.0 0.0 0.0 0.0 0.0 0.0 0.0 0.0 0.0 0.0 0.0 0.0 0.0 0.0 0.0 0.0 0.0 0.0 0.0 0.0 0.0 0.0 0.0 0.0 0.0 0.0 0.0 0.0 0.0 0.0 0.0 0.0 0.0 0.0 0.0 0.0 0.0 0.0 0.0 0.0 0.0 0.0 0.0 0.0 0.0 0.0 0.0 0.0 0.0 0.0 0.0 0.0 0.0 0.0 0.0 0.0 0.0 0.0 0.0 0.0 0.0 0.0 0.0 0.0 0.0 0.0 0.0 0.0 0.0 0.0 0.0 0.0 0.0 0.0 0.0 0.0 0.0 0.0 0.0 0.0 0.0 0.0 0.0 0.0 0.0 0.0 0.0 0.0 0.0 0.0 0.0 0.0 0.0 0.0 0.0 0.0 0.0 0.0 0.0 0.0 0.0 0.0 0.0 0.0 0.0 0.0 0.0 0.0 0.0 0.0 0.0 0.0 0.0 0.0 0.0 0.0 0.0 0.0 0.0 0.0 0.0 0.0 0.0 0.0 0.0 0.0 0.0 0.0 0.0 0.0 0.0 0.0 0.0 0.0 0.0 0.0 0.0 0.0 0.0 0.0 0.0 0.0 0.0 0.0 0.0 0.0 0.0 0.0 0.0 0.0 0.0 0.0 0.0 0.0 0.0 0.0 0.0 0.0 0.0 0.0 0.0 0.0 0.0 0.0 0.0 0.0 0.0 0.0 0.0 0.0 0.0 0.0 0.0 0.0 0.0 0.0 0.0 0.0 0.0 0.0 0.0 0.0 0.0 0.0 0.0 0.0 0.0 0.0 0.0
kilometer -0.10638 -0.86682 -0.14994 0.062781 -0.74161 -0.39513 -0.014003 0.37768 0.54144 0.61565 -1.3211 0.54514 -0.54843 -0.2127 -0.3335 -0.26733 -0.50314 -0.67909 0.12045 -0.31239 0.040604 -0.039595 -0.15212 -0.47474 -0.027567 -0.66732 -0.42183 -0.32557 0.05083 -0.86158 0.30189 0.089564 -0.060069 0.33775 0.69218 0.21471 0.42408 -0.54969 0.12582 0.045318 -0.26421 -0.0079889 0.58959 0.12982 0.41911 -0.79021 0.34179 -0.14737 0.092337 0.75368 -0.37931 0.16756 0.48304 -0.17411 -1.073 0.149 0.68169 -0.15706 0.46699 0.3108 -0.24809 0.10182 -0.45362 -0.30334 0.68401 0.39231 0.5154 -0.51779 -0.31419 -0.22826 -0.094268 0.71518 0.15261 0.16664 0.3597 0.55258 0.26188 0.39476 0.70932 0.043467 -0.38435 0.24828 0.031805 0.29534 0.30608 -0.62621 0.18218 -0.023009 -0.12316 -0.77858 -0.09891 0.14617 0.26791 -0.35274 0.11921 0.47316 -0.16091 0.12559 -0.036534 -0.041768 0.0 0.0 0.0 0.0 0.0 0.0 0.0 0.0 0.0 0.0 0.0 0.0 0.0 0.0 0.0 0.0 0.0 0.0 0.0 0.0 0.0 0.0 0.0 0.0 0.0 0.0 0.0 0.0 0.0 0.0 0.0 0.0 0.0 0.0 0.0 0.0 0.0 0.0 0.0 0.0 0.0 0.0 0.0 0.0 0.0 0.0 0.0 0.0 0.0 0.0 0.0 0.0 0.0 0.0 0.0 0.0 0.0 0.0 0.0 0.0 0.0 0.0 0.0 0.0 0.0 0.0 0.0 0.0 0.0 0.0 0.0 0.0 0.0 0.0 0.0 0.0 0.0 0.0 0.0 0.0 0.0 0.0 0.0 0.0 0.0 0.0 0.0 0.0 0.0 0.0 0.0 0.0 0.0 0.0 0.0 0.0 0.0 0.0 0.0 0.0 0.0 0.0 0.0 0.0 0.0 0.0 0.0 0.0 0.0 0.0 0.0 0.0 0.0 0.0 0.0 0.0 0.0 0.0 0.0 0.0 0.0 0.0 0.0 0.0 0.0 0.0 0.0 0.0 0.0 0.0 0.0 0.0 0.0 0.0 0.0 0.0 0.0 0.0 0.0 0.0 0.0 0.0 0.0 0.0 0.0 0.0 0.0 0.0 0.0 0.0 0.0 0.0 0.0 0.0 0.0 0.0 0.0 0.0 0.0 0.0 0.0 0.0 0.0 0.0 0.0 0.0 0.0 0.0 0.0 0.0 0.0 0.0 0.0 0.0 0.0 0.0 0.0 0.0 0.0 0.0 0.0 0.0 0.0 0.0 0.0 0.0 0.0 0.0 0.0 0.0 0.0 0.0 0.0 0.0 0.0 0.0 0.0 0.0 0.0 0.0
grocery -0.29675 -0.55908 0.45671 -0.11081 -0.37567 0.32246 -0.21016 -0.064326 0.0078581 0.089829 -0.51502 0.26631 -0.59822 -0.041129 0.014883 -0.15744 0.54177 0.13786 -0.13639 -0.55876 -0.52351 -0.50749 -0.01744 0.57534 -0.31115 -0.30592 0.1581 0.4771 -0.15339 -0.29887 0.39785 -0.0031547 -0.031841 -0.31009 -0.27668 0.013672 -0.42482 -0.048128 0.3332 -0.029783 -0.24053 -0.79686 0.13357 0.28171 0.046231 0.436 0.10948 0.21924 0.10779 -0.38547 0.56276 0.85567 -0.23876 0.89022 0.20219 -0.078546 0.26808 0.43563 -0.11039 0.010969 -0.65625 0.16865 0.038059 -0.22119 0.25129 0.30244 0.34888 -0.67205 0.29052 -0.55079 0.63984 0.15116 -0.63047 -0.14008 0.24707 -0.28929 0.81166 0.44445 0.50653 -0.015649 -0.089589 0.51965 -0.43898 0.88948 0.049377 0.015753 0.21367 0.26223 -0.070294 -0.11178 0.26457 -0.098383 0.5297 0.13755 -0.44549 0.14641 0.29572 -0.077603 -0.11378 -0.071101 0.0 0.0 0.0 0.0 0.0 0.0 0.0 0.0 0.0 0.0 0.0 0.0 0.0 0.0 0.0 0.0 0.0 0.0 0.0 0.0 0.0 0.0 0.0 0.0 0.0 0.0 0.0 0.0 0.0 0.0 0.0 0.0 0.0 0.0 0.0 0.0 0.0 0.0 0.0 0.0 0.0 0.0 0.0 0.0 0.0 0.0 0.0 0.0 0.0 0.0 0.0 0.0 0.0 0.0 0.0 0.0 0.0 0.0 0.0 0.0 0.0 0.0 0.0 0.0 0.0 0.0 0.0 0.0 0.0 0.0 0.0 0.0 0.0 0.0 0.0 0.0 0.0 0.0 0.0 0.0 0.0 0.0 0.0 0.0 0.0 0.0 0.0 0.0 0.0 0.0 0.0 0.0 0.0 0.0 0.0 0.0 0.0 0.0 0.0 0.0 0.0 0.0 0.0 0.0 0.0 0.0 0.0 0.0 0.0 0.0 0.0 0.0 0.0 0.0 0.0 0.0 0.0 0.0 0.0 0.0 0.0 0.0 0.0 0.0 0.0 0.0 0.0 0.0 0.0 0.0 0.0 0.0 0.0 0.0 0.0 0.0 0.0 0.0 0.0 0.0 0.0 0.0 0.0 0.0 0.0 0.0 0.0 0.0 0.0 0.0 0.0 0.0 0.0 0.0 0.0 0.0 0.0 0.0 0.0 0.0 0.0 0.0 0.0 0.0 0.0 0.0 0.0 0.0 0.0 0.0 0.0 0.0 0.0 0.0 0.0 0.0 0.0 0.0 0.0 0.0 0.0 0.0 0.0 0.0 0.0 0.0 0.0 0.0 0.0 0.0 0.0 0.0 0.0 0.0 0.0 0.0 0.0 0.0 0.0 0.0
wizard -0.052847 -0.25845 0.28557 0.28374 0.075361 0.33994 0.68349 0.31537 -0.77506 0.21812 -0.16735 0.043318 0.30771 0.19369 0.22465 0.01455 0.0029741 -0.69178 0.28996 0.32473 -0.2751 0.062171 -0.012113 -0.38798 -0.38197 0.10786 -0.34371 -0.17744 0.13051 -0.42705 0.086611 -0.48087 0.11174 -0.1998 -0.28712 0.46324 0.013994 -0.18475 -0.3007 -0.15708 0.21922 -0.13611 -0.061141 -0.1692 0.79733 0.13088 -0.29593 -0.069395 0.11626 -0.017237 0.14842 -0.00643 -0.14514 0.56979 -0.098907 0.39798 -0.039013 0.33812 -0.36954 0.37006 0.38168 -0.14083 0.53091 0.054917 0.89415 -0.50491 -0.34123 -0.26569 -0.096058 -0.11417 0.70268 -0.040044 -0.21582 0.031497 0.42966 0.67897 -0.23294 -0.6425 -0.084723 -0.58388 -0.42544 -0.48718 -0.075719 0.43807 -0.43186 -0.66876 -0.70129 -0.9176 -0.2034 0.10089 0.50003 0.20325 0.45127 0.36877 -0.0052818 0.096237 -0.019921 -0.11057 -0.079173 -0.59814 0.0 0.0 0.0 0.0 0.0 0.0 0.0 0.0 0.0 0.0 0.0 0.0 0.0 0.0 0.0 0.0 0.0 0.0 0.0 0.0 0.0 0.0 0.0 0.0 0.0 0.0 0.0 0.0 0.0 0.0 0.0 0.0 0.0 0.0 0.0 0.0 0.0 0.0 0.0 0.0 0.0 0.0 0.0 0.0 0.0 0.0 0.0 0.0 0.0 0.0 0.0 0.0 0.0 0.0 0.0 0.0 0.0 0.0 0.0 0.0 0.0 0.0 0.0 0.0 0.0 0.0 0.0 0.0 0.0 0.0 0.0 0.0 0.0 0.0 0.0 0.0 0.0 0.0 0.0 0.0 0.0 0.0 0.0 0.0 0.0 0.0 0.0 0.0 0.0 0.0 0.0 0.0 0.0 0.0 0.0 0.0 0.0 0.0 0.0 0.0 0.0 0.0 0.0 0.0 0.0 0.0 0.0 0.0 0.0 0.0 0.0 0.0 0.0 0.0 0.0 0.0 0.0 0.0 0.0 0.0 0.0 0.0 0.0 0.0 0.0 0.0 0.0 0.0 0.0 0.0 0.0 0.0 0.0 0.0 0.0 0.0 0.0 0.0 0.0 0.0 0.0 0.0 0.0 0.0 0.0 0.0 0.0 0.0 0.0 0.0 0.0 0.0 0.0 0.0 0.0 0.0 0.0 0.0 0.0 0.0 0.0 0.0 0.0 0.0 0.0 0.0 0.0 0.0 0.0 0.0 0.0 0.0 0.0 0.0 0.0 0.0 0.0 0.0 0.0 0.0 0.0 0.0 0.0 0.0 0.0 0.0 0.0 0.0 0.0 0.0 0.0 0.0 0.0 0.0 0.0 0.0 0.0 0.0 0.0 0.0
information 0.080716 0.038026 0.087563 -0.070791 0.11057 0.41533 0.62852 0.011413 0.31765 -0.18673 -0.46506 0.15289 -0.31467 -0.40161 0.2502 -0.82906 0.37856 0.27346 -0.25622 -0.38155 0.71656 0.29898 -0.51918 0.45064 -0.22381 -0.52636 -0.12722 0.14756 0.029925 -0.40722 0.23335 -0.097605 -0.08864 0.067517 -0.2623 0.42618 -0.51281 0.32668 0.32271 -0.093693 0.31385 -0.43967 0.033609 0.12299 0.093775 -0.13829 -0.20882 0.0098455 0.44783 -0.10276 -0.39606 0.070618 0.47018 0.18708 -0.19584 -0.23475 0.72029 0.11453 -0.1767 0.22693 -0.12292 0.21233 -0.23548 0.050452 0.062389 0.35005 0.17156 -0.060249 0.058321 -0.17372 1.0266 -0.34307 -0.17278 4.562E-6 -0.053283 -0.28162 -0.0077428 -0.0068357 -0.29956 -0.85414 0.10896 -0.091786 0.19872 0.13131 0.070858 -0.3299 -0.61819 -0.32845 0.44844 0.098313 0.21411 0.28826 0.22429 0.34079 0.34014 -0.24362 -0.52928 -0.085696 -0.20102 0.37039 0.0 0.0 0.0 0.0 0.0 0.0 0.0 0.0 0.0 0.0 0.0 0.0 0.0 0.0 0.0 0.0 0.0 0.0 0.0 0.0 0.0 0.0 0.0 0.0 0.0 0.0 0.0 0.0 0.0 0.0 0.0 0.0 0.0 0.0 0.0 0.0 0.0 0.0 0.0 0.0 0.0 0.0 0.0 0.0 0.0 0.0 0.0 0.0 0.0 0.0 0.0 0.0 0.0 0.0 0.0 0.0 0.0 0.0 0.0 0.0 0.0 0.0 0.0 0.0 0.0 0.0 0.0 0.0 0.0 0.0 0.0 0.0 0.0 0.0 0.0 0.0 0.0 0.0 0.0 0.0 0.0 0.0 0.0 0.0 0.0 0.0 0.0 0.0 0.0 0.0 0.0 0.0 0.0 0.0 0.0 0.0 0.0 0.0 0.0 0.0 0.0 0.0 0.0 0.0 0.0 0.0 0.0 0.0 0.0 0.0 0.0 0.0 0.0 0.0 0.0 0.0 0.0 0.0 0.0 0.0 0.0 0.0 0.0 0.0 0.0 0.0 0.0 0.0 0.0 0.0 0.0 0.0 0.0 0.0 0.0 0.0 0.0 0.0 0.0 0.0 0.0 0.0 0.0 0.0 0.0 0.0 0.0 0.0 0.0 0.0 0.0 0.0 0.0 0.0 0.0 0.0 0.0 0.0 0.0 0.0 0.0 0.0 0.0 0.0 0.0 0.0 0.0 0.0 0.0 0.0 0.0 0.0 0.0 0.0 0.0 0.0 0.0 0.0 0.0 0.0 0.0 0.0 0.0 0.0 0.0 0.0 0.0 0.0 0.0 0.0 0.0 0.0 0.0 0.0 0.0 0.0 0.0 0.0 0.0 0.0
Israel -0.14434 0.41061 0.0012461 0.36544 -0.24903 -0.34357 -0.07263 -0.067195 -0.16223 -0.39939 -0.86544 -0.12598 -0.23895 -0.17105 0.17487 -0.30644 0.12099 0.46963 -0.098076 0.064737 0.055216 0.12931 0.32966 -0.66911 0.2132 0.40088 0.34289 0.92779 -0.54687 -0.52555 -0.15982 0.52683 -0.75764 0.10601 0.26697 0.60808 -0.06311 -1.0902 -0.10052 0.29446 -0.30295 0.040163 -0.31001 -0.33566 0.022307 -0.56715 0.43641 -0.068677 0.25693 0.93624 -0.028406 -0.84605 0.23543 0.26122 -0.11385 -0.48084 -0.32092 0.18634 -0.34942 -0.22417 0.055414 0.23358 -0.62552 -0.25163 0.010616 0.5806 -0.10583 -0.64456 0.2879 -0.51572 0.17264 0.3312 -0.71598 0.028599 0.13659 -0.16995 0.59251 0.023637 0.066433 -0.88371 0.19658 0.16884 -0.38587 0.15963 0.40935 -0.34234 -0.52303 -0.37389 -0.27247 0.56006 0.14428 0.14714 -0.65939 -0.3399 -0.17027 -0.26656 0.43112 0.51378 0.24155 0.20605 0.0 0.0 0.0 0.0 0.0 0.0 0.0 0.0 0.0 0.0 0.0 0.0 0.0 0.0 0.0 0.0 0.0 0.0 0.0 0.0 0.0 0.0 0.0 0.0 0.0 0.0 0.0 0.0 0.0 0.0 0.0 0.0 0.0 0.0 0.0 0.0 0.0 0.0 0.0 0.0 0.0 0.0 0.0 0.0 0.0 0.0 0.0 0.0 0.0 0.0 0.0 0.0 0.0 0.0 0.0 0.0 0.0 0.0 0.0 0.0 0.0 0.0 0.0 0.0 0.0 0.0 0.0 0.0 0.0 0.0 0.0 0.0 0.0 0.0 0.0 0.0 0.0 0.0 0.0 0.0 0.0 0.0 0.0 0.0 0.0 0.0 0.0 0.0 0.0 0.0 0.0 0.0 0.0 0.0 0.0 0.0 0.0 0.0 0.0 0.0 0.0 0.0 0.0 0.0 0.0 0.0 0.0 0.0 0.0 0.0 0.0 0.0 0.0 0.0 0.0 0.0 0.0 0.0 0.0 0.0 0.0 0.0 0.0 0.0 0.0 0.0 0.0 0.0 0.0 0.0 0.0 0.0 0.0 0.0 0.0 0.0 0.0 0.0 0.0 0.0 0.0 0.0 0.0 0.0 0.0 0.0 0.0 0.0 0.0 0.0 0.0 0.0 0.0 0.0 0.0 0.0 0.0 0.0 0.0 0.0 0.0 0.0 0.0 0.0 0.0 0.0 0.0 0.0 0.0 0.0 0.0 0.0 0.0 0.0 0.0 0.0 0.0 0.0 0.0 0.0 0.0 0.0 0.0 0.0 0.0 0.0 0.0 0.0 0.0 0.0 0.0 0.0 0.0 0.0 0.0 0.0 0.0 0.0 0.0 0.0
brandy -0.66817 -0.37336 0.34869 0.28578 0.026137 0.065832 0.027342 -0.53397 -0.020632 0.781 -0.43725 -0.023884 -0.1854 -0.1635 -0.47252 0.44617 0.58508 -0.49821 -0.078671 -0.32888 -0.38307 -0.42334 0.11801 0.12302 -0.30989 -0.077268 0.22283 -0.27594 -0.22274 -0.72649 0.25264 -0.16396 -0.22382 0.11079 -0.50074 0.68944 0.056169 -0.37158 -0.084143 -0.215 -1.027 -0.85934 0.42692 0.12571 -0.058804 -0.032519 0.039976 0.15151 -0.065774 0.4984 0.59128 0.5411 0.3106 -0.10743 -0.26857 -0.092347 -0.10337 -0.16923 -0.12203 -0.29016 -0.42752 -0.47945 0.065646 -0.35391 0.49054 -0.10283 0.16983 -0.55704 0.23138 -0.52927 0.83454 -0.11248 -0.33596 0.20932 0.080394 0.20387 0.51603 -0.77312 -0.0096713 -0.023739 0.052323 0.40046 -0.45217 -0.084159 0.19072 0.14184 -0.16479 -0.048649 0.45338 0.079654 0.68804 -0.35111 0.65391 0.30604 0.51276 0.013311 -0.26897 -0.48898 -0.13495 0.0017336 0.0 0.0 0.0 0.0 0.0 0.0 0.0 0.0 0.0 0.0 0.0 0.0 0.0 0.0 0.0 0.0 0.0 0.0 0.0 0.0 0.0 0.0 0.0 0.0 0.0 0.0 0.0 0.0 0.0 0.0 0.0 0.0 0.0 0.0 0.0 0.0 0.0 0.0 0.0 0.0 0.0 0.0 0.0 0.0 0.0 0.0 0.0 0.0 0.0 0.0 0.0 0.0 0.0 0.0 0.0 0.0 0.0 0.0 0.0 0.0 0.0 0.0 0.0 0.0 0.0 0.0 0.0 0.0 0.0 0.0 0.0 0.0 0.0 0.0 0.0 0.0 0.0 0.0 0.0 0.0 0.0 0.0 0.0 0.0 0.0 0.0 0.0 0.0 0.0 0.0 0.0 0.0 0.0 0.0 0.0 0.0 0.0 0.0 0.0 0.0 0.0 0.0 0.0 0.0 0.0 0.0 0.0 0.0 0.0 0.0 0.0 0.0 0.0 0.0 0.0 0.0 0.0 0.0 0.0 0.0 0.0 0.0 0.0 0.0 0.0 0.0 0.0 0.0 0.0 0.0 0.0 0.0 0.0 0.0 0.0 0.0 0.0 0.0 0.0 0.0 0.0 0.0 0.0 0.0 0.0 0.0 0.0 0.0 0.0 0.0 0.0 0.0 0.0 0.0 0.0 0.0 0.0 0.0 0.0 0.0 0.0 0.0 0.0 0.0 0.0 0.0 0.0 0.0 0.0 0.0 0.0 0.0 0.0 0.0 0.0 0.0 0.0 0.0 0.0 0.0 0.0 0.0 0.0 0.0 0.0 0.0 0.0 0.0 0.0 0.0 0.0 0.0 0.0 0.0 0.0 0.0 0.0 0.0 0.0 0.0
interview 0.043847 -0.14193 -0.15991 0.38289 0.033561 0.37203 -0.15114 -0.24186 0.24083 0.057141 -0.44782 0.14855 0.70111 0.26804 0.29366 -0.0056228 -0.025885 -0.07099 0.028927 -0.34036 -0.35339 -0.13556 -0.39348 -0.091196 0.027882 -0.35975 -0.25321 0.071964 0.14473 -0.19659 -0.18718 0.08216 -0.50354 0.30289 -0.58537 0.15736 0.071238 -0.49998 -0.073899 -0.19403 -0.26356 0.22393 0.072717 -0.2478 0.12471 0.35078 0.17463 0.11838 0.55461 0.19538 -0.2004 0.056549 0.5666 0.099004 -0.17813 -0.0049644 -0.4597 0.043479 -0.34085 -0.18432 -0.11642 0.20733 0.0085472 -0.16454 -0.095837 -0.25778 -0.32507 0.42614 0.30048 -0.63729 0.267 0.026929 -0.056528 0.029629 -0.23865 -0.04723 0.30397 0.3375 -0.38478 -0.71867 0.39393 0.3719 0.12989 0.64169 -0.36353 -0.48747 -0.72081 0.22614 0.068139 -0.57281 0.31304 0.27423 0.23346 -0.2707 -0.067942 -0.24811 -0.48312 0.29452 -0.51537 0.57429 0.0 0.0 0.0 0.0 0.0 0.0 0.0 0.0 0.0 0.0 0.0 0.0 0.0 0.0 0.0 0.0 0.0 0.0 0.0 0.0 0.0 0.0 0.0 0.0 0.0 0.0 0.0 0.0 0.0 0.0 0.0 0.0 0.0 0.0 0.0 0.0 0.0 0.0 0.0 0.0 0.0 0.0 0.0 0.0 0.0 0.0 0.0 0.0 0.0 0.0 0.0 0.0 0.0 0.0 0.0 0.0 0.0 0.0 0.0 0.0 0.0 0.0 0.0 0.0 0.0 0.0 0.0 0.0 0.0 0.0 0.0 0.0 0.0 0.0 0.0 0.0 0.0 0.0 0.0 0.0 0.0 0.0 0.0 0.0 0.0 0.0 0.0 0.0 0.0 0.0 0.0 0.0 0.0 0.0 0.0 0.0 0.0 0.0 0.0 0.0 0.0 0.0 0.0 0.0 0.0 0.0 0.0 0.0 0.0 0.0 0.0 0.0 0.0 0.0 0.0 0.0 0.0 0.0 0.0 0.0 0.0 0.0 0.0 0.0 0.0 0.0 0.0 0.0 0.0 0.0 0.0 0.0 0.0 0.0 0.0 0.0 0.0 0.0 0.0 0.0 0.0 0.0 0.0 0.0 0.0 0.0 0.0 0.0 0.0 0.0 0.0 0.0 0.0 0.0 0.0 0.0 0.0 0.0 0.0 0.0 0.0 0.0 0.0 0.0 0.0 0.0 0.0 0.0 0.0 0.0 0.0 0.0 0.0 0.0 0.0 0.0 0.0 0.0 0.0 0.0 0.0 0.0 0.0 0.0 0.0 0.0 0.0 0.0 0.0 0.0 0.0 0.0 0.0 0.0 0.0 0.0 0.0 0.0 0.0 0.0
prominence 0.33867 -0.4835 0.28013 0.27111 0.69397 0.10352 -0.087215 0.19626 -0.02065 -0.36715 0.012764 -0.10251 -0.44914 0.15677 0.34344 0.026692 0.28119 0.02434 0.43172 -0.24463 -0.096221 -0.087646 -0.25756 -0.33001 -0.60178 0.16804 -0.070001 -0.15809 -0.02456 -0.48434 0.30597 -0.30197 -0.095569 -0.25143 -0.68952 0.54712 0.12695 -0.38515 -0.34787 -0.14634 -0.40995 -0.28554 0.11523 0.14925 0.0031803 -0.13753 0.090233 0.31193 0.15771 0.051683 0.037846 -0.36456 0.25995 0.16833 -0.047564 0.033464 0.41316 0.42579 -0.48375 -0.209 0.55767 -0.26699 0.71266 -0.10885 -0.23915 0.040461 -0.30776 0.039522 0.16629 -0.48147 -0.19413 0.31498 0.21488 -0.010478 0.53273 -0.14994 0.29199 -0.15631 -0.24387 -0.92319 -0.25005 -0.013124 0.57176 -0.030485 0.23334 -0.16566 -0.37462 0.35628 0.21601 0.015614 0.51201 0.2386 0.14116 -0.14947 -0.090919 0.38031 -0.2602 0.29095 0.014736 0.07128 0.0 0.0 0.0 0.0 0.0 0.0 0.0 0.0 0.0 0.0 0.0 0.0 0.0 0.0 0.0 0.0 0.0 0.0 0.0 0.0 0.0 0.0 0.0 0.0 0.0 0.0 0.0 0.0 0.0 0.0 0.0 0.0 0.0 0.0 0.0 0.0 0.0 0.0 0.0 0.0 0.0 0.0 0.0 0.0 0.0 0.0 0.0 0.0 0.0 0.0 0.0 0.0 0.0 0.0 0.0 0.0 0.0 0.0 0.0 0.0 0.0 0.0 0.0 0.0 0.0 0.0 0.0 0.0 0.0 0.0 0.0 0.0 0.0 0.0 0.0 0.0 0.0 0.0 0.0 0.0 0.0 0.0 0.0 0.0 0.0 0.0 0.0 0.0 0.0 0.0 0.0 0.0 0.0 0.0 0.0 0.0 0.0 0.0 0.0 0.0 0.0 0.0 0.0 0.0 0.0 0.0 0.0 0.0 0.0 0.0 0.0 0.0 0.0 0.0 0.0 0.0 0.0 0.0 0.0 0.0 0.0 0.0 0.0 0.0 0.0 0.0 0.0 0.0 0.0 0.0 0.0 0.0 0.0 0.0 0.0 0.0 0.0 0.0 0.0 0.0 0.0 0.0 0.0 0.0 0.0 0.0 0.0 0.0 0.0 0.0 0.0 0.0 0.0 0.0 0.0 0.0 0.0 0.0 0.0 0.0 0.0 0.0 0.0 0.0 0.0 0.0 0.0 0.0 0.0 0.0 0.0 0.0 0.0 0.0 0.0 0.0 0.0 0.0 0.0 0.0 0.0 0.0 0.0 0.0 0.0 0.0 0.0 0.0 0.0 0.0 0.0 0.0 0.0 0.0 0.0 0.0 0.0 0.0 0.0 0.0
bed -0.12768 0.02373 0.31182 0.61976 -0.52661 0.74681 -0.14122 0.30285 0.31826 0.42329 -0.32315 -0.20586 0.29323 -0.13394 0.25927 -0.068121 0.29552 -0.058523 0.10142 -0.40086 -0.12365 -0.026506 -0.030946 -0.058873 0.033295 -0.054497 0.026428 -0.49444 -0.10933 -0.35091 -0.090033 -0.042318 -0.019878 -0.41426 0.011232 0.51964 0.096407 -0.10168 0.163 -0.27978 -0.6334 -0.34821 0.44828 -0.22154 0.13599 -0.11661 -0.20331 -0.25762 -0.14587 -0.051664 0.1988 0.13332 -0.047606 0.38605 -0.29448 0.25065 -0.49032 -0.38088 0.3226 -0.47508 -0.20405 0.46164 0.1736 -0.58245 0.50083 -0.4934 -0.030214 -0.29992 -0.039123 -0.25043 0.70681 -0.35211 -0.46282 0.36842 -0.10893 0.31711 0.40888 -0.21391 0.21376 -0.1739 0.27502 0.16096 0.32423 0.77537 0.24375 -0.11942 0.16479 -0.1455 -0.041857 -0.30571 0.42993 -0.18943 0.38985 0.11332 -0.24558 0.28136 -0.0050072 -0.11416 -0.2141 0.061283 0.0 0.0 0.0 0.0 0.0 0.0 0.0 0.0 0.0 0.0 0.0 0.0 0.0 0.0 0.0 0.0 0.0 0.0 0.0 0.0 0.0 0.0 0.0 0.0 0.0 0.0 0.0 0.0 0.0 0.0 0.0 0.0 0.0 0.0 0.0 0.0 0.0 0.0 0.0 0.0 0.0 0.0 0.0 0.0 0.0 0.0 0.0 0.0 0.0 0.0 0.0 0.0 0.0 0.0 0.0 0.0 0.0 0.0 0.0 0.0 0.0 0.0 0.0 0.0 0.0 0.0 0.0 0.0 0.0 0.0 0.0 0.0 0.0 0.0 0.0 0.0 0.0 0.0 0.0 0.0 0.0 0.0 0.0 0.0 0.0 0.0 0.0 0.0 0.0 0.0 0.0 0.0 0.0 0.0 0.0 0.0 0.0 0.0 0.0 0.0 0.0 0.0 0.0 0.0 0.0 0.0 0.0 0.0 0.0 0.0 0.0 0.0 0.0 0.0 0.0 0.0 0.0 0.0 0.0 0.0 0.0 0.0 0.0 0.0 0.0 0.0 0.0 0.0 0.0 0.0 0.0 0.0 0.0 0.0 0.0 0.0 0.0 0.0 0.0 0.0 0.0 0.0 0.0 0.0 0.0 0.0 0.0 0.0 0.0 0.0 0.0 0.0 0.0 0.0 0.0 0.0 0.0 0.0 0.0 0.0 0.0 0.0 0.0 0.0 0.0 0.0 0.0 0.0 0.0 0.0 0.0 0.0 0.0 0.0 0.0 0.0 0.0 0.0 0.0 0.0 0.0 0.0 0.0 0.0 0.0 0.0 0.0 0.0 0.0 0.0 0.0 0.0 0.0 0.0 0.0 0.0 0.0 0.0 0.0 0.0
furnace 0.17509 0.13052 0.76606 -0.46482 -0.40187 0.41289 0.29308 0.61929 0.075235 -0.099572 -1.1972 0.30024 0.10994 -0.39417 -0.21778 0.014353 0.48163 0.12175 0.59644 -0.16742 -0.23755 -0.18203 -0.42862 -0.84197 -0.25739 0.6025 0.37667 -0.42066 -0.51123 -0.17302 0.24692 0.18477 0.70863 -0.3011 0.21063 0.26095 0.096859 0.029652 0.23258 -0.13563 -0.072787 -0.51105 0.50921 -0.064422 0.033489 0.39501 0.14217 0.30585 -0.44967 -0.22272 0.3063 0.17548 0.15935 0.19411 -0.43759 -0.037371 -0.48702 -0.60956 0.59644 0.46707 0.11256 0.43347 -0.23974 -0.27524 0.34612 -0.37063 0.43506 -0.74522 0.51507 -0.77261 0.18812 -0.20758 -0.54267 0.29281 -0.044466 -0.042098 0.30426 -0.13235 0.079825 -0.56693 -0.66143 0.077707 -0.12327 0.1674 0.66115 -0.42727 -0.032575 -0.24284 0.68439 -0.27468 0.35564 -0.18875 0.49435 -0.16628 0.074125 0.13574 0.47903 0.27129 0.42877 0.18914 0.0 0.0 0.0 0.0 0.0 0.0 0.0 0.0 0.0 0.0 0.0 0.0 0.0 0.0 0.0 0.0 0.0 0.0 0.0 0.0 0.0 0.0 0.0 0.0 0.0 0.0 0.0 0.0 0.0 0.0 0.0 0.0 0.0 0.0 0.0 0.0 0.0 0.0 0.0 0.0 0.0 0.0 0.0 0.0 0.0 0.0 0.0 0.0 0.0 0.0 0.0 0.0 0.0 0.0 0.0 0.0 0.0 0.0 0.0 0.0 0.0 0.0 0.0 0.0 0.0 0.0 0.0 0.0 0.0 0.0 0.0 0.0 0.0 0.0 0.0 0.0 0.0 0.0 0.0 0.0 0.0 0.0 0.0 0.0 0.0 0.0 0.0 0.0 0.0 0.0 0.0 0.0 0.0 0.0 0.0 0.0 0.0 0.0 0.0 0.0 0.0 0.0 0.0 0.0 0.0 0.0 0.0 0.0 0.0 0.0 0.0 0.0 0.0 0.0 0.0 0.0 0.0 0.0 0.0 0.0 0.0 0.0 0.0 0.0 0.0 0.0 0.0 0.0 0.0 0.0 0.0 0.0 0.0 0.0 0.0 0.0 0.0 0.0 0.0 0.0 0.0 0.0 0.0 0.0 0.0 0.0 0.0 0.0 0.0 0.0 0.0 0.0 0.0 0.0 0.0 0.0 0.0 0.0 0.0 0.0 0.0 0.0 0.0 0.0 0.0 0.0 0.0 0.0 0.0 0.0 0.0 0.0 0.0 0.0 0.0 0.0 0.0 0.0 0.0 0.0 0.0 0.0 0.0 0.0 0.0 0.0 0.0 0.0 0.0 0.0 0.0 0.0 0.0 0.0 0.0 0.0 0.0 0.0 0.0 0.0
evidence -0.071127 0.57466 -0.091994 0.25736 -0.27409 -0.18221 0.16956 0.026732 0.17782 0.090175 -0.15948 0.23356 -0.21943 -0.067348 0.063353 -0.7199 -0.10738 0.30741 0.017739 -0.017423 0.16168 -0.22363 -0.29138 0.15945 -0.72609 -0.13283 -0.14764 0.30233 -0.097734 -0.051611 -0.11806 -0.1482 -0.34908 0.01511 -0.63852 1.0204 0.22652 -0.087912 -0.02978 -0.34372 0.18315 0.058442 0.47478 0.40943 -0.34265 -0.20111 -0.41286 -0.1478 -0.28711 0.313 -0.23743 -0.22677 0.019007 0.041423 -0.19542 -0.032005 -0.020308 -0.06643 0.0091805 -0.43266 0.011146 0.32972 0.083782 -0.045346 -0.0066151 0.23907 0.042029 -0.092564 0.21789 -0.22991 0.40006 -0.26348 -0.19918 -0.39067 -0.030261 -0.023499 0.21698 -0.11891 0.2392 -0.63513 0.090193 -0.23668 0.1254 0.43486 0.058851 -0.3188 -0.52894 -0.028196 0.44294 -0.25543 0.50315 0.075222 0.59885 0.86232 -0.10817 -0.46008 -0.43175 0.17546 -0.4075 0.58083 0.0 0.0 0.0 0.0 0.0 0.0 0.0 0.0 0.0 0.0 0.0 0.0 0.0 0.0 0.0 0.0 0.0 0.0 0.0 0.0 0.0 0.0 0.0 0.0 0.0 0.0 0.0 0.0 0.0 0.0 0.0 0.0 0.0 0.0 0.0 0.0 0.0 0.0 0.0 0.0 0.0 0.0 0.0 0.0 0.0 0.0 0.0 0.0 0.0 0.0 0.0 0.0 0.0 0.0 0.0 0.0 0.0 0.0 0.0 0.0 0.0 0.0 0.0 0.0 0.0 0.0 0.0 0.0 0.0 0.0 0.0 0.0 0.0 0.0 0.0 0.0 0.0 0.0 0.0 0.0 0.0 0.0 0.0 0.0 0.0 0.0 0.0 0.0 0.0 0.0 0.0 0.0 0.0 0.0 0.0 0.0 0.0 0.0 0.0 0.0 0.0 0.0 0.0 0.0 0.0 0.0 0.0 0.0 0.0 0.0 0.0 0.0 0.0 0.0 0.0 0.0 0.0 0.0 0.0 0.0 0.0 0.0 0.0 0.0 0.0 0.0 0.0 0.0 0.0 0.0 0.0 0.0 0.0 0.0 0.0 0.0 0.0 0.0 0.0 0.0 0.0 0.0 0.0 0.0 0.0 0.0 0.0 0.0 0.0 0.0 0.0 0.0 0.0 0.0 0.0 0.0 0.0 0.0 0.0 0.0 0.0 0.0 0.0 0.0 0.0 0.0 0.0 0.0 0.0 0.0 0.0 0.0 0.0 0.0 0.0 0.0 0.0 0.0 0.0 0.0 0.0 0.0 0.0 0.0 0.0 0.0 0.0 0.0 0.0 0.0 0.0 0.0 0.0 0.0 0.0 0.0 0.0 0.0 0.0 0.0
sprint -0.81781 -0.44664 -0.37955 -0.27463 0.21823 -0.22347 -0.020733 0.48607 0.21485 0.50892 -0.33117 0.47862 -0.17858 0.19446 -0.74093 -0.068456 0.081276 -0.55278 0.48752 -0.27722 -0.27657 -0.067301 0.17243 -0.67254 0.091242 -0.55704 -0.39646 -0.3432 0.43556 0.050476 0.43316 -0.22277 -0.41255 0.12142 -0.0035984 0.1312 -0.12284 -1.2387 -0.33884 -0.86829 -0.16959 -0.41451 0.83259 -0.23383 0.6375 -0.18218 0.065094 -0.81216 -0.19529 0.19985 -0.4918 -0.019052 0.0082736 -0.10011 -0.41819 0.27518 0.48475 0.39762 0.28068 -0.15982 0.1991 0.04623 0.03096 -0.40088 0.26519 0.39434 -0.25398 -0.79209 0.34428 -0.51033 -0.052933 0.14473 0.19046 -0.19764 0.28006 0.70867 0.23693 0.3592 0.27119 -0.3205 -0.28773 -0.053965 0.21611 0.37277 0.058654 -0.30106 -0.17886 0.1131 0.13372 -0.14586 -0.090458 0.2457 0.75576 -0.86952 -0.072219 -0.45938 -0.48124 -0.18619 -0.46405 -0.11035 0.0 0.0 0.0 0.0 0.0 0.0 0.0 0.0 0.0 0.0 0.0 0.0 0.0 0.0 0.0 0.0 0.0 0.0 0.0 0.0 0.0 0.0 0.0 0.0 0.0 0.0 0.0 0.0 0.0 0.0 0.0 0.0 0.0 0.0 0.0 0.0 0.0 0.0 0.0 0.0 0.0 0.0 0.0 0.0 0.0 0.0 0.0 0.0 0.0 0.0 0.0 0.0 0.0 0.0 0.0 0.0 0.0 0.0 0.0 0.0 0.0 0.0 0.0 0.0 0.0 0.0 0.0 0.0 0.0 0.0 0.0 0.0 0.0 0.0 0.0 0.0 0.0 0.0 0.0 0.0 0.0 0.0 0.0 0.0 0.0 0.0 0.0 0.0 0.0 0.0 0.0 0.0 0.0 0.0 0.0 0.0 0.0 0.0 0.0 0.0 0.0 0.0 0.0 0.0 0.0 0.0 0.0 0.0 0.0 0.0 0.0 0.0 0.0 0.0 0.0 0.0 0.0 0.0 0.0 0.0 0.0 0.0 0.0 0.0 0.0 0.0 0.0 0.0 0.0 0.0 0.0 0.0 0.0 0.0 0.0 0.0 0.0 0.0 0.0 0.0 0.0 0.0 0.0 0.0 0.0 0.0 0.0 0.0 0.0 0.0 0.0 0.0 0.0 0.0 0.0 0.0 0.0 0.0 0.0 0.0 0.0 0.0 0.0 0.0 0.0 0.0 0.0 0.0 0.0 0.0 0.0 0.0 0.0 0.0 0.0 0.0 0.0 0.0 0.0 0.0 0.0 0.0 0.0 0.0 0.0 0.0 0.0 0.0 0.0 0.0 0.0 0.0 0.0 0.0 0.0 0.0 0.0 0.0 0.0 0.0
emergency 0.23827 0.19345 -0.18205 -0.22637 -0.37366 0.19548 0.39777 0.37891 -0.046596 0.1025 -0.47873 -0.75947 0.10413 -0.13516 0.043915 0.012904 -0.065372 0.22212 0.11146 0.22776 0.36434 0.30796 0.43218 -0.27008 -0.11323 -0.065389 0.31609 -0.027139 0.28245 -0.37374 0.23398 0.17075 0.34906 0.20161 0.68775 -0.17465 0.17654 0.24931 -0.2705 0.67906 -0.4707 -0.092775 0.48109 -0.061998 0.31156 0.25736 -0.12683 -0.22938 0.58669 -0.30204 -0.028501 0.1232 0.058333 0.28428 0.14944 -0.39584 -0.17572 -0.48832 0.022817 -0.42868 0.074866 0.18623 -0.05091 -0.3181 0.21598 0.043501 -0.24118 -0.73412 0.58217 0.064985 0.56783 -0.003183 -0.3085 -0.49285 -0.30985 0.15365 0.83856 0.31798 -0.1121 -0.83759 0.64662 0.26399 0.51753 0.82049 -0.25785 -0.18707 -0.053961 0.089344 0.44017 -0.33212 -0.072034 0.066014 0.015139 0.16191 0.053974 0.67778 -0.54185 0.026511 -0.35307 0.15825 0.0 0.0 0.0 0.0 0.0 0.0 0.0 0.0 0.0 0.0 0.0 0.0 0.0 0.0 0.0 0.0 0.0 0.0 0.0 0.0 0.0 0.0 0.0 0.0 0.0 0.0 0.0 0.0 0.0 0.0 0.0 0.0 0.0 0.0 0.0 0.0 0.0 0.0 0.0 0.0 0.0 0.0 0.0 0.0 0.0 0.0 0.0 0.0 0.0 0.0 0.0 0.0 0.0 0.0 0.0 0.0 0.0 0.0 0.0 0.0 0.0 0.0 0.0 0.0 0.0 0.0 0.0 0.0 0.0 0.0 0.0 0.0 0.0 0.0 0.0 0.0 0.0 0.0 0.0 0.0 0.0 0.0 0.0 0.0 0.0 0.0 0.0 0.0 0.0 0.0 0.0 0.0 0.0 0.0 0.0 0.0 0.0 0.0 0.0 0.0 0.0 0.0 0.0 0.0 0.0 0.0 0.0 0.0 0.0 0.0 0.0 0.0 0.0 0.0 0.0 0.0 0.0 0.0 0.0 0.0 0.0 0.0 0.0 0.0 0.0 0.0 0.0 0.0 0.0 0.0 0.0 0.0 0.0 0.0 0.0 0.0 0.0 0.0 0.0 0.0 0.0 0.0 0.0 0.0 0.0 0.0 0.0 0.0 0.0 0.0 0.0 0.0 0.0 0.0 0.0 0.0 0.0 0.0 0.0 0.0 0.0 0.0 0.0 0.0 0.0 0.0 0.0 0.0 0.0 0.0 0.0 0.0 0.0 0.0 0.0 0.0 0.0 0.0 0.0 0.0 0.0 0.0 0.0 0.0 0.0 0.0 0.0 0.0 0.0 0.0 0.0 0.0 0.0 0.0 0.0 0.0 0.0 0.0 0.0 0.0
